
/* Species #28 : (Size 2) (AF 0) (Age 23)  */


/* Organism #0 Fitness: 37 Error: 0 */
genomestart 0
trait 1 0.839538 0 0.81503 0 0 0.905546 0 0.619245 
node 1 1 1 3
node 2 1 1 1
node 3 1 1 1
node 4 1 1 1
node 5 1 0 2
node 13 1 0 0
gene 1 1 5 1.43984 0 1 1.43984 1
gene 1 2 5 -6.21599 0 2 -6.21599 1
gene 1 3 5 6.47371 0 3 6.47371 1
gene 1 4 5 1.26105 0 4 1.26105 0
gene 1 5 5 4.68435 1 11 4.68435 1
gene 1 4 13 3.10269 0 57 3.10269 1
gene 1 13 5 -1.06666 0 58 -1.06666 1
gene 1 2 13 -3.94647 0 78 -3.94647 1
gene 1 1 13 -2.12672 0 85 -2.12672 1
gene 1 3 13 1.88893 0 97 1.88893 1
gene 1 13 13 -0.726564 1 117 -0.726564 1
genomeend 0

/* Organism #1 Fitness: 35 Error: 0 */
genomestart 1
trait 1 0.839538 0 0.81503 0 0 0.905546 0 0.619245 
node 1 1 1 3
node 2 1 1 1
node 3 1 1 1
node 4 1 1 1
node 5 1 0 2
node 13 1 0 0
gene 1 1 5 1.43984 0 1 1.43984 1
gene 1 2 5 -6.21599 0 2 -6.21599 1
gene 1 3 5 6.47371 0 3 6.47371 1
gene 1 4 5 1.26105 0 4 1.26105 0
gene 1 5 5 4.68435 1 11 4.68435 1
gene 1 4 13 3.10269 0 57 3.10269 1
gene 1 13 5 -1.06666 0 58 -1.06666 1
gene 1 2 13 -3.94647 0 78 -3.94647 1
gene 1 1 13 -2.12672 0 85 -2.12672 1
gene 1 3 13 1.88893 0 97 1.88893 1
gene 1 13 13 -0.726564 1 117 -0.726564 1
genomeend 1

/* Species #32 : (Size 1) (AF 0) (Age 21)  */


/* Organism #2 Fitness: 20 Error: 0 */
genomestart 2
trait 1 0 0.199442 1 0 0.278499 0.831499 0.797452 0.439901 
node 1 1 1 3
node 2 1 1 1
node 3 1 1 1
node 4 1 1 1
node 5 1 0 2
node 6 1 0 0
gene 1 1 5 3.48796 0 1 3.48796 1
gene 1 2 5 -1.38735 0 2 -1.38735 1
gene 1 3 5 4.8996 0 3 4.8996 1
gene 1 4 5 -0.962207 0 4 -0.962207 1
gene 1 2 6 -4.40232 0 7 -4.40232 1
gene 1 6 5 -2.65083 0 8 -2.65083 1
gene 1 6 6 -0.462471 1 48 -0.462471 1
gene 1 4 6 -1.14449 0 54 -1.14449 1
gene 1 5 5 6.73194 1 66 6.73194 1
gene 1 1 6 -1.86213 0 79 -1.86213 1
gene 1 5 6 3.64656 1 104 3.64656 1
genomeend 2

/* Species #37 : (Size 2) (AF 0) (Age 20)  */


/* Organism #3 Fitness: 19 Error: 0 */
genomestart 3
trait 1 0 0 0 0.774422 0.831493 0 0 0 
node 1 1 1 3
node 2 1 1 1
node 3 1 1 1
node 4 1 1 1
node 5 1 0 2
node 6 1 0 0
node 14 1 0 0
gene 1 1 5 0.494072 0 1 0.494072 1
gene 1 2 5 0.101572 0 2 0.101572 1
gene 1 3 5 -5.83525 0 3 -5.83525 0
gene 1 4 5 -0.0910273 0 4 -0.0910273 1
gene 1 2 6 2.64167 0 7 2.64167 1
gene 1 6 5 1.70346 0 8 1.70346 1
gene 1 3 14 1.60662 0 74 1.60662 1
gene 1 14 5 1.67751 0 75 1.67751 1
gene 1 1 14 -1.76709 0 120 -1.76709 1
gene 1 1 6 -0.492268 0 127 -0.492268 1
gene 1 2 14 -1.2596 0 130 -1.2596 1
gene 1 5 5 1.26896 1 137 1.26896 1
genomeend 3

/* Organism #4 Fitness: 13 Error: 0 */
genomestart 4
trait 1 0 0 0 0.774422 0.831493 0 0 0 
node 1 1 1 3
node 2 1 1 1
node 3 1 1 1
node 4 1 1 1
node 5 1 0 2
node 6 1 0 0
node 14 1 0 0
gene 1 1 5 -0.72941 0 1 -0.72941 1
gene 1 2 5 0.996873 0 2 0.996873 1
gene 1 3 5 -4.31149 0 3 -4.31149 0
gene 1 4 5 1.53141 0 4 1.53141 1
gene 1 2 6 0.938504 0 7 0.938504 1
gene 1 6 5 1.77435 0 8 1.77435 1
gene 1 3 14 3.37452 0 74 3.37452 1
gene 1 14 5 1.67751 0 75 1.67751 1
gene 1 1 14 -0.544967 0 120 -0.544967 1
gene 1 1 6 -2.28383 0 127 -2.28383 1
gene 1 2 14 -0.334528 0 130 -0.334528 1
gene 1 5 5 -0.195004 1 137 -0.195004 1
gene 1 6 6 -0.981307 1 152 -0.981307 1
genomeend 4

/* Species #38 : (Size 2) (AF 0) (Age 20)  */


/* Organism #5 Fitness: 7 Error: 0 */
genomestart 5
trait 1 0.317603 0 0.786311 0.059826 0 0.568921 0.266142 0.149842 
node 1 1 1 3
node 2 1 1 1
node 3 1 1 1
node 4 1 1 1
node 5 1 0 2
node 10 1 0 0
gene 1 1 5 -0.200274 0 1 -0.200274 1
gene 1 2 5 -6.11267 0 2 -6.11267 1
gene 1 3 5 4.81368 0 3 4.81368 1
gene 1 4 5 0.0232963 0 4 0.0232963 1
gene 1 4 10 -4.0595 0 29 -4.0595 1
gene 1 10 5 0.540021 0 30 0.540021 1
gene 1 1 10 0.131546 0 33 0.131546 1
gene 1 2 10 2.10844 0 49 2.10844 1
gene 1 3 10 -4.39769 0 80 -4.39769 1
gene 1 5 10 0.256205 1 92 0.256205 1
genomeend 5

/* Organism #6 Fitness: 17 Error: 0 */
genomestart 6
trait 1 0.317603 0 0.786311 0.059826 0 0.568921 0.266142 0.149842 
node 1 1 1 3
node 2 1 1 1
node 3 1 1 1
node 4 1 1 1
node 5 1 0 2
node 10 1 0 0
gene 1 1 5 -0.200274 0 1 -0.200274 1
gene 1 2 5 -6.11267 0 2 -6.11267 1
gene 1 3 5 4.81368 0 3 4.81368 1
gene 1 4 5 0.0232963 0 4 0.0232963 1
gene 1 4 10 -4.0595 0 29 -4.0595 1
gene 1 10 5 0.540021 0 30 0.540021 1
gene 1 1 10 0.131546 0 33 0.131546 1
gene 1 2 10 2.10844 0 49 2.10844 1
gene 1 3 10 -4.39769 0 80 -4.39769 1
gene 1 5 10 0.256205 1 92 0.256205 1
genomeend 6

/* Species #45 : (Size 1) (AF 0) (Age 18)  */


/* Organism #7 Fitness: 11 Error: 0 */
genomestart 7
trait 1 0.528164 0.11884 0.681582 1 0 0 0 0 
node 1 1 1 3
node 2 1 1 1
node 3 1 1 1
node 4 1 1 1
node 5 1 0 2
gene 1 1 5 4.20959 0 1 4.20959 1
gene 1 2 5 0.185762 0 2 0.185762 1
gene 1 3 5 -0.76071 0 3 -0.76071 1
gene 1 4 5 0.657365 0 4 0.657365 1
gene 1 5 5 -0.558213 1 27 -0.558213 1
genomeend 7

/* Species #51 : (Size 3) (AF 0) (Age 17)  */


/* Organism #8 Fitness: 23 Error: 0 */
genomestart 8
trait 1 0 0 0 0.491642 0.22064 0 0 0.0843586 
node 1 1 1 3
node 2 1 1 1
node 3 1 1 1
node 4 1 1 1
node 5 1 0 2
node 12 1 0 0
node 19 1 0 0
gene 1 1 5 -1.07141 0 1 -1.07141 1
gene 1 2 5 -2.38722 0 2 -2.38722 0
gene 1 3 5 3.30114 0 3 3.30114 1
gene 1 4 5 -1.87733 0 4 -1.87733 1
gene 1 3 12 1.2649 0 50 1.2649 1
gene 1 12 5 0.0297286 0 51 0.0297286 1
gene 1 2 12 -4.83971 0 64 -4.83971 1
gene 1 5 5 0.353496 1 70 0.353496 0
gene 1 5 19 1 1 138 0 1
gene 1 19 5 0.353496 0 139 0 1
gene 1 4 19 0.477307 0 149 0.477307 1
gene 1 1 12 0.672583 0 153 0.672583 1
genomeend 8

/* Organism #9 Fitness: 21 Error: 0 */
genomestart 9
trait 1 0 0 0 0.491642 0.22064 0 0 0.0843586 
node 1 1 1 3
node 2 1 1 1
node 3 1 1 1
node 4 1 1 1
node 5 1 0 2
node 12 1 0 0
node 19 1 0 0
gene 1 1 5 -1.07141 0 1 -1.07141 1
gene 1 2 5 -2.38722 0 2 -2.38722 0
gene 1 3 5 3.30114 0 3 3.30114 1
gene 1 4 5 -1.87733 0 4 -1.87733 1
gene 1 3 12 1.2649 0 50 1.2649 1
gene 1 12 5 0.0297286 0 51 0.0297286 1
gene 1 2 12 -4.83971 0 64 -4.83971 1
gene 1 5 5 0.353496 1 70 0.353496 0
gene 1 5 19 1 1 138 0 1
gene 1 19 5 0.353496 0 139 0 1
gene 1 4 19 0.477307 0 149 0.477307 1
gene 1 12 12 0.502487 1 154 0.502487 1
genomeend 9

/* Organism #10 Fitness: 20 Error: 0 */
genomestart 10
trait 1 0 0 0 0.491642 0.22064 0 0 0.0843586 
node 1 1 1 3
node 2 1 1 1
node 3 1 1 1
node 4 1 1 1
node 5 1 0 2
node 12 1 0 0
node 19 1 0 0
gene 1 1 5 -2.12541 0 1 -2.12541 1
gene 1 2 5 -2.79582 0 2 -2.79582 0
gene 1 3 5 4.09339 0 3 4.09339 1
gene 1 4 5 -0.869205 0 4 -0.869205 1
gene 1 3 12 1.52873 0 50 1.52873 1
gene 1 12 5 -1.34364 0 51 -1.34364 1
gene 1 2 12 -6.41721 0 64 -6.41721 1
gene 1 5 5 -0.321264 1 70 -0.321264 0
gene 1 5 19 -0.62793 1 138 -0.62793 1
gene 1 19 5 0.116968 0 139 0.116968 1
gene 1 4 19 -0.0557749 0 149 -0.0557749 1
genomeend 10

/* Species #53 : (Size 2) (AF 0) (Age 16)  */


/* Organism #11 Fitness: 18 Error: 0 */
genomestart 11
trait 1 0 0 0 0 0 0 0 0 
node 1 1 1 3
node 2 1 1 1
node 3 1 1 1
node 4 1 1 1
node 5 1 0 2
node 6 1 0 0
gene 1 1 5 -3.16529 0 1 -3.16529 1
gene 1 2 5 -3.28199 0 2 -3.28199 1
gene 1 3 5 -1.01496 0 3 -1.01496 1
gene 1 4 5 -3.09774 0 4 -3.09774 1
gene 1 2 6 6.40779 0 7 6.40779 1
gene 1 6 5 -7.24218 0 8 -7.24218 1
gene 1 5 5 1.51458 1 53 1.51458 1
gene 1 3 6 -1.16033 0 71 -1.16033 1
gene 1 4 6 -3.25748 0 88 -3.25748 1
gene 1 1 6 1.18085 0 100 1.18085 1
genomeend 11

/* Organism #12 Fitness: 16 Error: 0 */
genomestart 12
trait 1 0 0 0 0 0 0 0 0 
node 1 1 1 3
node 2 1 1 1
node 3 1 1 1
node 4 1 1 1
node 5 1 0 2
node 6 1 0 0
gene 1 1 5 1.47955 0 1 1.47955 1
gene 1 2 5 -2.09531 0 2 -2.09531 1
gene 1 3 5 0.880316 0 3 0.880316 1
gene 1 4 5 -4.63765 0 4 -4.63765 1
gene 1 2 6 5.36658 0 7 5.36658 1
gene 1 6 5 -2.83618 0 8 -2.83618 1
gene 1 5 5 1.70409 1 53 1.70409 1
gene 1 3 6 -0.0100275 0 71 -0.0100275 1
gene 1 4 6 -3.95895 0 88 -3.95895 1
gene 1 1 6 1.27046 0 100 1.27046 1
genomeend 12

/* Species #54 : (Size 1) (AF 0) (Age 16)  */


/* Organism #13 Fitness: 19 Error: 0 */
genomestart 13
trait 1 0.781863 0 0.802426 0.059826 1 0 0.266142 0.0322794 
node 1 1 1 3
node 2 1 1 1
node 3 1 1 1
node 4 1 1 1
node 5 1 0 2
node 10 1 0 0
gene 1 1 5 -1.45107 0 1 -1.45107 1
gene 1 2 5 -0.0428344 0 2 -0.0428344 1
gene 1 3 5 1.67308 0 3 1.67308 1
gene 1 4 5 -2.7939 0 4 -2.7939 0
gene 1 4 10 -1.4625 0 29 -1.4625 1
gene 1 10 5 -5.52464 0 30 -5.52464 1
gene 1 1 10 -1.25199 0 33 -1.25199 1
gene 1 2 10 -4.79436 0 44 -4.79436 0
gene 1 3 10 0.241314 0 72 0.241314 1
genomeend 13

/* Species #57 : (Size 2) (AF 0) (Age 15)  */


/* Organism #14 Fitness: 17 Error: 0 */
genomestart 14
trait 1 0.595276 0 0.338782 0 0 0 0 0 
node 1 1 1 3
node 2 1 1 1
node 3 1 1 1
node 4 1 1 1
node 5 1 0 2
node 11 1 0 0
gene 1 1 5 2.77356 0 1 2.77356 1
gene 1 2 5 0.789147 0 2 0.789147 1
gene 1 3 5 -0.390211 0 3 -0.390211 1
gene 1 4 5 1.70736 0 4 1.70736 1
gene 1 5 5 1.30443 1 11 1.30443 0
gene 1 5 11 2.68897 1 46 2.68897 1
gene 1 11 5 0.305994 0 47 0.305994 1
gene 1 1 11 0.993558 0 52 0.993558 1
gene 1 11 11 0.37039 1 89 0.37039 1
gene 1 4 11 0.639571 0 122 0.639571 1
gene 1 3 11 0.909368 0 155 0.909368 1
genomeend 14

/* Organism #15 Fitness: 6 Error: 0 */
genomestart 15
trait 1 0.595276 0 0.338782 0 0 0 0 0 
node 1 1 1 3
node 2 1 1 1
node 3 1 1 1
node 4 1 1 1
node 5 1 0 2
node 11 1 0 0
gene 1 1 5 2.77356 0 1 2.77356 1
gene 1 2 5 0.789147 0 2 0.789147 1
gene 1 3 5 -0.390211 0 3 -0.390211 1
gene 1 4 5 1.70736 0 4 1.70736 1
gene 1 5 5 1.30443 1 11 1.30443 0
gene 1 5 11 2.68897 1 46 2.68897 1
gene 1 11 5 0.305994 0 47 0.305994 1
gene 1 1 11 0.993558 0 52 0.993558 1
gene 1 11 11 0.37039 1 89 0.37039 1
gene 1 4 11 0.639571 0 122 0.639571 0
genomeend 15

/* Species #58 : (Size 3) (AF 0) (Age 15)  */


/* Organism #16 Fitness: 21 Error: 0 */
genomestart 16
trait 1 0.450563 0 0.389784 0.0193255 0 0.575647 0.812542 0.393457 
node 1 1 1 3
node 2 1 1 1
node 3 1 1 1
node 4 1 1 1
node 5 1 0 2
gene 1 1 5 1.95855 0 1 1.95855 1
gene 1 2 5 -0.135539 0 2 -0.135539 1
gene 1 3 5 1.32307 0 3 1.32307 1
gene 1 4 5 -0.920722 0 4 -0.920722 1
gene 1 5 5 -0.334844 1 11 -0.334844 1
genomeend 16

/* Organism #17 Fitness: 16 Error: 0 */
genomestart 17
trait 1 0.450563 0 0.389784 0.0193255 0 0.575647 0.812542 0.393457 
node 1 1 1 3
node 2 1 1 1
node 3 1 1 1
node 4 1 1 1
node 5 1 0 2
gene 1 1 5 2.47916 0 1 2.47916 1
gene 1 2 5 -1.30842 0 2 -1.30842 1
gene 1 3 5 -1.4169 0 3 -1.4169 1
gene 1 4 5 -1.39676 0 4 -1.39676 1
gene 1 5 5 0.606266 1 11 0.606266 1
genomeend 17

/* Organism #18 Fitness: 12 Error: 0 */
genomestart 18
trait 1 0.595276 0.172238 0 0.929978 0 0.613833 0.953713 0.00898392 
node 1 1 1 3
node 2 1 1 1
node 3 1 1 1
node 4 1 1 1
node 5 1 0 2
gene 1 1 5 1.56846 0 1 1.56846 1
gene 1 2 5 0.0860068 0 2 0.0860068 1
gene 1 3 5 0.464995 0 3 0.464995 1
gene 1 4 5 0.775024 0 4 0.775024 1
gene 1 5 5 0.711036 1 11 0.711036 1
genomeend 18

/* Species #59 : (Size 2) (AF 0) (Age 15)  */


/* Organism #19 Fitness: 18 Error: 0 */
genomestart 19
trait 1 0.395241 0 0.173393 0.059826 0.114214 0.967053 0 0.449451 
node 1 1 1 3
node 2 1 1 1
node 3 1 1 1
node 4 1 1 1
node 5 1 0 2
node 10 1 0 0
gene 1 1 5 -5.91756 0 1 -5.91756 0
gene 1 2 5 -0.999917 0 2 -0.999917 1
gene 1 3 5 0.976121 0 3 0.976121 1
gene 1 4 5 1.58321 0 4 1.58321 0
gene 1 4 10 7.81076 0 29 7.81076 1
gene 1 10 5 -0.258832 0 30 -0.258832 1
gene 1 1 10 0.327265 0 33 0.327265 1
gene 1 2 10 5.13357 0 44 5.13357 1
gene 1 3 10 2.66622 0 72 2.66622 1
gene 1 5 5 0.766277 1 83 0.766277 1
genomeend 19

/* Organism #20 Fitness: 24 Error: 0 */
genomestart 20
trait 1 0.395241 0 0.173393 0.059826 0.114214 0.967053 0 0.449451 
node 1 1 1 3
node 2 1 1 1
node 3 1 1 1
node 4 1 1 1
node 5 1 0 2
node 10 1 0 0
gene 1 1 5 -6.45331 0 1 -6.45331 0
gene 1 2 5 -2.64149 0 2 -2.64149 1
gene 1 3 5 1.04842 0 3 1.04842 1
gene 1 4 5 2.47336 0 4 2.47336 0
gene 1 4 10 5.03276 0 29 5.03276 1
gene 1 10 5 0.941622 0 30 0.941622 1
gene 1 1 10 -1.7086 0 33 -1.7086 1
gene 1 2 10 2.77745 0 44 2.77745 1
gene 1 3 10 2.37292 0 72 2.37292 1
gene 1 5 5 0.393967 1 83 0.393967 1
gene 1 10 10 0.892522 1 156 0.892522 1
genomeend 20

/* Species #62 : (Size 2) (AF 0) (Age 14)  */


/* Organism #21 Fitness: 14 Error: 0 */
genomestart 21
trait 1 0.595276 0 0 0 0 0 0 0 
node 1 1 1 3
node 2 1 1 1
node 3 1 1 1
node 4 1 1 1
node 5 1 0 2
node 11 1 0 0
node 17 1 0 0
gene 1 1 5 0.970831 0 1 0.970831 1
gene 1 2 5 -0.281328 0 2 -0.281328 1
gene 1 3 5 -1.77773 0 3 -1.77773 1
gene 1 4 5 -0.787348 0 4 -0.787348 1
gene 1 5 5 0.272362 1 11 0.272362 1
gene 1 5 11 -2.8584 1 46 -2.8584 1
gene 1 11 5 -3.76414 0 47 -3.76414 1
gene 1 1 11 0.147807 0 52 0.147807 1
gene 1 3 11 -1.51607 0 101 -1.51607 1
gene 1 4 11 0.629329 0 112 0.629329 1
gene 1 11 17 0.399701 0 123 0.399701 1
gene 1 17 5 -1.2277 0 124 -1.2277 1
gene 1 3 17 -0.57451 0 141 -0.57451 1
gene 1 2 17 0.475938 0 157 0.475938 1
genomeend 21

/* Organism #22 Fitness: 23 Error: 0 */
genomestart 22
trait 1 0.595276 0 0 0 0 0 0 0 
node 1 1 1 3
node 2 1 1 1
node 3 1 1 1
node 4 1 1 1
node 5 1 0 2
node 11 1 0 0
node 17 1 0 0
gene 1 1 5 -0.636315 0 1 -0.636315 1
gene 1 2 5 -1.89929 0 2 -1.89929 1
gene 1 3 5 -1.51185 0 3 -1.51185 1
gene 1 4 5 -1.22862 0 4 -1.22862 1
gene 1 5 5 -0.291795 1 11 -0.291795 1
gene 1 5 11 0.376733 1 46 0.376733 1
gene 1 11 5 -3.76414 0 47 -3.76414 1
gene 1 1 11 1.62395 0 52 1.62395 1
gene 1 3 11 -2.94408 0 101 -2.94408 1
gene 1 4 11 -0.48244 0 112 -0.48244 1
gene 1 11 17 -1.00553 0 123 -1.00553 1
gene 1 17 5 0.421519 0 124 0.421519 1
gene 1 3 17 -0.0278805 0 141 -0.0278805 1
genomeend 22

/* Species #66 : (Size 2) (AF 0) (Age 13)  */


/* Organism #23 Fitness: 16 Error: 0 */
genomestart 23
trait 1 1 0.633598 0.0709163 1 1 0.119371 0 0.010314 
node 1 1 1 3
node 2 1 1 1
node 3 1 1 1
node 4 1 1 1
node 5 1 0 2
node 15 1 0 0
gene 1 1 5 -1.49148 0 1 -1.49148 1
gene 1 2 5 -0.432321 0 2 -0.432321 1
gene 1 3 5 0.885208 0 3 0.885208 1
gene 1 4 5 -0.0191137 0 4 -0.0191137 0
gene 1 5 5 -0.510219 1 22 -0.510219 1
gene 1 4 15 0.563116 0 90 0.563116 1
gene 1 15 5 1.68704 0 91 1.68704 1
genomeend 23

/* Organism #24 Fitness: 32 Error: 0 */
genomestart 24
trait 1 1 0.633598 0.0709163 1 1 0.119371 0 0.010314 
node 1 1 1 3
node 2 1 1 1
node 3 1 1 1
node 4 1 1 1
node 5 1 0 2
node 15 1 0 0
gene 1 1 5 -1.49148 0 1 -1.49148 1
gene 1 2 5 -0.432321 0 2 -0.432321 1
gene 1 3 5 0.885208 0 3 0.885208 1
gene 1 4 5 -0.0191137 0 4 -0.0191137 0
gene 1 5 5 -0.510219 1 22 -0.510219 1
gene 1 4 15 0.563116 0 90 0.563116 1
gene 1 15 5 1.68704 0 91 1.68704 1
gene 1 15 15 0.921066 1 158 0.921066 1
genomeend 24

/* Species #67 : (Size 2) (AF 0) (Age 12)  */


/* Organism #25 Fitness: 14 Error: 0 */
genomestart 25
trait 1 0.738946 0 0 0 0.274505 0 0 0 
node 1 1 1 3
node 2 1 1 1
node 3 1 1 1
node 4 1 1 1
node 5 1 0 2
node 6 1 0 0
gene 1 1 5 0.572142 0 1 0.572142 1
gene 1 2 5 0.60944 0 2 0.60944 0
gene 1 3 5 -2.9072 0 3 -2.9072 1
gene 1 4 5 -1.73458 0 4 -1.73458 1
gene 1 2 6 -1.03357 0 7 -1.03357 1
gene 1 6 5 1.31237 0 8 1.31237 1
gene 1 5 5 -1.15957 1 43 -1.15957 1
gene 1 1 6 -2.03944 0 63 -2.03944 1
gene 1 6 6 0.389469 1 65 0.389469 1
gene 1 3 6 -1.72274 0 98 -1.72274 1
gene 1 4 6 -3.50326 0 113 -3.50326 1
genomeend 25

/* Organism #26 Fitness: 18 Error: 0 */
genomestart 26
trait 1 0.738946 0 0 0 0.274505 0 0 0 
node 1 1 1 3
node 2 1 1 1
node 3 1 1 1
node 4 1 1 1
node 5 1 0 2
node 6 1 0 0
gene 1 1 5 0.0284707 0 1 0.0284707 1
gene 1 2 5 1.24701 0 2 1.24701 0
gene 1 3 5 -4.46847 0 3 -4.46847 1
gene 1 4 5 -2.86526 0 4 -2.86526 1
gene 1 2 6 -2.05125 0 7 -2.05125 1
gene 1 6 5 -0.360462 0 8 -0.360462 1
gene 1 5 5 0.342555 1 43 0.342555 1
gene 1 1 6 -3.63642 0 63 -3.63642 1
gene 1 6 6 2.18485 1 65 2.18485 1
gene 1 3 6 -1.72274 0 98 -1.72274 1
gene 1 4 6 -3.50326 0 113 -3.50326 1
genomeend 26

/* Species #68 : (Size 2) (AF 0) (Age 12)  */


/* Organism #27 Fitness: 14 Error: 0 */
genomestart 27
trait 1 0 0.705094 0 0 0.293869 0 0 0 
node 1 1 1 3
node 2 1 1 1
node 3 1 1 1
node 4 1 1 1
node 5 1 0 2
node 6 1 0 0
gene 1 1 5 2.51091 0 1 2.51091 1
gene 1 2 5 -1.57609 0 2 -1.57609 0
gene 1 3 5 -0.0775236 0 3 -0.0775236 1
gene 1 4 5 -3.07609 0 4 -3.07609 1
gene 1 2 6 -4.19392 0 7 -4.19392 1
gene 1 6 5 -0.382989 0 8 -0.382989 1
gene 1 1 6 -0.111622 0 107 -0.111622 1
gene 1 6 6 -1.43951 1 118 -1.43951 1
gene 1 3 6 -0.249206 0 144 -0.249206 1
genomeend 27

/* Organism #28 Fitness: 14 Error: 0 */
genomestart 28
trait 1 0 0.705094 0 0 0.293869 0 0 0 
node 1 1 1 3
node 2 1 1 1
node 3 1 1 1
node 4 1 1 1
node 5 1 0 2
node 6 1 0 0
gene 1 1 5 2.51091 0 1 2.51091 1
gene 1 2 5 -1.57609 0 2 -1.57609 0
gene 1 3 5 -0.0775236 0 3 -0.0775236 1
gene 1 4 5 -3.07609 0 4 -3.07609 1
gene 1 2 6 -4.19392 0 7 -4.19392 1
gene 1 6 5 -0.382989 0 8 -0.382989 1
gene 1 1 6 -0.111622 0 107 -0.111622 1
gene 1 6 6 -1.43951 1 118 -1.43951 1
gene 1 3 6 -0.249206 0 144 -0.249206 1
gene 1 5 5 -0.0206298 1 159 -0.0206298 1
genomeend 28

/* Species #72 : (Size 1) (AF 0) (Age 10)  */


/* Organism #29 Fitness: 26 Error: 0 */
genomestart 29
trait 1 0 0.11884 0.681582 1 0 0 0 0 
node 1 1 1 3
node 2 1 1 1
node 3 1 1 1
node 4 1 1 1
node 5 1 0 2
gene 1 1 5 4.91129 0 1 4.91129 1
gene 1 2 5 1.32789 0 2 1.32789 1
gene 1 3 5 -6.41587 0 3 -6.41587 1
gene 1 4 5 4.26903 0 4 4.26903 1
gene 1 5 5 -4.13203 1 27 -4.13203 1
genomeend 29

/* Species #78 : (Size 2) (AF 0) (Age 9)  */


/* Organism #30 Fitness: 17 Error: 0 */
genomestart 30
trait 1 0 0 0.870487 0.059826 0.400832 0.967053 0.185341 0.356112 
node 1 1 1 3
node 2 1 1 1
node 3 1 1 1
node 4 1 1 1
node 5 1 0 2
node 10 1 0 0
gene 1 1 5 3.69636 0 1 3.69636 1
gene 1 2 5 0.381489 0 2 0.381489 1
gene 1 3 5 1.9311 0 3 1.9311 1
gene 1 4 5 -0.34152 0 4 -0.34152 1
gene 1 4 10 -1.83918 0 29 -1.83918 1
gene 1 10 5 -1.08855 0 30 -1.08855 1
gene 1 1 10 2.56015 0 33 2.56015 1
gene 1 2 10 0.377799 0 44 0.377799 1
gene 1 3 10 1.43606 0 72 1.43606 1
gene 1 5 5 -0.914229 1 83 -0.914229 1
genomeend 30

/* Organism #31 Fitness: 19 Error: 0 */
genomestart 31
trait 1 0 0 0.870487 0.059826 0.400832 0.967053 0.185341 0.356112 
node 1 1 1 3
node 2 1 1 1
node 3 1 1 1
node 4 1 1 1
node 5 1 0 2
node 10 1 0 0
gene 1 1 5 2.43696 0 1 2.43696 1
gene 1 2 5 -0.280002 0 2 -0.280002 1
gene 1 3 5 3.15404 0 3 3.15404 1
gene 1 4 5 -2.11824 0 4 -2.11824 1
gene 1 4 10 -1.38519 0 29 -1.38519 1
gene 1 10 5 -1.08855 0 30 -1.08855 1
gene 1 1 10 1.22038 0 33 1.22038 1
gene 1 2 10 0.688364 0 44 0.688364 1
gene 1 3 10 1.07988 0 72 1.07988 1
gene 1 5 5 -1.37214 1 83 -1.37214 1
genomeend 31

/* Species #81 : (Size 4) (AF 0) (Age 7)  */


/* Organism #32 Fitness: 20 Error: 0 */
genomestart 32
trait 1 0 0 0 0.774422 0.831493 0 0 0 
node 1 1 1 3
node 2 1 1 1
node 3 1 1 1
node 4 1 1 1
node 5 1 0 2
node 6 1 0 0
node 14 1 0 0
gene 1 1 5 -0.726025 0 1 -0.726025 1
gene 1 2 5 4.00982 0 2 4.00982 1
gene 1 3 5 0.111076 0 3 0.111076 0
gene 1 4 5 -2.50285 0 4 -2.50285 1
gene 1 2 6 0.488928 0 7 0.488928 1
gene 1 6 5 1.17834 0 8 1.17834 1
gene 1 3 14 -1.47472 0 74 -1.47472 1
gene 1 14 5 -0.846756 0 75 -0.846756 1
gene 1 5 5 -2.4825 1 126 -2.4825 1
gene 1 6 14 -0.122693 0 129 -0.122693 1
gene 1 3 6 0.895024 0 151 0.895024 1
gene 1 4 14 -0.674931 0 160 -0.674931 1
genomeend 32

/* Organism #33 Fitness: 19 Error: 0 */
genomestart 33
trait 1 0 0 0 0.774422 0.831493 0 0 0 
node 1 1 1 3
node 2 1 1 1
node 3 1 1 1
node 4 1 1 1
node 5 1 0 2
node 6 1 0 0
node 14 1 0 0
gene 1 1 5 -2.2397 0 1 -2.2397 1
gene 1 2 5 4.77113 0 2 4.77113 1
gene 1 3 5 0.788166 0 3 0.788166 0
gene 1 4 5 -0.933667 0 4 -0.933667 1
gene 1 2 6 -0.147562 0 7 -0.147562 1
gene 1 6 5 1.23587 0 8 1.23587 1
gene 1 3 14 -1.39967 0 74 -1.39967 1
gene 1 14 5 -0.737333 0 75 -0.737333 1
gene 1 5 5 -1.40601 1 126 -1.40601 1
gene 1 6 14 -0.122693 0 129 -0.122693 1
gene 1 3 6 -0.592271 0 151 -0.592271 1
genomeend 33

/* Organism #34 Fitness: 20 Error: 0 */
genomestart 34
trait 1 0 0 0.0474574 0.685271 0.609 0.705437 0.419189 0.554154 
node 1 1 1 3
node 2 1 1 1
node 3 1 1 1
node 4 1 1 1
node 5 1 0 2
node 6 1 0 0
node 14 1 0 0
gene 1 1 5 0.395245 0 1 0.395245 1
gene 1 2 5 5.34868 0 2 5.34868 1
gene 1 3 5 1.49212 0 3 1.49212 0
gene 1 4 5 -2.93895 0 4 -2.93895 1
gene 1 2 6 2.02147 0 7 2.02147 1
gene 1 6 5 0.633044 0 8 0.633044 1
gene 1 3 14 -1.73312 0 74 -1.73312 1
gene 1 14 5 -1.21067 0 75 -1.21067 1
gene 1 5 5 -2.95037 1 126 -2.95037 1
gene 1 6 14 0.00673489 0 129 0.00673489 1
gene 1 3 6 0.895024 0 151 0.895024 1
genomeend 34

/* Organism #35 Fitness: 22 Error: 0 */
genomestart 35
trait 1 0 0 0 0.774422 0.831493 0 0 0 
node 1 1 1 3
node 2 1 1 1
node 3 1 1 1
node 4 1 1 1
node 5 1 0 2
node 6 1 0 0
node 14 1 0 0
gene 1 1 5 -2.01819 0 1 -2.01819 1
gene 1 2 5 4.2366 0 2 4.2366 1
gene 1 3 5 -1.61018 0 3 -1.61018 0
gene 1 4 5 -0.760221 0 4 -0.760221 1
gene 1 2 6 0.47254 0 7 0.47254 1
gene 1 6 5 2.82774 0 8 2.82774 1
gene 1 3 14 0.0611665 0 74 0.0611665 1
gene 1 14 5 -1.92619 0 75 -1.92619 1
gene 1 5 5 -1.28897 1 126 -1.28897 1
gene 1 6 14 -1.54301 0 129 -1.54301 1
gene 1 3 6 1.06564 0 151 1.06564 1
genomeend 35

/* Species #82 : (Size 1) (AF 0) (Age 7)  */


/* Organism #36 Fitness: 11 Error: 0 */
genomestart 36
trait 1 0.595276 0 0 0 0 0 0 0 
node 1 1 1 3
node 2 1 1 1
node 3 1 1 1
node 4 1 1 1
node 5 1 0 2
gene 1 1 5 0.812691 0 1 0.812691 1
gene 1 2 5 1.50829 0 2 1.50829 1
gene 1 3 5 0.223501 0 3 0.223501 1
gene 1 4 5 0.995553 0 4 0.995553 1
gene 1 5 5 -7.17364 1 11 -7.17364 1
genomeend 36

/* Species #83 : (Size 2) (AF 0) (Age 7)  */


/* Organism #37 Fitness: 17 Error: 0 */
genomestart 37
trait 1 0.395241 0 0.173393 0.059826 0.114214 0.967053 0 0.449451 
node 1 1 1 3
node 2 1 1 1
node 3 1 1 1
node 4 1 1 1
node 5 1 0 2
node 10 1 0 0
gene 1 1 5 0.79321 0 1 0.79321 0
gene 1 2 5 -1.76653 0 2 -1.76653 1
gene 1 3 5 -0.855926 0 3 -0.855926 1
gene 1 4 5 0.97144 0 4 0.97144 0
gene 1 4 10 3.76755 0 29 3.76755 1
gene 1 10 5 -1.08938 0 30 -1.08938 1
gene 1 1 10 0.506476 0 33 0.506476 1
gene 1 2 10 -1.48912 0 44 -1.48912 1
gene 1 3 10 2.16914 0 72 2.16914 1
gene 1 5 5 0.559956 1 83 0.559956 1
genomeend 37

/* Organism #38 Fitness: 16 Error: 0 */
genomestart 38
trait 1 0.395241 0 0.173393 0.059826 0.114214 0.967053 0 0.449451 
node 1 1 1 3
node 2 1 1 1
node 3 1 1 1
node 4 1 1 1
node 5 1 0 2
node 10 1 0 0
gene 1 1 5 0.79321 0 1 0.79321 0
gene 1 2 5 -1.76653 0 2 -1.76653 1
gene 1 3 5 -0.855926 0 3 -0.855926 1
gene 1 4 5 0.97144 0 4 0.97144 0
gene 1 4 10 3.76755 0 29 3.76755 1
gene 1 10 5 -1.08938 0 30 -1.08938 1
gene 1 1 10 0.506476 0 33 0.506476 1
gene 1 2 10 -1.48912 0 44 -1.48912 1
gene 1 3 10 2.16914 0 72 2.16914 1
gene 1 5 5 0.559956 1 83 0.559956 1
genomeend 38

/* Species #84 : (Size 2) (AF 0) (Age 6)  */


/* Organism #39 Fitness: 20 Error: 0 */
genomestart 39
trait 1 0.839538 0 0.81503 0 0 0.905546 0 0.619245 
node 1 1 1 3
node 2 1 1 1
node 3 1 1 1
node 4 1 1 1
node 5 1 0 2
gene 1 1 5 0.377964 0 1 0.377964 1
gene 1 2 5 2.25279 0 2 2.25279 1
gene 1 3 5 1.21723 0 3 1.21723 1
gene 1 4 5 -0.640457 0 4 -0.640457 1
gene 1 5 5 -1.12278 1 11 -1.12278 1
genomeend 39

/* Organism #40 Fitness: 18 Error: 0 */
genomestart 40
trait 1 0.839538 0 0.81503 0 0 0.905546 0 0.619245 
node 1 1 1 3
node 2 1 1 1
node 3 1 1 1
node 4 1 1 1
node 5 1 0 2
gene 1 1 5 0.377964 0 1 0.377964 1
gene 1 2 5 2.25279 0 2 2.25279 1
gene 1 3 5 1.21723 0 3 1.21723 1
gene 1 4 5 -0.640457 0 4 -0.640457 1
gene 1 5 5 -1.12278 1 11 -1.12278 1
genomeend 40

/* Species #85 : (Size 1) (AF 0) (Age 5)  */


/* Organism #41 Fitness: 18 Error: 0 */
genomestart 41
trait 1 0 0 0.345094 0 0 0.835932 0 0 
node 1 1 1 3
node 2 1 1 1
node 3 1 1 1
node 4 1 1 1
node 5 1 0 2
node 6 1 0 0
gene 1 1 5 -1.4025 0 1 -1.4025 1
gene 1 2 5 2.32945 0 2 2.32945 0
gene 1 3 5 2.26135 0 3 2.26135 1
gene 1 4 5 -1.06401 0 4 -1.06401 1
gene 1 2 6 -1.41402 0 7 -1.41402 1
gene 1 6 5 1.54897 0 8 1.54897 1
gene 1 1 6 0.623796 0 107 0.623796 1
gene 1 6 6 0.240694 1 118 0.240694 1
genomeend 41

/* Species #86 : (Size 2) (AF 0) (Age 5)  */


/* Organism #42 Fitness: 14 Error: 0 */
genomestart 42
trait 1 0 0.0488888 0.579784 1 0 0.857376 0 0 
node 1 1 1 3
node 2 1 1 1
node 3 1 1 1
node 4 1 1 1
node 5 1 0 2
node 6 1 0 0
gene 1 1 5 -0.754797 0 1 -0.754797 1
gene 1 2 5 6.10597 0 2 6.10597 0
gene 1 3 5 -3.48798 0 3 -3.48798 1
gene 1 4 5 -0.809169 0 4 -0.809169 1
gene 1 2 6 3.10355 0 7 3.10355 1
gene 1 6 5 -3.64806 0 8 -3.64806 1
gene 1 5 5 0.40413 1 43 0.40413 1
gene 1 1 6 1.78894 0 63 1.78894 1
gene 1 6 6 0.957886 1 65 0.957886 1
gene 1 3 6 -0.145495 0 84 -0.145495 1
gene 1 4 6 -1.70012 0 133 -1.70012 1
genomeend 42

/* Organism #43 Fitness: 18 Error: 0 */
genomestart 43
trait 1 0 0.0488888 0.579784 1 0 0.857376 0 0 
node 1 1 1 3
node 2 1 1 1
node 3 1 1 1
node 4 1 1 1
node 5 1 0 2
node 6 1 0 0
gene 1 1 5 -3.50668 0 1 -3.50668 1
gene 1 2 5 6.82235 0 2 6.82235 0
gene 1 3 5 -4.09527 0 3 -4.09527 1
gene 1 4 5 0.326336 0 4 0.326336 1
gene 1 2 6 -0.250281 0 7 -0.250281 1
gene 1 6 5 -1.44666 0 8 -1.44666 1
gene 1 5 5 2.38295 1 43 2.38295 1
gene 1 1 6 1.66799 0 63 1.66799 1
gene 1 6 6 1.66271 1 65 1.66271 1
gene 1 3 6 -1.99997 0 84 -1.99997 1
gene 1 4 6 -2.46276 0 133 -2.46276 1
genomeend 43

/* Species #87 : (Size 1) (AF 0) (Age 4)  */


/* Organism #44 Fitness: 18 Error: 0 */
genomestart 44
trait 1 0.839538 0 0.81503 0 0 0.905546 0 0.619245 
node 1 1 1 3
node 2 1 1 1
node 3 1 1 1
node 4 1 1 1
node 5 1 0 2
node 13 1 0 0
gene 1 1 5 3.90486 0 1 3.90486 1
gene 1 2 5 0.118133 0 2 0.118133 1
gene 1 3 5 4.65553 0 3 4.65553 1
gene 1 4 5 -1.91608 0 4 -1.91608 0
gene 1 5 5 8 1 11 8 1
gene 1 4 13 0.43092 0 57 0.43092 1
gene 1 13 5 -2.90623 0 58 -2.90623 1
gene 1 2 13 -6.59984 0 78 -6.59984 1
gene 1 1 13 -3.83947 0 85 -3.83947 1
gene 1 3 13 0.0955884 0 97 0.0955884 1
gene 1 13 13 -1.15122 1 117 -1.15122 1
genomeend 44

/* Species #88 : (Size 1) (AF 0) (Age 4)  */


/* Organism #45 Fitness: 7 Error: 0 */
genomestart 45
trait 1 0.315387 0 0.786311 0.059826 0.612301 1 0.150415 0.149842 
node 1 1 1 3
node 2 1 1 1
node 3 1 1 1
node 4 1 1 1
node 5 1 0 2
node 10 1 0 0
gene 1 1 5 0.997642 0 1 0.997642 1
gene 1 2 5 -3.28284 0 2 -3.28284 1
gene 1 3 5 0.719264 0 3 0.719264 1
gene 1 4 5 0.195427 0 4 0.195427 1
gene 1 4 10 -4.16929 0 29 -4.16929 1
gene 1 10 5 -4.63327 0 30 -4.63327 1
gene 1 1 10 -4.63394 0 33 -4.63394 1
gene 1 2 10 2.78702 0 49 2.78702 1
gene 1 3 10 -2.38053 0 80 -2.38053 1
gene 1 5 10 -1.05346 1 92 -1.05346 1
genomeend 45

/* Species #89 : (Size 1) (AF 0) (Age 1)  */


/* Organism #46 Fitness: 22 Error: 0 */
genomestart 46
trait 1 0 0 1 0.00149193 0.233653 0.831499 0.797452 0.439901 
node 1 1 1 3
node 2 1 1 1
node 3 1 1 1
node 4 1 1 1
node 5 1 0 2
node 6 1 0 0
gene 1 1 5 -1.5967 0 1 -1.5967 1
gene 1 2 5 -2.62144 0 2 -2.62144 1
gene 1 3 5 5.76891 0 3 5.76891 1
gene 1 4 5 -0.969332 0 4 -0.969332 1
gene 1 2 6 -0.301407 0 7 -0.301407 1
gene 1 6 5 -1.41881 0 8 -1.41881 1
gene 1 6 6 -1.83312 1 48 -1.83312 0
gene 1 4 6 0.107429 0 54 0.107429 1
gene 1 5 5 5.99392 1 66 5.99392 1
gene 1 1 6 -1.63749 0 79 -1.63749 1
gene 1 5 6 3.48542 1 104 3.48542 1
genomeend 46

/* Species #90 : (Size 1) (AF 0) (Age 1)  */


/* Organism #47 Fitness: 28 Error: 0 */
genomestart 47
trait 1 0.0257954 0 0 0.059826 0 0.20587 0 0.449451 
node 1 1 1 3
node 2 1 1 1
node 3 1 1 1
node 4 1 1 1
node 5 1 0 2
node 10 1 0 0
gene 1 1 5 -0.0635054 0 1 -0.0635054 0
gene 1 2 5 -2.75389 0 2 -2.75389 1
gene 1 3 5 2.73506 0 3 2.73506 1
gene 1 4 5 1.61922 0 4 1.61922 0
gene 1 4 10 6.71341 0 29 6.71341 1
gene 1 10 5 -1.5114 0 30 -1.5114 1
gene 1 1 10 0.575822 0 33 0.575822 1
gene 1 2 10 3.46012 0 44 3.46012 1
gene 1 3 10 2.74266 0 72 2.74266 1
gene 1 5 5 1.19347 1 83 1.19347 1
genomeend 47

/* Species #91 : (Size 1) (AF 0) (Age 1)  */


/* Organism #48 Fitness: 21 Error: 0 */
genomestart 48
trait 1 0 0 0.345094 0 0 0.835932 0 0 
node 1 1 1 3
node 2 1 1 1
node 3 1 1 1
node 4 1 1 1
node 5 1 0 2
node 6 1 0 0
gene 1 1 5 0.621846 0 1 0.621846 1
gene 1 2 5 2.92568 0 2 2.92568 0
gene 1 3 5 3.72907 0 3 3.72907 1
gene 1 4 5 -2.73311 0 4 -2.73311 1
gene 1 2 6 1.63767 0 7 1.63767 1
gene 1 6 5 -1.68795 0 8 -1.68795 1
gene 1 1 6 2.2966 0 107 2.2966 1
gene 1 6 6 0.98763 1 118 0.98763 1
genomeend 48

/* Species #92 : (Size 1) (AF 0) (Age 1)  */


/* Organism #49 Fitness: 17 Error: 0 */
genomestart 49
trait 1 0.839538 0 1 0 0.200236 0.550987 0 0.619245 
node 1 1 1 3
node 2 1 1 1
node 3 1 1 1
node 4 1 1 1
node 5 1 0 2
node 13 1 0 0
gene 1 1 5 3.62133 0 1 3.62133 1
gene 1 2 5 -1.18704 0 2 -1.18704 1
gene 1 3 5 5.1411 0 3 5.1411 1
gene 1 4 5 -0.498032 0 4 -0.498032 0
gene 1 5 5 6.5023 1 11 6.5023 1
gene 1 4 13 4.44574 0 57 4.44574 1
gene 1 13 5 -4.07216 0 58 -4.07216 1
gene 1 2 13 -1.95038 0 78 -1.95038 1
gene 1 1 13 -4.67573 0 85 -4.67573 1
gene 1 3 13 0.244989 0 97 0.244989 1
gene 1 13 13 0.683393 1 117 0.683393 1
genomeend 49
