
/* Species #142 : (Size 14) (AF 0) (Age 16)  */


/* Organism #0 Fitness: 718 Error: 0 */
genomestart 0
trait 1 0.0257954 0 0 0.582837 0.380475 0 0 0.449451 
node 1 1 1 3
node 2 1 1 1
node 3 1 1 1
node 4 1 1 1
node 5 1 0 2
node 10 1 0 0
node 30 1 0 0
node 32 1 0 0
gene 1 1 5 0.497601 0 1 0.497601 1
gene 1 2 5 -7.71729 0 2 -7.71729 1
gene 1 3 5 -0.744716 0 3 -0.744716 0
gene 1 4 5 -0.705778 0 4 -0.705778 0
gene 1 4 10 1.88368 0 29 1.88368 1
gene 1 10 5 -1.56622 0 30 -1.56622 1
gene 1 1 10 -4.96784 0 33 -4.96784 1
gene 1 2 10 -1.86909 0 44 -1.86909 1
gene 1 3 10 -0.47021 0 72 -0.47021 1
gene 1 5 5 0.790654 1 83 0.790654 1
gene 1 10 10 -0.977544 1 164 -0.977544 1
gene 1 3 30 -1.35564 0 242 -1.35564 1
gene 1 30 5 -0.434245 0 243 -0.434245 1
gene 1 3 32 2.60198 0 253 2.60198 1
gene 1 32 30 0.784584 0 254 0.784584 1
gene 1 10 32 -0.963389 0 258 -0.963389 1
gene 1 2 32 -0.290821 0 268 -0.290821 1
gene 1 1 32 0.764675 0 310 0.764675 1
gene 1 30 30 -0.543073 1 337 -0.543073 1
genomeend 0

/* Organism #1 Fitness: 1657 Error: 0 */
genomestart 1
trait 1 0.0257954 0 0 0.582837 0.380475 0 0 0.449451 
node 1 1 1 3
node 2 1 1 1
node 3 1 1 1
node 4 1 1 1
node 5 1 0 2
node 10 1 0 0
node 30 1 0 0
node 32 1 0 0
gene 1 1 5 0.497601 0 1 0.497601 1
gene 1 2 5 -7.71729 0 2 -7.71729 1
gene 1 3 5 -0.744716 0 3 -0.744716 0
gene 1 4 5 -0.705778 0 4 -0.705778 0
gene 1 4 10 1.88368 0 29 1.88368 1
gene 1 10 5 -1.56622 0 30 -1.56622 1
gene 1 1 10 -4.96784 0 33 -4.96784 1
gene 1 2 10 -1.86909 0 44 -1.86909 1
gene 1 3 10 -0.318002 0 72 -0.318002 1
gene 1 5 5 0.790654 1 83 0.790654 1
gene 1 10 10 -0.977544 1 164 -0.977544 1
gene 1 3 30 -1.35564 0 242 -1.35564 1
gene 1 30 5 -0.434245 0 243 -0.434245 1
gene 1 3 32 2.60198 0 253 2.60198 1
gene 1 32 30 0.784584 0 254 0.784584 1
gene 1 10 32 -0.963389 0 258 -0.963389 1
gene 1 2 32 -0.290821 0 268 -0.290821 1
gene 1 1 32 0.764675 0 310 0.764675 1
gene 1 30 30 -0.543073 1 337 -0.543073 1
gene 1 4 32 0.510381 0 352 0.510381 1
genomeend 1

/* Organism #2 Fitness: 360 Error: 0 */
genomestart 2
trait 1 0.0257954 0 0 0.582837 0.380475 0 0 0.449451 
node 1 1 1 3
node 2 1 1 1
node 3 1 1 1
node 4 1 1 1
node 5 1 0 2
node 10 1 0 0
node 30 1 0 0
node 32 1 0 0
gene 1 1 5 0.497601 0 1 0.497601 1
gene 1 2 5 -7.43458 0 2 -7.43458 1
gene 1 3 5 -1.1212 0 3 -1.1212 0
gene 1 4 5 -2.2541 0 4 -2.2541 0
gene 1 4 10 1.88368 0 29 1.88368 1
gene 1 10 5 -1.82718 0 30 -1.82718 1
gene 1 1 10 -4.96784 0 33 -4.96784 1
gene 1 2 10 -1.86909 0 44 -1.86909 1
gene 1 3 10 -0.47021 0 72 -0.47021 1
gene 1 5 5 0.790654 1 83 0.790654 1
gene 1 10 10 -0.977544 1 164 -0.977544 1
gene 1 3 30 -1.35564 0 242 -1.35564 1
gene 1 30 5 -0.434245 0 243 -0.434245 1
gene 1 3 32 2.60198 0 253 2.60198 1
gene 1 32 30 1.49754 0 254 1.49754 1
gene 1 10 32 -0.963389 0 258 -0.963389 1
gene 1 2 32 -0.290821 0 268 -0.290821 1
gene 1 1 32 0.764675 0 310 0.764675 1
gene 1 30 30 -0.543073 1 337 -0.543073 1
gene 1 32 32 0.692846 1 353 0.692846 1
genomeend 2

/* Organism #3 Fitness: 432 Error: 0 */
genomestart 3
trait 1 0.0257954 0 0 0.582837 0.380475 0 0 0.449451 
node 1 1 1 3
node 2 1 1 1
node 3 1 1 1
node 4 1 1 1
node 5 1 0 2
node 10 1 0 0
node 30 1 0 0
node 32 1 0 0
gene 1 1 5 0.456944 0 1 0.456944 1
gene 1 2 5 -7.71729 0 2 -7.71729 1
gene 1 3 5 -1.1212 0 3 -1.1212 0
gene 1 4 5 -0.705778 0 4 -0.705778 0
gene 1 4 10 1.88368 0 29 1.88368 1
gene 1 10 5 -1.82718 0 30 -1.82718 1
gene 1 1 10 -4.96784 0 33 -4.96784 1
gene 1 2 10 -1.86909 0 44 -1.86909 1
gene 1 3 10 -0.47021 0 72 -0.47021 1
gene 1 5 5 0.80991 1 83 0.80991 1
gene 1 10 10 -0.977544 1 164 -0.977544 1
gene 1 3 30 -1.35564 0 242 -1.35564 1
gene 1 30 5 -0.434245 0 243 -0.434245 1
gene 1 3 32 2.60198 0 253 2.60198 1
gene 1 32 30 0.784584 0 254 0.784584 1
gene 1 10 32 -0.963389 0 258 -0.963389 1
gene 1 2 32 -0.290821 0 268 -0.290821 1
gene 1 1 32 0.764675 0 310 0.764675 1
gene 1 30 30 -0.543073 1 337 -0.543073 1
gene 1 1 30 -0.5522 0 354 -0.5522 1
genomeend 3

/* Organism #4 Fitness: 563 Error: 0 */
genomestart 4
trait 1 0.0257954 0 0 0.530536 0.342428 0 0 0.449451 
node 1 1 1 3
node 2 1 1 1
node 3 1 1 1
node 4 1 1 1
node 5 1 0 2
node 10 1 0 0
node 30 1 0 0
node 32 1 0 0
gene 1 1 5 0.497601 0 1 0.497601 1
gene 1 2 5 -7.71729 0 2 -7.71729 1
gene 1 3 5 -0.744716 0 3 -0.744716 0
gene 1 4 5 -0.705778 0 4 -0.705778 0
gene 1 4 10 2.5536 0 29 2.5536 1
gene 1 10 5 -1.56622 0 30 -1.56622 1
gene 1 1 10 -4.96784 0 33 -4.96784 1
gene 1 2 10 -1.86909 0 44 -1.86909 1
gene 1 3 10 -0.47021 0 72 -0.47021 1
gene 1 5 5 0.80991 1 83 0.80991 1
gene 1 10 10 -1.09135 1 164 -1.09135 1
gene 1 3 30 -1.35564 0 242 -1.35564 1
gene 1 30 5 -0.434245 0 243 -0.434245 1
gene 1 3 32 3.0625 0 253 3.0625 1
gene 1 32 30 0.784584 0 254 0.784584 1
gene 1 10 32 -0.963389 0 258 -0.963389 1
gene 1 2 32 -0.290821 0 268 -0.290821 1
gene 1 1 32 0.764675 0 310 0.764675 1
gene 1 30 30 -0.543073 1 337 -0.543073 1
genomeend 4

/* Organism #5 Fitness: 819 Error: 0 */
genomestart 5
trait 1 0.0257954 0 0 0.478235 0.30438 0 0 0.449451 
node 1 1 1 3
node 2 1 1 1
node 3 1 1 1
node 4 1 1 1
node 5 1 0 2
node 10 1 0 0
node 30 1 0 0
node 32 1 0 0
gene 1 1 5 0.456944 0 1 0.456944 1
gene 1 2 5 -8 0 2 -8 1
gene 1 3 5 -0.368233 0 3 -0.368233 0
gene 1 4 5 0.81335 0 4 0.81335 0
gene 1 4 10 2.5536 0 29 2.5536 1
gene 1 10 5 -1.82718 0 30 -1.82718 1
gene 1 1 10 -4.64344 0 33 -4.64344 1
gene 1 2 10 -2.47988 0 44 -2.47988 1
gene 1 3 10 -0.622418 0 72 -0.622418 1
gene 1 5 5 0.80991 1 83 0.80991 1
gene 1 10 10 -1.09135 1 164 -1.09135 1
gene 1 3 30 -1.35564 0 242 -1.35564 1
gene 1 30 5 -0.523069 0 243 -0.523069 1
gene 1 3 32 3.0625 0 253 3.0625 1
gene 1 32 30 0.0716329 0 254 0.0716329 1
gene 1 10 32 -0.809154 0 258 -0.809154 1
gene 1 2 32 -0.5729 0 268 -0.5729 1
gene 1 1 32 0.764675 0 310 0.764675 1
gene 1 4 30 -0.45603 0 355 -0.45603 1
genomeend 5

/* Organism #6 Fitness: 19 Error: 0 */
genomestart 6
trait 1 0.0257954 0 0 0.582837 0.380475 0 0 0.449451 
node 1 1 1 3
node 2 1 1 1
node 3 1 1 1
node 4 1 1 1
node 5 1 0 2
node 10 1 0 0
node 30 1 0 0
node 32 1 0 0
gene 1 1 5 0.477273 0 1 0.477273 1
gene 1 2 5 -7.57594 0 2 -7.57594 1
gene 1 3 5 -0.932958 0 3 -0.932958 0
gene 1 4 5 -1.47994 0 4 -1.47994 1
gene 1 4 10 1.88368 0 29 1.88368 1
gene 1 10 5 -1.6967 0 30 -1.6967 1
gene 1 1 10 -4.80564 0 33 -4.80564 1
gene 1 2 10 -1.86909 0 44 -1.86909 1
gene 1 3 10 -0.394106 0 72 -0.394106 1
gene 1 5 5 0.800282 1 83 0.800282 1
gene 1 10 10 -0.977544 1 164 -0.977544 1
gene 1 3 30 -1.35564 0 242 -1.35564 1
gene 1 30 5 -0.434245 0 243 -0.434245 1
gene 1 3 32 2.60198 0 253 2.60198 1
gene 1 32 30 1.14106 0 254 1.14106 1
gene 1 10 32 -0.963389 0 258 -0.963389 1
gene 1 2 32 -0.290821 0 268 -0.290821 1
gene 1 1 32 0.764675 0 310 0.764675 1
gene 1 30 30 -0.543073 1 337 -0.543073 1
genomeend 6

/* Organism #7 Fitness: 1524 Error: 0 */
genomestart 7
trait 1 0.0257954 0 0 0.582837 0.380475 0 0 0.449451 
node 1 1 1 3
node 2 1 1 1
node 3 1 1 1
node 4 1 1 1
node 5 1 0 2
node 10 1 0 0
node 30 1 0 0
node 32 1 0 0
gene 1 1 5 0.497601 0 1 0.497601 1
gene 1 2 5 -7.71729 0 2 -7.71729 1
gene 1 3 5 -0.744716 0 3 -0.744716 0
gene 1 4 5 -0.705778 0 4 -0.705778 0
gene 1 4 10 1.88368 0 29 1.88368 1
gene 1 10 5 -1.56622 0 30 -1.56622 1
gene 1 1 10 -4.96784 0 33 -4.96784 1
gene 1 2 10 -1.86909 0 44 -1.86909 1
gene 1 3 10 -0.318002 0 72 -0.318002 1
gene 1 5 5 0.790654 1 83 0.790654 1
gene 1 10 10 -0.977544 1 164 -0.977544 1
gene 1 3 30 -1.35564 0 242 -1.35564 1
gene 1 30 5 -0.434245 0 243 -0.434245 1
gene 1 3 32 2.60198 0 253 2.60198 1
gene 1 32 30 0.784584 0 254 0.784584 1
gene 1 10 32 -0.963389 0 258 -0.963389 1
gene 1 2 32 -0.290821 0 268 -0.290821 1
gene 1 1 32 0.764675 0 310 0.764675 1
gene 1 30 30 -0.543073 1 337 -0.543073 1
genomeend 7

/* Organism #8 Fitness: 2453 Error: 0 */
genomestart 8
trait 1 0.0257954 0 0 0.582837 0.380475 0 0 0.449451 
node 1 1 1 3
node 2 1 1 1
node 3 1 1 1
node 4 1 1 1
node 5 1 0 2
node 10 1 0 0
node 30 1 0 0
node 32 1 0 0
gene 1 1 5 0.497601 0 1 0.497601 1
gene 1 2 5 -7.71729 0 2 -7.71729 1
gene 1 3 5 -0.744716 0 3 -0.744716 0
gene 1 4 5 -0.720377 0 4 -0.720377 0
gene 1 4 10 1.88368 0 29 1.88368 1
gene 1 10 5 -1.56622 0 30 -1.56622 1
gene 1 1 10 -4.96784 0 33 -4.96784 1
gene 1 2 10 -1.86909 0 44 -1.86909 1
gene 1 3 10 -0.394106 0 72 -0.394106 1
gene 1 5 5 0.790654 1 83 0.790654 1
gene 1 10 10 -0.977544 1 164 -0.977544 1
gene 1 3 30 -1.35564 0 242 -1.35564 1
gene 1 30 5 -0.434245 0 243 -0.434245 1
gene 1 3 32 2.60198 0 253 2.60198 1
gene 1 32 30 0.784584 0 254 0.784584 1
gene 1 10 32 -0.886272 0 258 -0.886272 1
gene 1 2 32 -0.290821 0 268 -0.290821 1
gene 1 1 32 0.764675 0 310 0.764675 1
gene 1 30 30 -0.543073 1 337 -0.543073 1
genomeend 8

/* Organism #9 Fitness: 497 Error: 0 */
genomestart 9
trait 1 0.0257954 0 0 0.582837 0.380475 0 0 0.449451 
node 1 1 1 3
node 2 1 1 1
node 3 1 1 1
node 4 1 1 1
node 5 1 0 2
node 10 1 0 0
node 30 1 0 0
node 32 1 0 0
gene 1 1 5 0.497601 0 1 0.497601 1
gene 1 2 5 -7.71729 0 2 -7.71729 1
gene 1 3 5 -0.744716 0 3 -0.744716 0
gene 1 4 5 -0.734977 0 4 -0.734977 0
gene 1 4 10 1.88368 0 29 1.88368 1
gene 1 10 5 -1.56622 0 30 -1.56622 1
gene 1 1 10 -4.96784 0 33 -4.96784 1
gene 1 2 10 -1.86909 0 44 -1.86909 1
gene 1 3 10 -0.318002 0 72 -0.318002 1
gene 1 5 5 0.790654 1 83 0.790654 1
gene 1 10 10 -0.977544 1 164 -0.977544 1
gene 1 3 30 -1.35564 0 242 -1.35564 1
gene 1 30 5 -0.434245 0 243 -0.434245 1
gene 1 3 32 2.60198 0 253 2.60198 1
gene 1 32 30 0.784584 0 254 0.784584 1
gene 1 10 32 -0.963389 0 258 -0.963389 1
gene 1 2 32 -0.290821 0 268 -0.290821 1
gene 1 1 32 0.764675 0 310 0.764675 1
gene 1 30 30 -0.543073 1 337 -0.543073 1
genomeend 9

/* Organism #10 Fitness: 1160 Error: 0 */
genomestart 10
trait 1 0.0257954 0 0 0.582837 0.380475 0 0 0.449451 
node 1 1 1 3
node 2 1 1 1
node 3 1 1 1
node 4 1 1 1
node 5 1 0 2
node 10 1 0 0
node 30 1 0 0
node 32 1 0 0
gene 1 1 5 0.497601 0 1 0.497601 1
gene 1 2 5 -7.71729 0 2 -7.71729 1
gene 1 3 5 -0.744716 0 3 -0.744716 0
gene 1 4 5 -0.705778 0 4 -0.705778 0
gene 1 4 10 1.88368 0 29 1.88368 1
gene 1 10 5 -1.56622 0 30 -1.56622 1
gene 1 1 10 -4.96784 0 33 -4.96784 1
gene 1 2 10 -1.86909 0 44 -1.86909 1
gene 1 3 10 -0.47021 0 72 -0.47021 1
gene 1 5 5 0.790654 1 83 0.790654 1
gene 1 10 10 -0.977544 1 164 -0.977544 1
gene 1 3 30 -1.35564 0 242 -1.35564 1
gene 1 30 5 -0.434245 0 243 -0.434245 1
gene 1 3 32 2.60198 0 253 2.60198 1
gene 1 32 30 0.784584 0 254 0.784584 1
gene 1 10 32 -0.963389 0 258 -0.963389 1
gene 1 2 32 -0.290821 0 268 -0.290821 1
gene 1 1 32 0.764675 0 310 0.764675 1
gene 1 30 30 -0.543073 1 337 -0.543073 1
genomeend 10

/* Organism #11 Fitness: 40 Error: 0 */
genomestart 11
trait 1 0.0257954 0 0 0.582837 0.380475 0 0 0.449451 
node 1 1 1 3
node 2 1 1 1
node 3 1 1 1
node 4 1 1 1
node 5 1 0 2
node 10 1 0 0
node 30 1 0 0
node 32 1 0 0
gene 1 1 5 1.68395 0 1 1.68395 1
gene 1 2 5 -6.62323 0 2 -6.62323 1
gene 1 3 5 -0.96275 0 3 -0.96275 0
gene 1 4 5 -2.33185 0 4 -2.33185 0
gene 1 4 10 1.96239 0 29 1.96239 1
gene 1 10 5 -2.6102 0 30 -2.6102 1
gene 1 1 10 -5.83825 0 33 -5.83825 1
gene 1 2 10 -2.61328 0 44 -2.61328 1
gene 1 3 10 -2.15974 0 72 -2.15974 1
gene 1 5 5 -0.575535 1 83 -0.575535 1
gene 1 10 10 -2.2084 1 164 -2.2084 1
gene 1 3 30 -2.24094 0 242 -2.24094 1
gene 1 30 5 -1.19138 0 243 -1.19138 1
gene 1 3 32 1.58287 0 253 1.58287 1
gene 1 32 30 0.0562628 0 254 0.0562628 1
gene 1 10 32 -0.144539 0 258 -0.144539 1
gene 1 2 32 0.417556 0 268 0.417556 1
gene 1 1 32 2.45664 0 310 2.45664 1
gene 1 30 30 -1.01422 1 337 -1.01422 1
genomeend 11

/* Organism #12 Fitness: 1274 Error: 0 */
genomestart 12
trait 1 0.0257954 0 0 0.582837 0.380475 0 0 0.449451 
node 1 1 1 3
node 2 1 1 1
node 3 1 1 1
node 4 1 1 1
node 5 1 0 2
node 10 1 0 0
node 30 1 0 0
node 32 1 0 0
gene 1 1 5 0.456944 0 1 0.456944 1
gene 1 2 5 -7.43458 0 2 -7.43458 1
gene 1 3 5 -0.744716 0 3 -0.744716 0
gene 1 4 5 -2.2541 0 4 -2.2541 0
gene 1 4 10 1.88368 0 29 1.88368 1
gene 1 10 5 -1.56622 0 30 -1.56622 1
gene 1 1 10 -4.64344 0 33 -4.64344 1
gene 1 2 10 -1.86909 0 44 -1.86909 1
gene 1 3 10 -0.318002 0 72 -0.318002 1
gene 1 5 5 0.790654 1 83 0.790654 1
gene 1 10 10 -0.977544 1 164 -0.977544 1
gene 1 3 30 -1.35564 0 242 -1.35564 1
gene 1 30 5 -0.434245 0 243 -0.434245 1
gene 1 3 32 2.60198 0 253 2.60198 1
gene 1 32 30 1.49754 0 254 1.49754 1
gene 1 10 32 -0.963389 0 258 -0.963389 1
gene 1 2 32 -0.290821 0 268 -0.290821 1
gene 1 1 32 0.764675 0 310 0.764675 1
gene 1 2 30 -0.921479 0 336 -0.921479 1
gene 1 30 30 -0.131494 1 356 -0.131494 1
genomeend 12

/* Organism #13 Fitness: 412 Error: 0 */
genomestart 13
trait 1 0.0257954 0 0 0.582837 0.380475 0 0 0.449451 
node 1 1 1 3
node 2 1 1 1
node 3 1 1 1
node 4 1 1 1
node 5 1 0 2
node 10 1 0 0
node 30 1 0 0
node 32 1 0 0
gene 1 1 5 0.497601 0 1 0.497601 1
gene 1 2 5 -7.71729 0 2 -7.71729 1
gene 1 3 5 -0.744716 0 3 -0.744716 0
gene 1 4 5 -0.720377 0 4 -0.720377 0
gene 1 4 10 1.88368 0 29 1.88368 1
gene 1 10 5 -1.56622 0 30 -1.56622 1
gene 1 1 10 -4.96784 0 33 -4.96784 1
gene 1 2 10 -1.86909 0 44 -1.86909 1
gene 1 3 10 -0.394106 0 72 -0.394106 1
gene 1 5 5 0.790654 1 83 0.790654 1
gene 1 10 10 -0.977544 1 164 -0.977544 1
gene 1 3 30 -1.35564 0 242 -1.35564 1
gene 1 30 5 -0.434245 0 243 -0.434245 1
gene 1 3 32 2.60198 0 253 2.60198 1
gene 1 32 30 0.784584 0 254 0.784584 1
gene 1 10 32 -0.886272 0 258 -0.886272 1
gene 1 2 32 -0.290821 0 268 -0.290821 1
gene 1 1 32 0.764675 0 310 0.764675 1
gene 1 30 30 -0.543073 1 337 -0.543073 1
genomeend 13

/* Species #165 : (Size 14) (AF 0) (Age 7)  */


/* Organism #14 Fitness: 1995 Error: 0 */
genomestart 14
trait 1 0.0257954 0 0 0.059826 0 0 0 0.449451 
node 1 1 1 3
node 2 1 1 1
node 3 1 1 1
node 4 1 1 1
node 5 1 0 2
node 10 1 0 0
node 30 1 0 0
node 32 1 0 0
gene 1 1 5 0.518888 0 1 0.518888 1
gene 1 2 5 -7.33054 0 2 -7.33054 1
gene 1 3 5 -0.95493 0 3 -0.95493 0
gene 1 4 5 -3.22747 0 4 -3.22747 0
gene 1 4 10 0.550679 0 29 0.550679 1
gene 1 10 5 -2.97331 0 30 -2.97331 1
gene 1 1 10 -4.80915 0 33 -4.80915 1
gene 1 2 10 5.31886 0 44 5.31886 1
gene 1 3 10 -0.495026 0 72 -0.495026 1
gene 1 5 5 0.238151 1 83 0.238151 1
gene 1 10 10 0.836963 1 164 0.836963 1
gene 1 3 30 0.42666 0 242 0.42666 1
gene 1 30 5 0.0602836 0 243 0.0602836 1
gene 1 3 32 0.357324 0 253 0.357324 0
gene 1 32 30 2.12453 0 254 2.12453 1
gene 1 10 32 -1.82614 0 258 -1.82614 1
gene 1 2 32 0.477758 0 268 0.477758 1
gene 1 32 32 0.120192 1 301 0.120192 1
gene 1 1 30 -0.41184 0 318 -0.41184 1
genomeend 14

/* Organism #15 Fitness: 44 Error: 0 */
genomestart 15
trait 1 0.0257954 0 0 0.059826 0 0 0 0.449451 
node 1 1 1 3
node 2 1 1 1
node 3 1 1 1
node 4 1 1 1
node 5 1 0 2
node 10 1 0 0
node 30 1 0 0
node 32 1 0 0
gene 1 1 5 0.518888 0 1 0.518888 1
gene 1 2 5 -7.33054 0 2 -7.33054 1
gene 1 3 5 -0.95493 0 3 -0.95493 0
gene 1 4 5 -3.22747 0 4 -3.22747 0
gene 1 4 10 0.550679 0 29 0.550679 1
gene 1 10 5 -2.97331 0 30 -2.97331 1
gene 1 1 10 -4.80915 0 33 -4.80915 1
gene 1 2 10 5.31886 0 44 5.31886 1
gene 1 3 10 -0.495026 0 72 -0.495026 1
gene 1 5 5 0.238151 1 83 0.238151 1
gene 1 10 10 0.836963 1 164 0.836963 1
gene 1 3 30 0.42666 0 242 0.42666 1
gene 1 30 5 0.0602836 0 243 0.0602836 1
gene 1 3 32 0.357324 0 253 0.357324 1
gene 1 32 30 2.12453 0 254 2.12453 1
gene 1 10 32 -1.82614 0 258 -1.82614 1
gene 1 2 32 0.477758 0 268 0.477758 1
gene 1 32 32 0.120192 1 301 0.120192 1
gene 1 1 30 -0.41184 0 318 -0.41184 1
gene 1 10 30 -0.0411481 0 349 -0.0411481 1
genomeend 15

/* Organism #16 Fitness: 14 Error: 0 */
genomestart 16
trait 1 0 0 0.0525009 0.059826 0.719855 0 0 0.449451 
node 1 1 1 3
node 2 1 1 1
node 3 1 1 1
node 4 1 1 1
node 5 1 0 2
node 10 1 0 0
node 30 1 0 0
node 32 1 0 0
gene 1 1 5 1.16945 0 1 1.16945 1
gene 1 2 5 -8 0 2 -8 1
gene 1 3 5 0.704933 0 3 0.704933 0
gene 1 4 5 -2.08914 0 4 -2.08914 1
gene 1 4 10 -0.200136 0 29 -0.200136 1
gene 1 10 5 -4.37577 0 30 -4.37577 1
gene 1 1 10 -3.31218 0 33 -3.31218 1
gene 1 2 10 6.1582 0 44 6.1582 1
gene 1 3 10 0.84873 0 72 0.84873 1
gene 1 5 5 0.0270524 1 83 0.0270524 1
gene 1 10 10 2.03248 1 164 2.03248 1
gene 1 3 30 -0.744132 0 242 -0.744132 1
gene 1 30 5 1.33793 0 243 1.33793 1
gene 1 3 32 0.619014 0 253 0.619014 1
gene 1 32 30 -0.120941 0 254 -0.120941 1
gene 1 10 32 -2.6078 0 258 -2.6078 1
gene 1 2 32 0.292244 0 268 0.292244 1
gene 1 32 32 -0.875143 1 301 -0.875143 1
gene 1 1 30 -0.645051 0 318 -0.645051 1
genomeend 16

/* Organism #17 Fitness: 236 Error: 0 */
genomestart 17
trait 1 0.0257954 0 0 0 0 0 0 0.66729 
node 1 1 1 3
node 2 1 1 1
node 3 1 1 1
node 4 1 1 1
node 5 1 0 2
node 10 1 0 0
node 30 1 0 0
node 32 1 0 0
gene 1 1 5 0.518888 0 1 0.518888 1
gene 1 2 5 -7.33054 0 2 -7.33054 1
gene 1 3 5 -0.95493 0 3 -0.95493 0
gene 1 4 5 -3.22747 0 4 -3.22747 0
gene 1 4 10 0.550679 0 29 0.550679 1
gene 1 10 5 -2.97331 0 30 -2.97331 1
gene 1 1 10 -4.80915 0 33 -4.80915 1
gene 1 2 10 5.31886 0 44 5.31886 1
gene 1 3 10 -0.495026 0 72 -0.495026 1
gene 1 5 5 0.238151 1 83 0.238151 1
gene 1 10 10 0.836963 1 164 0.836963 1
gene 1 3 30 0.42666 0 242 0.42666 1
gene 1 30 5 0.0602836 0 243 0.0602836 1
gene 1 3 32 0.357324 0 253 0.357324 1
gene 1 32 30 2.12453 0 254 2.12453 1
gene 1 10 32 -1.82614 0 258 -1.82614 1
gene 1 2 32 0.477758 0 268 0.477758 1
gene 1 32 32 0.120192 1 301 0.120192 1
gene 1 1 30 -0.41184 0 318 -0.41184 1
gene 1 10 30 -0.0411481 0 349 0 1
genomeend 17

/* Organism #18 Fitness: 1239 Error: 0 */
genomestart 18
trait 1 0.0257954 0 0 0.059826 0 0 0 0.449451 
node 1 1 1 3
node 2 1 1 1
node 3 1 1 1
node 4 1 1 1
node 5 1 0 2
node 10 1 0 0
node 30 1 0 0
node 32 1 0 0
gene 1 1 5 0.518888 0 1 0.518888 1
gene 1 2 5 -7.33054 0 2 -7.33054 1
gene 1 3 5 -0.95493 0 3 -0.95493 0
gene 1 4 5 -3.22747 0 4 -3.22747 0
gene 1 4 10 0.550679 0 29 0.550679 1
gene 1 10 5 -2.97331 0 30 -2.97331 1
gene 1 1 10 -4.80915 0 33 -4.80915 1
gene 1 2 10 5.31886 0 44 5.31886 1
gene 1 3 10 -0.495026 0 72 -0.495026 1
gene 1 5 5 0.238151 1 83 0.238151 1
gene 1 10 10 0.836963 1 164 0.836963 1
gene 1 3 30 0.42666 0 242 0.42666 1
gene 1 30 5 0.0602836 0 243 0.0602836 1
gene 1 3 32 0.357324 0 253 0.357324 0
gene 1 32 30 2.12453 0 254 2.12453 1
gene 1 10 32 -1.82614 0 258 -1.82614 1
gene 1 2 32 0.477758 0 268 0.477758 1
gene 1 32 32 0.120192 1 301 0.120192 1
gene 1 1 30 -0.41184 0 318 -0.41184 1
gene 1 10 30 0.774665 0 357 0.774665 1
genomeend 18

/* Organism #19 Fitness: 997 Error: 0 */
genomestart 19
trait 1 0.0257954 0 0 0.059826 0 0 0 0.449451 
node 1 1 1 3
node 2 1 1 1
node 3 1 1 1
node 4 1 1 1
node 5 1 0 2
node 10 1 0 0
node 30 1 0 0
node 32 1 0 0
gene 1 1 5 0.518888 0 1 0.518888 1
gene 1 2 5 -7.33054 0 2 -7.33054 1
gene 1 3 5 -0.95493 0 3 -0.95493 0
gene 1 4 5 -3.22747 0 4 -3.22747 0
gene 1 4 10 0.550679 0 29 0.550679 1
gene 1 10 5 -2.97331 0 30 -2.97331 1
gene 1 1 10 -4.80915 0 33 -4.80915 1
gene 1 2 10 5.31886 0 44 5.31886 1
gene 1 3 10 -0.495026 0 72 -0.495026 1
gene 1 5 5 0.238151 1 83 0.238151 1
gene 1 10 10 0.836963 1 164 0.836963 1
gene 1 3 30 0.42666 0 242 0.42666 1
gene 1 30 5 0.0602836 0 243 0.0602836 1
gene 1 3 32 0.357324 0 253 0.357324 1
gene 1 32 30 2.12453 0 254 2.12453 1
gene 1 10 32 -1.82614 0 258 -1.82614 1
gene 1 2 32 0.477758 0 268 0.477758 1
gene 1 32 32 0.120192 1 301 0.120192 1
gene 1 1 30 -0.41184 0 318 -0.41184 1
gene 1 10 30 -0.0411481 0 349 0 1
gene 1 4 32 0.510381 0 352 0 1
genomeend 19

/* Organism #20 Fitness: 571 Error: 0 */
genomestart 20
trait 1 0.0257954 0 0 0.059826 0 0 0 0.449451 
node 1 1 1 3
node 2 1 1 1
node 3 1 1 1
node 4 1 1 1
node 5 1 0 2
node 10 1 0 0
node 30 1 0 0
node 32 1 0 0
gene 1 1 5 0.518888 0 1 0.518888 1
gene 1 2 5 -7.33054 0 2 -7.33054 1
gene 1 3 5 -0.95493 0 3 -0.95493 0
gene 1 4 5 -3.22747 0 4 -3.22747 0
gene 1 4 10 0.550679 0 29 0.550679 1
gene 1 10 5 -2.97331 0 30 -2.97331 1
gene 1 1 10 -4.80915 0 33 -4.80915 1
gene 1 2 10 5.31886 0 44 5.31886 1
gene 1 3 10 -0.495026 0 72 -0.495026 1
gene 1 5 5 0.238151 1 83 0.238151 1
gene 1 10 10 0.836963 1 164 0.836963 1
gene 1 3 30 0.42666 0 242 0.42666 1
gene 1 30 5 0.0602836 0 243 0.0602836 1
gene 1 3 32 0.357324 0 253 0.357324 0
gene 1 32 30 2.12453 0 254 2.12453 1
gene 1 10 32 -1.82614 0 258 -1.82614 1
gene 1 2 32 0.477758 0 268 0.477758 1
gene 1 32 32 0.120192 1 301 0.120192 1
gene 1 1 30 -0.41184 0 318 -0.41184 1
gene 1 1 32 0.439236 0 358 0.439236 1
genomeend 20

/* Organism #21 Fitness: 15 Error: 0 */
genomestart 21
trait 1 0.0257954 0 0 0.059826 0 0 0 0.449451 
node 1 1 1 3
node 2 1 1 1
node 3 1 1 1
node 4 1 1 1
node 5 1 0 2
node 10 1 0 0
node 30 1 0 0
node 32 1 0 0
gene 1 1 5 -0.710076 0 1 -0.710076 1
gene 1 2 5 -8 0 2 -8 1
gene 1 3 5 -1.10394 0 3 -1.10394 0
gene 1 4 5 -3.50635 0 4 -3.50635 0
gene 1 4 10 -0.799734 0 29 -0.799734 1
gene 1 10 5 -3.44331 0 30 -3.44331 1
gene 1 1 10 -3.13168 0 33 -3.13168 1
gene 1 2 10 4.1544 0 44 4.1544 1
gene 1 3 10 -0.294365 0 72 -0.294365 1
gene 1 5 5 1.14658 1 83 1.14658 1
gene 1 10 10 -0.547108 1 164 -0.547108 1
gene 1 3 30 -1.18487 0 242 -1.18487 1
gene 1 30 5 -0.225362 0 243 -0.225362 1
gene 1 3 32 0.274771 0 253 0.274771 0
gene 1 32 30 0.51381 0 254 0.51381 1
gene 1 10 32 -0.391065 0 258 -0.391065 1
gene 1 2 32 0.477758 0 268 0.477758 1
gene 1 32 32 1.44383 1 301 1.44383 1
gene 1 1 30 -0.41184 0 318 -0.41184 1
genomeend 21

/* Organism #22 Fitness: 1641 Error: 0 */
genomestart 22
trait 1 0.0257954 0 0 0.059826 0 0 0 0.449451 
node 1 1 1 3
node 2 1 1 1
node 3 1 1 1
node 4 1 1 1
node 5 1 0 2
node 10 1 0 0
node 30 1 0 0
node 32 1 0 0
gene 1 1 5 0.518888 0 1 0.518888 1
gene 1 2 5 -7.33054 0 2 -7.33054 1
gene 1 3 5 -0.95493 0 3 -0.95493 0
gene 1 4 5 -3.22747 0 4 -3.22747 0
gene 1 4 10 0.550679 0 29 0.550679 1
gene 1 10 5 -2.97331 0 30 -2.97331 1
gene 1 1 10 -4.80915 0 33 -4.80915 1
gene 1 2 10 5.31886 0 44 5.31886 1
gene 1 3 10 -0.495026 0 72 -0.495026 1
gene 1 5 5 0.238151 1 83 0.238151 1
gene 1 10 10 0.836963 1 164 0.836963 1
gene 1 3 30 0.42666 0 242 0.42666 1
gene 1 30 5 0.0602836 0 243 0.0602836 1
gene 1 3 32 0.357324 0 253 0.357324 1
gene 1 32 30 2.12453 0 254 2.12453 1
gene 1 10 32 -1.82614 0 258 -1.82614 1
gene 1 2 32 0.477758 0 268 0.477758 1
gene 1 32 32 0.120192 1 301 0.120192 1
gene 1 1 30 -0.41184 0 318 -0.41184 1
gene 1 10 30 -0.0411481 0 349 -0.020574 1
gene 1 1 32 0.439236 0 358 0 1
genomeend 22

/* Organism #23 Fitness: 16 Error: 0 */
genomestart 23
trait 1 0.0257954 0 0 0.059826 0 0 0 0.449451 
node 1 1 1 3
node 2 1 1 1
node 3 1 1 1
node 4 1 1 1
node 5 1 0 2
node 10 1 0 0
node 30 1 0 0
node 32 1 0 0
gene 1 1 5 0.518888 0 1 0.518888 1
gene 1 2 5 -7.33054 0 2 -7.33054 1
gene 1 3 5 -0.95493 0 3 -0.95493 1
gene 1 4 5 -3.22747 0 4 -3.22747 0
gene 1 4 10 0.550679 0 29 0.550679 1
gene 1 10 5 -2.97331 0 30 -2.97331 1
gene 1 1 10 -4.80915 0 33 -4.80915 1
gene 1 2 10 5.31886 0 44 5.31886 1
gene 1 3 10 -0.495026 0 72 -0.495026 1
gene 1 5 5 0.238151 1 83 0.238151 1
gene 1 10 10 0.836963 1 164 0.836963 1
gene 1 3 30 0.42666 0 242 0.42666 1
gene 1 30 5 0.0602836 0 243 0.0602836 1
gene 1 3 32 0.357324 0 253 0.357324 0
gene 1 32 30 2.12453 0 254 2.12453 1
gene 1 10 32 -1.82614 0 258 -1.82614 1
gene 1 2 32 0.477758 0 268 0.477758 1
gene 1 32 32 0.120192 1 301 0.120192 1
gene 1 1 30 -0.41184 0 318 -0.41184 1
gene 1 4 30 -0.45603 0 355 0 1
genomeend 23

/* Organism #24 Fitness: 738 Error: 0 */
genomestart 24
trait 1 0.0257954 0 0 0.059826 0 0 0 0.449451 
node 1 1 1 3
node 2 1 1 1
node 3 1 1 1
node 4 1 1 1
node 5 1 0 2
node 10 1 0 0
node 30 1 0 0
node 32 1 0 0
gene 1 1 5 0.518888 0 1 0.518888 1
gene 1 2 5 -7.33054 0 2 -7.33054 1
gene 1 3 5 -0.95493 0 3 -0.95493 0
gene 1 4 5 -3.22747 0 4 -3.22747 0
gene 1 4 10 0.550679 0 29 0.550679 1
gene 1 10 5 -2.97331 0 30 -2.97331 1
gene 1 1 10 -4.80915 0 33 -4.80915 1
gene 1 2 10 5.31886 0 44 5.31886 1
gene 1 3 10 -0.495026 0 72 -0.495026 1
gene 1 5 5 0.238151 1 83 0.238151 1
gene 1 10 10 0.836963 1 164 0.836963 1
gene 1 3 30 0.42666 0 242 0.42666 1
gene 1 30 5 0.0602836 0 243 0.0602836 1
gene 1 3 32 0.357324 0 253 0.357324 1
gene 1 32 30 2.12453 0 254 2.12453 1
gene 1 10 32 -1.82614 0 258 -1.82614 1
gene 1 2 32 0.477758 0 268 0.477758 1
gene 1 32 32 0.120192 1 301 0.120192 1
gene 1 1 30 -0.41184 0 318 -0.41184 1
gene 1 10 30 -0.0411481 0 349 0 1
genomeend 24

/* Organism #25 Fitness: 1017 Error: 0 */
genomestart 25
trait 1 0.0257954 0 0 0.059826 0 0 0 0.449451 
node 1 1 1 3
node 2 1 1 1
node 3 1 1 1
node 4 1 1 1
node 5 1 0 2
node 10 1 0 0
node 30 1 0 0
node 32 1 0 0
gene 1 1 5 0.518888 0 1 0.518888 1
gene 1 2 5 -7.33054 0 2 -7.33054 1
gene 1 3 5 -0.95493 0 3 -0.95493 0
gene 1 4 5 -3.22747 0 4 -3.22747 0
gene 1 4 10 0.550679 0 29 0.550679 1
gene 1 10 5 -2.97331 0 30 -2.97331 1
gene 1 1 10 -4.80915 0 33 -4.80915 1
gene 1 2 10 5.31886 0 44 5.31886 1
gene 1 3 10 -0.495026 0 72 -0.495026 1
gene 1 5 5 0.238151 1 83 0.238151 1
gene 1 10 10 0.836963 1 164 0.836963 1
gene 1 3 30 0.42666 0 242 0.42666 1
gene 1 30 5 0.0602836 0 243 0.0602836 1
gene 1 3 32 0.357324 0 253 0.357324 0
gene 1 32 30 2.12453 0 254 2.12453 1
gene 1 10 32 -1.82614 0 258 -1.82614 1
gene 1 2 32 0.477758 0 268 0.477758 1
gene 1 32 32 0.120192 1 301 0.120192 1
gene 1 1 30 -0.41184 0 318 -0.41184 1
gene 1 1 32 0.439236 0 358 0 1
genomeend 25

/* Organism #26 Fitness: 1441 Error: 0 */
genomestart 26
trait 1 0.0257954 0 0 0.059826 0 0 0 0.449451 
node 1 1 1 3
node 2 1 1 1
node 3 1 1 1
node 4 1 1 1
node 5 1 0 2
node 10 1 0 0
node 30 1 0 0
node 32 1 0 0
gene 1 1 5 0.518888 0 1 0.518888 1
gene 1 2 5 -7.33054 0 2 -7.33054 1
gene 1 3 5 -0.95493 0 3 -0.95493 0
gene 1 4 5 -3.22747 0 4 -3.22747 0
gene 1 4 10 0.550679 0 29 0.550679 1
gene 1 10 5 -2.97331 0 30 -2.97331 1
gene 1 1 10 -4.80915 0 33 -4.80915 1
gene 1 2 10 5.31886 0 44 5.31886 1
gene 1 3 10 -0.495026 0 72 -0.495026 1
gene 1 5 5 0.238151 1 83 0.238151 1
gene 1 10 10 0.836963 1 164 0.836963 1
gene 1 3 30 0.42666 0 242 0.42666 1
gene 1 30 5 0.0602836 0 243 0.0602836 1
gene 1 3 32 0.357324 0 253 0.357324 0
gene 1 32 30 2.12453 0 254 2.12453 1
gene 1 10 32 -1.82614 0 258 -1.82614 1
gene 1 2 32 0.477758 0 268 0.477758 1
gene 1 32 32 0.120192 1 301 0.120192 1
gene 1 1 30 -0.41184 0 318 -0.41184 1
gene 1 4 32 0.510381 0 352 0 1
genomeend 26

/* Organism #27 Fitness: 2232 Error: 0 */
genomestart 27
trait 1 0.0257954 0 0 0.059826 0 0 0 0.449451 
node 1 1 1 3
node 2 1 1 1
node 3 1 1 1
node 4 1 1 1
node 5 1 0 2
node 10 1 0 0
node 30 1 0 0
node 32 1 0 0
gene 1 1 5 0.464224 0 1 0.464224 1
gene 1 2 5 -8 0 2 -8 1
gene 1 3 5 -2.04699 0 3 -2.04699 0
gene 1 4 5 -2.00404 0 4 -2.00404 0
gene 1 4 10 -0.121445 0 29 -0.121445 1
gene 1 10 5 -2.68062 0 30 -2.68062 1
gene 1 1 10 -4.5786 0 33 -4.5786 1
gene 1 2 10 4.97022 0 44 4.97022 1
gene 1 3 10 0.624511 0 72 0.624511 1
gene 1 5 5 -1.23267 1 83 -1.23267 1
gene 1 10 10 2.18551 1 164 2.18551 1
gene 1 3 30 1.83666 0 242 1.83666 1
gene 1 30 5 -1.07826 0 243 -1.07826 1
gene 1 3 32 0.902354 0 253 0.902354 1
gene 1 32 30 1.69983 0 254 1.69983 1
gene 1 10 32 -2.95759 0 258 -2.95759 1
gene 1 2 32 0.578514 0 268 0.578514 1
gene 1 32 32 -1.57158 1 301 -1.57158 1
gene 1 1 30 -0.41184 0 318 -0.41184 1
gene 1 10 30 -0.344091 0 349 -0.344091 1
genomeend 27

/* Species #173 : (Size 12) (AF 0) (Age 5)  */


/* Organism #28 Fitness: 640 Error: 0 */
genomestart 28
trait 1 0.0257954 0 0 0.059826 0 0 0 0.449451 
node 1 1 1 3
node 2 1 1 1
node 3 1 1 1
node 4 1 1 1
node 5 1 0 2
node 10 1 0 0
node 30 1 0 0
node 32 1 0 0
gene 1 1 5 0.359777 0 1 0.359777 1
gene 1 2 5 -6.62433 0 2 -6.62433 1
gene 1 3 5 -0.337474 0 3 -0.337474 0
gene 1 4 5 -1.42101 0 4 -1.42101 0
gene 1 4 10 -0.366389 0 29 -0.366389 1
gene 1 10 5 -2.39569 0 30 -2.39569 1
gene 1 1 10 -6.39149 0 33 -6.39149 1
gene 1 2 10 6.08086 0 44 6.08086 1
gene 1 3 10 -1.2267 0 72 -1.2267 0
gene 1 5 5 -0.272538 1 83 -0.272538 1
gene 1 10 10 -0.0759346 1 164 -0.0759346 1
gene 1 3 30 -1.23503 0 242 -1.23503 1
gene 1 30 5 -1.19895 0 243 -1.19895 1
gene 1 3 32 1.08093 0 253 1.08093 1
gene 1 32 30 2.80497 0 254 2.80497 1
gene 1 10 32 0.19654 0 258 0.19654 1
gene 1 2 32 1.6299 0 268 1.6299 1
gene 1 32 32 0.388415 1 301 0.388415 1
gene 1 4 32 0.120399 0 315 0.0300998 1
gene 1 10 30 0.0158818 0 332 0 1
gene 1 1 30 -0.411892 0 338 0 1
genomeend 28

/* Organism #29 Fitness: 16 Error: 0 */
genomestart 29
trait 1 0.0257954 0 0 0.059826 0 0 0 0.449451 
node 1 1 1 3
node 2 1 1 1
node 3 1 1 1
node 4 1 1 1
node 5 1 0 2
node 10 1 0 0
node 30 1 0 0
node 32 1 0 0
gene 1 1 5 0.0834761 0 1 0.0834761 1
gene 1 2 5 -5.76354 0 2 -5.76354 1
gene 1 3 5 -1.23914 0 3 -1.23914 1
gene 1 4 5 -0.499005 0 4 -0.499005 0
gene 1 4 10 0.0792211 0 29 0.0792211 1
gene 1 10 5 -1.54062 0 30 -1.54062 1
gene 1 1 10 -5.54605 0 33 -5.54605 1
gene 1 2 10 7.03887 0 44 7.03887 1
gene 1 3 10 -2.55721 0 72 -2.55721 0
gene 1 5 5 1.52949 1 83 1.52949 1
gene 1 10 10 0.454472 1 164 0.454472 1
gene 1 3 30 -1.11816 0 242 -1.11816 1
gene 1 30 5 -2.8451 0 243 -2.8451 1
gene 1 3 32 0.725571 0 253 0.725571 1
gene 1 32 30 3.20906 0 254 3.20906 1
gene 1 10 32 -0.833493 0 258 -0.833493 1
gene 1 2 32 0.664348 0 268 0.664348 1
gene 1 32 32 0.805684 1 301 0.805684 1
gene 1 4 32 -1.29379 0 315 -1.29379 1
gene 1 10 30 -0.878722 0 332 -0.878722 1
gene 1 1 30 0.257688 0 338 0.257688 1
genomeend 29

/* Organism #30 Fitness: 19 Error: 0 */
genomestart 30
trait 1 0.0257954 0 0 0.059826 0 0 0 0.449451 
node 1 1 1 3
node 2 1 1 1
node 3 1 1 1
node 4 1 1 1
node 5 1 0 2
node 10 1 0 0
node 30 1 0 0
node 32 1 0 0
gene 1 1 5 1.07441 0 1 1.07441 1
gene 1 2 5 -5.89164 0 2 -5.89164 1
gene 1 3 5 -0.808592 0 3 -0.808592 0
gene 1 4 5 -1.97528 0 4 -1.97528 0
gene 1 4 10 1.15506 0 29 1.15506 1
gene 1 10 5 -0.924453 0 30 -0.924453 1
gene 1 1 10 -7.21018 0 33 -7.21018 1
gene 1 2 10 4.75291 0 44 4.75291 1
gene 1 3 10 -2.89892 0 72 -2.89892 0
gene 1 5 5 1.31152 1 83 1.31152 1
gene 1 10 10 -1.78491 1 164 -1.78491 1
gene 1 3 30 -2.31461 0 242 -2.31461 1
gene 1 30 5 -0.72798 0 243 -0.72798 1
gene 1 3 32 2.64328 0 253 2.64328 1
gene 1 32 30 1.68983 0 254 1.68983 1
gene 1 10 32 0.309544 0 258 0.309544 1
gene 1 2 32 2.40591 0 268 2.40591 1
gene 1 32 32 0.152133 1 301 0.152133 1
gene 1 4 32 1.82147 0 315 1.82147 1
gene 1 10 30 -1.31263 0 332 -1.31263 1
gene 1 1 30 -0.686484 0 338 -0.686484 1
genomeend 30

/* Organism #31 Fitness: 883 Error: 0 */
genomestart 31
trait 1 0.0257954 0 0 0.059826 0 0 0 0.449451 
node 1 1 1 3
node 2 1 1 1
node 3 1 1 1
node 4 1 1 1
node 5 1 0 2
node 10 1 0 0
node 30 1 0 0
node 32 1 0 0
gene 1 1 5 0.424946 0 1 0.424946 1
gene 1 2 5 -6.62433 0 2 -6.62433 1
gene 1 3 5 -0.604068 0 3 -0.604068 0
gene 1 4 5 -1.42101 0 4 -1.42101 0
gene 1 4 10 -0.175871 0 29 -0.175871 1
gene 1 10 5 -2.62828 0 30 -2.62828 1
gene 1 1 10 -6.42091 0 33 -6.42091 1
gene 1 2 10 6.08086 0 44 6.08086 1
gene 1 3 10 -1.22897 0 72 -1.22897 0
gene 1 5 5 0.0512538 1 83 0.0512538 1
gene 1 10 10 -0.0759346 1 164 -0.0759346 1
gene 1 3 30 -1.29534 0 242 -1.29534 1
gene 1 30 5 -1.19895 0 243 -1.19895 1
gene 1 3 32 1.08093 0 253 1.08093 1
gene 1 32 30 2.80497 0 254 2.80497 1
gene 1 10 32 -0.0440348 0 258 -0.0440348 1
gene 1 2 32 1.6299 0 268 1.6299 1
gene 1 32 32 0.388415 1 301 0.388415 1
gene 1 4 32 0.120399 0 315 0.0300998 1
gene 1 10 30 0.0158818 0 332 0 1
gene 1 1 30 -0.411892 0 338 0 1
gene 1 4 30 0.583755 0 347 0 1
gene 1 5 10 0.0136107 1 359 0.0136107 1
genomeend 31

/* Organism #32 Fitness: 693 Error: 0 */
genomestart 32
trait 1 0.0257954 0 0 0.059826 0 0 0 0.449451 
node 1 1 1 3
node 2 1 1 1
node 3 1 1 1
node 4 1 1 1
node 5 1 0 2
node 10 1 0 0
node 30 1 0 0
node 32 1 0 0
gene 1 1 5 0.392362 0 1 0.392362 1
gene 1 2 5 -6.62433 0 2 -6.62433 1
gene 1 3 5 -0.470771 0 3 -0.470771 0
gene 1 4 5 -1.42101 0 4 -1.42101 0
gene 1 4 10 -0.27113 0 29 -0.27113 1
gene 1 10 5 -2.51199 0 30 -2.51199 1
gene 1 1 10 -6.4062 0 33 -6.4062 1
gene 1 2 10 6.08086 0 44 6.08086 1
gene 1 3 10 -1.22784 0 72 -1.22784 0
gene 1 5 5 -0.110642 1 83 -0.110642 1
gene 1 10 10 -0.0759346 1 164 -0.0759346 1
gene 1 3 30 -1.26518 0 242 -1.26518 1
gene 1 30 5 -1.19895 0 243 -1.19895 1
gene 1 3 32 1.08093 0 253 1.08093 1
gene 1 32 30 2.80497 0 254 2.80497 1
gene 1 10 32 0.0762527 0 258 0.0762527 1
gene 1 2 32 1.6299 0 268 1.6299 1
gene 1 32 32 0.388415 1 301 0.388415 1
gene 1 4 32 0.120399 0 315 0.0300998 1
gene 1 10 30 0.0158818 0 332 0 1
gene 1 1 30 -0.411892 0 338 0 1
gene 1 1 32 0.439236 0 358 0 1
genomeend 32

/* Organism #33 Fitness: 18 Error: 0 */
genomestart 33
trait 1 0.0257954 0 0 0.059826 0 0 0 0.449451 
node 1 1 1 3
node 2 1 1 1
node 3 1 1 1
node 4 1 1 1
node 5 1 0 2
node 10 1 0 0
node 30 1 0 0
node 32 1 0 0
gene 1 1 5 -0.835461 0 1 -0.835461 1
gene 1 2 5 -5.37052 0 2 -5.37052 1
gene 1 3 5 -0.498251 0 3 -0.498251 0
gene 1 4 5 -0.864844 0 4 -0.864844 0
gene 1 4 10 0.347034 0 29 0.347034 1
gene 1 10 5 -3.38557 0 30 -3.38557 1
gene 1 1 10 -5.55303 0 33 -5.55303 1
gene 1 2 10 7.87893 0 44 7.87893 1
gene 1 3 10 -1.61227 0 72 -1.61227 0
gene 1 5 5 0.891522 1 83 0.891522 1
gene 1 10 10 -0.0630605 1 164 -0.0630605 1
gene 1 3 30 -2.80936 0 242 -2.80936 1
gene 1 30 5 -2.22642 0 243 -2.22642 1
gene 1 3 32 2.30059 0 253 2.30059 1
gene 1 32 30 4.1485 0 254 4.1485 1
gene 1 10 32 -1.20645 0 258 -1.20645 1
gene 1 2 32 0.427833 0 268 0.427833 1
gene 1 32 32 0.146083 1 301 0.146083 1
gene 1 4 32 1.30882 0 315 1.30882 1
gene 1 10 30 -0.528553 0 332 -0.528553 1
gene 1 1 30 -0.411892 0 338 -0.411892 1
genomeend 33

/* Organism #34 Fitness: 27 Error: 0 */
genomestart 34
trait 1 0.0257954 0 0.650768 0.378408 0.453211 0 0.407084 0 
node 1 1 1 3
node 2 1 1 1
node 3 1 1 1
node 4 1 1 1
node 5 1 0 2
node 10 1 0 0
node 30 1 0 0
node 32 1 0 0
gene 1 1 5 1.36299 0 1 1.36299 1
gene 1 2 5 -6.09127 0 2 -6.09127 1
gene 1 3 5 1.46968 0 3 1.46968 0
gene 1 4 5 -0.0146221 0 4 -0.0146221 0
gene 1 4 10 -1.04047 0 29 -1.04047 1
gene 1 10 5 -2.62828 0 30 -2.62828 1
gene 1 1 10 -4.89425 0 33 -4.89425 1
gene 1 2 10 7.59328 0 44 7.59328 1
gene 1 3 10 -2.76193 0 72 -2.76193 0
gene 1 5 5 -0.0537741 1 83 -0.0537741 1
gene 1 10 10 -0.324224 1 164 -0.324224 1
gene 1 3 30 -1.74563 0 242 -1.74563 1
gene 1 30 5 -0.612332 0 243 -0.612332 1
gene 1 3 32 0.986607 0 253 0.986607 1
gene 1 32 30 2.6295 0 254 2.6295 1
gene 1 10 32 -0.0440348 0 258 -0.0440348 1
gene 1 2 32 2.00344 0 268 2.00344 1
gene 1 32 32 -0.0190098 1 301 -0.0190098 1
gene 1 4 32 0.0352735 0 315 0.0352735 1
gene 1 10 30 1.16107 0 332 1.16107 1
gene 1 1 30 -2.12282 0 338 -2.12282 1
gene 1 4 30 0.583755 0 347 0.583755 1
genomeend 34

/* Organism #35 Fitness: 22 Error: 0 */
genomestart 35
trait 1 0.0257954 0 0 0.059826 0 0 0 0.449451 
node 1 1 1 3
node 2 1 1 1
node 3 1 1 1
node 4 1 1 1
node 5 1 0 2
node 10 1 0 0
node 30 1 0 0
node 32 1 0 0
gene 1 1 5 0.392362 0 1 0.392362 1
gene 1 2 5 -6.62433 0 2 -6.62433 1
gene 1 3 5 -0.337474 0 3 -0.337474 0
gene 1 4 5 -1.42101 0 4 -1.42101 1
gene 1 4 10 -0.366389 0 29 -0.366389 1
gene 1 10 5 -2.39569 0 30 -2.39569 1
gene 1 1 10 -6.4062 0 33 -6.4062 1
gene 1 2 10 6.22231 0 44 6.22231 1
gene 1 3 10 -1.22784 0 72 -1.22784 0
gene 1 5 5 -0.110642 1 83 -0.110642 1
gene 1 10 10 -0.0759346 1 164 -0.0759346 1
gene 1 3 30 -1.26518 0 242 -1.26518 1
gene 1 30 5 -1.19895 0 243 -1.19895 1
gene 1 3 32 1.12139 0 253 1.12139 1
gene 1 32 30 2.80497 0 254 2.80497 1
gene 1 10 32 0.0762527 0 258 0.0762527 1
gene 1 2 32 1.91369 0 268 1.91369 1
gene 1 32 32 0.303861 1 301 0.303861 1
gene 1 4 32 0.120399 0 315 0.0451498 1
gene 1 10 30 0.0158818 0 332 0 1
gene 1 1 30 -0.411892 0 338 0 1
genomeend 35

/* Organism #36 Fitness: 340 Error: 0 */
genomestart 36
trait 1 0.0257954 0 0 0.059826 0 0 0 0.449451 
node 1 1 1 3
node 2 1 1 1
node 3 1 1 1
node 4 1 1 1
node 5 1 0 2
node 10 1 0 0
node 30 1 0 0
node 32 1 0 0
gene 1 1 5 0.424946 0 1 0.424946 1
gene 1 2 5 -6.62433 0 2 -6.62433 1
gene 1 3 5 -0.604068 0 3 -0.604068 0
gene 1 4 5 -1.42101 0 4 -1.42101 0
gene 1 4 10 -0.175871 0 29 -0.175871 1
gene 1 10 5 -2.62828 0 30 -2.62828 1
gene 1 1 10 -6.42091 0 33 -6.42091 1
gene 1 2 10 6.08086 0 44 6.08086 1
gene 1 3 10 -1.22897 0 72 -1.22897 0
gene 1 5 5 0.0512538 1 83 0.0512538 1
gene 1 10 10 -0.0759346 1 164 -0.0759346 1
gene 1 3 30 -1.29534 0 242 -1.29534 1
gene 1 30 5 -1.19895 0 243 -1.19895 1
gene 1 3 32 1.08093 0 253 1.08093 1
gene 1 32 30 2.80497 0 254 2.80497 1
gene 1 10 32 -0.0440348 0 258 -0.0440348 1
gene 1 2 32 1.6299 0 268 1.6299 1
gene 1 32 32 0.388415 1 301 0.388415 1
gene 1 4 32 0.120399 0 315 0.0300998 1
gene 1 10 30 0.0158818 0 332 0 1
gene 1 1 30 -0.411892 0 338 0 1
gene 1 4 30 0.583755 0 347 0 1
genomeend 36

/* Organism #37 Fitness: 19 Error: 0 */
genomestart 37
trait 1 0.0257954 0 0 0.059826 0 0 0 0.449451 
node 1 1 1 3
node 2 1 1 1
node 3 1 1 1
node 4 1 1 1
node 5 1 0 2
node 10 1 0 0
node 30 1 0 0
node 32 1 0 0
gene 1 1 5 0.359777 0 1 0.359777 1
gene 1 2 5 -6.62433 0 2 -6.62433 1
gene 1 3 5 -0.337474 0 3 -0.337474 0
gene 1 4 5 -0.792308 0 4 -0.792308 0
gene 1 4 10 -0.366389 0 29 -0.366389 1
gene 1 10 5 -2.39569 0 30 -2.39569 1
gene 1 1 10 -6.42091 0 33 -6.42091 1
gene 1 2 10 6.36377 0 44 6.36377 1
gene 1 3 10 -1.2267 0 72 -1.2267 0
gene 1 5 5 0.0512538 1 83 0.0512538 1
gene 1 10 10 -0.0759346 1 164 -0.0759346 1
gene 1 3 30 -1.23503 0 242 -1.23503 1
gene 1 30 5 -1.25291 0 243 -1.25291 1
gene 1 3 32 1.08093 0 253 1.08093 1
gene 1 32 30 2.80497 0 254 2.80497 1
gene 1 10 32 0.19654 0 258 0.19654 1
gene 1 2 32 1.6299 0 268 1.6299 1
gene 1 32 32 0.388415 1 301 0.388415 1
gene 1 4 32 0.120399 0 315 0.0601997 1
gene 1 10 30 0.0158818 0 332 0 1
gene 1 1 30 -0.411892 0 338 0 1
genomeend 37

/* Organism #38 Fitness: 17 Error: 0 */
genomestart 38
trait 1 0.0257954 0 0 0.059826 0 0 0 0.449451 
node 1 1 1 3
node 2 1 1 1
node 3 1 1 1
node 4 1 1 1
node 5 1 0 2
node 10 1 0 0
node 30 1 0 0
node 32 1 0 0
gene 1 1 5 0.359777 0 1 0.359777 1
gene 1 2 5 -6.62433 0 2 -6.62433 1
gene 1 3 5 -0.337474 0 3 -0.337474 1
gene 1 4 5 -1.42101 0 4 -1.42101 0
gene 1 4 10 -0.366389 0 29 -0.366389 1
gene 1 10 5 -2.39569 0 30 -2.39569 1
gene 1 1 10 -6.39149 0 33 -6.39149 1
gene 1 2 10 6.08086 0 44 6.08086 1
gene 1 3 10 -1.2267 0 72 -1.2267 0
gene 1 5 5 -0.272538 1 83 -0.272538 1
gene 1 10 10 -0.0759346 1 164 -0.0759346 1
gene 1 3 30 -1.23503 0 242 -1.23503 1
gene 1 30 5 -1.19895 0 243 -1.19895 1
gene 1 3 32 1.08093 0 253 1.08093 1
gene 1 32 30 2.80497 0 254 2.80497 1
gene 1 10 32 0.19654 0 258 0.19654 1
gene 1 2 32 1.6299 0 268 1.6299 1
gene 1 32 32 0.388415 1 301 0.388415 1
gene 1 4 32 0.120399 0 315 0.0300998 1
gene 1 10 30 0.0158818 0 332 0 1
gene 1 1 30 -0.411892 0 338 0 1
genomeend 38

/* Organism #39 Fitness: 16 Error: 0 */
genomestart 39
trait 1 0.0257954 0 0 0.059826 0 0 0 0.449451 
node 1 1 1 3
node 2 1 1 1
node 3 1 1 1
node 4 1 1 1
node 5 1 0 2
node 10 1 0 0
node 30 1 0 0
node 32 1 0 0
gene 1 1 5 -1.33878 0 1 -1.33878 1
gene 1 2 5 -8 0 2 -8 1
gene 1 3 5 1.17995 0 3 1.17995 0
gene 1 4 5 0.3031 0 4 0.3031 0
gene 1 4 10 0.527404 0 29 0.527404 1
gene 1 10 5 -4.41146 0 30 -4.41146 1
gene 1 1 10 -7.92734 0 33 -7.92734 1
gene 1 2 10 5.76578 0 44 5.76578 1
gene 1 3 10 -2.67099 0 72 -2.67099 0
gene 1 5 5 0.694871 1 83 0.694871 1
gene 1 10 10 0.907833 1 164 0.907833 1
gene 1 3 30 -0.654131 0 242 -0.654131 1
gene 1 30 5 -1.75609 0 243 -1.75609 1
gene 1 3 32 2.83544 0 253 2.83544 1
gene 1 32 30 2.35059 0 254 2.35059 1
gene 1 10 32 0.718053 0 258 0.718053 1
gene 1 2 32 2.0085 0 268 2.0085 1
gene 1 32 32 0.544677 1 301 0.544677 1
gene 1 4 32 -1.01963 0 315 -1.01963 1
gene 1 10 30 0.0158818 0 332 0.0158818 1
gene 1 1 30 -0.411892 0 338 -0.411892 1
gene 1 4 30 1.23267 0 347 1.23267 1
genomeend 39

/* Species #176 : (Size 1) (AF 0) (Age 4)  */


/* Organism #40 Fitness: 22 Error: 0 */
genomestart 40
trait 1 0.0257954 0 0 0.608988 0.399499 0 0 0.449451 
node 1 1 1 3
node 2 1 1 1
node 3 1 1 1
node 4 1 1 1
node 5 1 0 2
node 10 1 0 0
node 30 1 0 0
node 32 1 0 0
gene 1 1 5 0.195465 0 1 0.195465 1
gene 1 2 5 -7.58645 0 2 -7.58645 1
gene 1 3 5 -1.65824 0 3 -1.65824 0
gene 1 4 5 -3.62612 0 4 -3.62612 1
gene 1 4 10 2.15865 0 29 2.15865 1
gene 1 10 5 -0.634866 0 30 -0.634866 1
gene 1 1 10 -4.9436 0 33 -4.9436 1
gene 1 2 10 -1.13819 0 44 -1.13819 1
gene 1 3 10 -1.10591 0 72 -1.10591 1
gene 1 5 5 0.475525 1 83 0.475525 1
gene 1 10 10 -0.365222 1 164 -0.365222 1
gene 1 3 30 -0.665732 0 242 -0.665732 1
gene 1 30 5 -0.656837 0 243 -0.656837 1
gene 1 3 32 2.28329 0 253 2.28329 1
gene 1 32 30 1.86358 0 254 1.86358 1
gene 1 10 32 -0.143583 0 258 -0.143583 1
gene 1 2 32 0.565788 0 268 0.565788 1
gene 1 1 32 0.764675 0 310 0.764675 1
gene 1 30 30 0.177239 1 326 0.177239 1
gene 1 2 30 0.389728 0 336 0.389728 1
gene 1 4 32 0.510381 0 352 0 1
genomeend 40

/* Species #181 : (Size 1) (AF 0) (Age 4)  */


/* Organism #41 Fitness: 23 Error: 0 */
genomestart 41
trait 1 1 0 1 0 0 0.550987 0 0.619245 
node 1 1 1 3
node 2 1 1 1
node 3 1 1 1
node 4 1 1 1
node 5 1 0 2
node 13 1 0 0
gene 1 1 5 5.97193 0 1 5.97193 1
gene 1 2 5 -1.88059 0 2 -1.88059 1
gene 1 3 5 -2.19765 0 3 -2.19765 1
gene 1 4 5 -2.14979 0 4 -2.14979 1
gene 1 5 5 -1.07208 1 11 -1.07208 1
gene 1 4 13 -1.95621 0 57 -1.95621 1
gene 1 13 5 -1.45171 0 58 -1.45171 1
gene 1 2 13 -6.13064 0 78 -6.13064 1
gene 1 1 13 3.11314 0 85 3.11314 1
gene 1 3 13 1.38925 0 97 1.38925 1
gene 1 13 13 -0.0406235 1 117 -0.0406235 1
gene 1 5 13 0.0465138 1 250 0.0465138 1
genomeend 41

/* Species #183 : (Size 1) (AF 0) (Age 3)  */


/* Organism #42 Fitness: 18 Error: 0 */
genomestart 42
trait 1 0.0257954 0 0 0.059826 0 0 0 0.449451 
node 1 1 1 3
node 2 1 1 1
node 3 1 1 1
node 4 1 1 1
node 5 1 0 2
node 10 1 0 0
node 30 1 0 0
node 32 1 0 0
gene 1 1 5 1.97186 0 1 1.97186 1
gene 1 2 5 -6.09457 0 2 -6.09457 1
gene 1 3 5 -2.59516 0 3 -2.59516 0
gene 1 4 5 0.0394031 0 4 0.0394031 0
gene 1 4 10 0.0146467 0 29 0.0146467 1
gene 1 10 5 -1.25136 0 30 -1.25136 1
gene 1 1 10 -6.22283 0 33 -6.22283 1
gene 1 2 10 4.00593 0 44 4.00593 1
gene 1 3 10 0.378238 0 72 0.378238 1
gene 1 5 5 -0.216147 1 83 -0.216147 1
gene 1 10 10 0.714632 1 164 0.714632 1
gene 1 3 30 -1.92781 0 242 -1.92781 1
gene 1 30 5 0.117552 0 243 0.117552 1
gene 1 3 32 2.21642 0 253 2.21642 1
gene 1 32 30 0.578283 0 254 0.578283 1
gene 1 10 32 -1.12601 0 258 -1.12601 1
gene 1 2 32 -0.167724 0 268 -0.167724 1
gene 1 32 32 -1.07859 1 301 -1.07859 1
gene 1 1 30 -1.4439 0 318 -1.4439 1
gene 1 4 30 -0.22022 0 329 -0.22022 1
gene 1 10 30 -1.46297 0 332 -1.46297 1
gene 1 2 30 -0.882403 0 360 -0.882403 1
genomeend 42

/* Species #186 : (Size 1) (AF 0) (Age 2)  */


/* Organism #43 Fitness: 24 Error: 0 */
genomestart 43
trait 1 0.0257954 0 0 0.582837 0.380475 0 0 0.449451 
node 1 1 1 3
node 2 1 1 1
node 3 1 1 1
node 4 1 1 1
node 5 1 0 2
node 10 1 0 0
node 30 1 0 0
node 32 1 0 0
gene 1 1 5 1.16859 0 1 1.16859 1
gene 1 2 5 -6.34136 0 2 -6.34136 1
gene 1 3 5 -0.352545 0 3 -0.352545 0
gene 1 4 5 -3.22067 0 4 -3.22067 0
gene 1 4 10 0.964354 0 29 0.964354 1
gene 1 10 5 -2.91006 0 30 -2.91006 1
gene 1 1 10 -3.55778 0 33 -3.55778 1
gene 1 2 10 -3.56161 0 44 -3.56161 1
gene 1 3 10 1.72827 0 72 1.72827 1
gene 1 5 5 1.05494 1 83 1.05494 1
gene 1 10 10 -0.279176 1 164 -0.279176 1
gene 1 3 30 -0.807164 0 242 -0.807164 1
gene 1 30 5 -1.02581 0 243 -1.02581 1
gene 1 3 32 1.79015 0 253 1.79015 1
gene 1 32 30 2.27652 0 254 2.27652 1
gene 1 10 32 0.0366721 0 258 0.0366721 1
gene 1 2 32 -1.36058 0 268 -1.36058 1
gene 1 1 32 0.764675 0 310 0.764675 1
gene 1 10 30 -1.04497 0 332 -1.04497 1
gene 1 1 30 -0.5522 0 354 0 1
genomeend 43

/* Species #187 : (Size 1) (AF 0) (Age 2)  */


/* Organism #44 Fitness: 1643 Error: 0 */
genomestart 44
trait 1 0.0257954 0 0 0.582837 0.546562 0 0.37471 0.449451 
node 1 1 1 3
node 2 1 1 1
node 3 1 1 1
node 4 1 1 1
node 5 1 0 2
node 10 1 0 0
node 30 1 0 0
node 32 1 0 0
gene 1 1 5 0.497601 0 1 0.497601 1
gene 1 2 5 -8 0 2 -8 1
gene 1 3 5 0.719737 0 3 0.719737 0
gene 1 4 5 -0.734977 0 4 -0.734977 0
gene 1 4 10 1.13919 0 29 1.13919 1
gene 1 10 5 -0.618864 0 30 -0.618864 1
gene 1 1 10 -5.31424 0 33 -5.31424 1
gene 1 2 10 -0.685364 0 44 -0.685364 1
gene 1 3 10 -1.35984 0 72 -1.35984 1
gene 1 5 5 0.640715 1 83 0.640715 1
gene 1 10 10 -0.124275 1 164 -0.124275 1
gene 1 3 30 1.01239 0 242 1.01239 1
gene 1 30 5 -0.434245 0 243 -0.434245 1
gene 1 3 32 1.3612 0 253 1.3612 1
gene 1 32 30 -0.692134 0 254 -0.692134 1
gene 1 10 32 -1.22802 0 258 -1.22802 1
gene 1 2 32 -0.426649 0 268 -0.426649 1
gene 1 1 32 0.764675 0 310 0.764675 1
gene 1 10 30 0.94625 0 332 0.94625 1
gene 1 1 30 0.984685 0 338 0.984685 1
genomeend 44

/* Species #189 : (Size 1) (AF 0) (Age 2)  */


/* Organism #45 Fitness: 20 Error: 0 */
genomestart 45
trait 1 0 0 0 0.29406 0.864939 0 0 0.449451 
node 1 1 1 3
node 2 1 1 1
node 3 1 1 1
node 4 1 1 1
node 5 1 0 2
node 10 1 0 0
node 30 1 0 0
node 32 1 0 0
gene 1 1 5 -0.635147 0 1 -0.635147 1
gene 1 2 5 -5.50353 0 2 -5.50353 1
gene 1 3 5 -1.0745 0 3 -1.0745 0
gene 1 4 5 -1.64715 0 4 -1.64715 0
gene 1 4 10 2.21825 0 29 2.21825 1
gene 1 10 5 -0.73796 0 30 -0.73796 1
gene 1 1 10 -6.02452 0 33 -6.02452 1
gene 1 2 10 0.978706 0 44 0.978706 1
gene 1 3 10 -0.223919 0 72 -0.223919 0
gene 1 5 5 -0.235278 1 83 -0.235278 1
gene 1 10 10 1.99858 1 164 1.99858 1
gene 1 3 30 -1.68873 0 242 -1.68873 1
gene 1 30 5 -1.75951 0 243 -1.75951 1
gene 1 3 32 1.04939 0 253 1.04939 0
gene 1 32 30 -0.465531 0 254 -0.465531 1
gene 1 10 32 -1.56339 0 258 -1.56339 1
gene 1 2 32 0.866705 0 268 0.866705 1
gene 1 32 32 -1.44895 1 301 -1.44895 1
gene 1 4 32 -1.80354 0 315 -1.80354 1
gene 1 10 30 -1.65624 0 332 -1.65624 1
genomeend 45

/* Species #190 : (Size 1) (AF 0) (Age 2)  */


/* Organism #46 Fitness: 15 Error: 0 */
genomestart 46
trait 1 0.0257954 0 0 0.059826 0 0 0 0.449451 
node 1 1 1 3
node 2 1 1 1
node 3 1 1 1
node 4 1 1 1
node 5 1 0 2
node 10 1 0 0
node 30 1 0 0
node 32 1 0 0
gene 1 1 5 1.01951 0 1 1.01951 1
gene 1 2 5 1.55574 0 2 1.55574 1
gene 1 3 5 0.798476 0 3 0.798476 0
gene 1 4 5 -1.56115 0 4 -1.56115 0
gene 1 4 10 1.27027 0 29 1.27027 1
gene 1 10 5 -0.836439 0 30 -0.836439 1
gene 1 1 10 -4.70956 0 33 -4.70956 1
gene 1 2 10 -1.04501 0 44 -1.04501 1
gene 1 3 10 -0.718853 0 72 -0.718853 0
gene 1 5 5 -0.392153 1 83 -0.392153 1
gene 1 10 10 0.580157 1 164 0.580157 1
gene 1 3 30 -0.255301 0 242 -0.255301 1
gene 1 30 5 -0.331663 0 243 -0.331663 1
gene 1 3 32 0.330645 0 253 0.330645 1
gene 1 32 30 4.65926 0 254 4.65926 1
gene 1 10 32 -1.4864 0 258 -1.4864 1
gene 1 2 32 1.89475 0 268 1.89475 1
gene 1 32 32 -0.948676 1 301 -0.948676 1
gene 1 4 32 -0.326006 0 315 -0.326006 1
gene 1 10 30 1.42095 0 332 1.42095 1
gene 1 1 32 0.439236 0 358 0 1
genomeend 46

/* Species #191 : (Size 1) (AF 0) (Age 1)  */


/* Organism #47 Fitness: 21 Error: 0 */
genomestart 47
trait 1 0.0257954 0 0 0.582837 0.380475 0 0 0.449451 
node 1 1 1 3
node 2 1 1 1
node 3 1 1 1
node 4 1 1 1
node 5 1 0 2
node 10 1 0 0
node 30 1 0 0
node 32 1 0 0
gene 1 1 5 -1.20838 0 1 -1.20838 1
gene 1 2 5 -7.56076 0 2 -7.56076 1
gene 1 3 5 -1.40596 0 3 -1.40596 0
gene 1 4 5 -2.13405 0 4 -2.13405 0
gene 1 4 10 1.50946 0 29 1.50946 1
gene 1 10 5 -0.802017 0 30 -0.802017 1
gene 1 1 10 -1.30594 0 33 -1.30594 1
gene 1 2 10 -2.84714 0 44 -2.84714 1
gene 1 3 10 -0.56473 0 72 -0.56473 1
gene 1 5 5 -0.993128 1 83 -0.993128 1
gene 1 10 10 -2.64198 1 164 -2.64198 1
gene 1 3 30 -3.10409 0 242 -3.10409 1
gene 1 30 5 -0.434245 0 243 -0.434245 1
gene 1 3 32 2.60198 0 253 2.60198 1
gene 1 32 30 -0.289187 0 254 -0.289187 1
gene 1 10 32 0.675167 0 258 0.675167 1
gene 1 2 32 1.43469 0 268 1.43469 1
gene 1 1 32 0.150783 0 310 0.150783 1
gene 1 2 30 -1.65189 0 336 -1.65189 1
genomeend 47

/* Species #192 : (Size 1) (AF 0) (Age 1)  */


/* Organism #48 Fitness: 23 Error: 0 */
genomestart 48
trait 1 0.0257954 0 0 0.530536 0.342428 0 0 0.449451 
node 1 1 1 3
node 2 1 1 1
node 3 1 1 1
node 4 1 1 1
node 5 1 0 2
node 10 1 0 0
node 30 1 0 0
node 32 1 0 0
gene 1 1 5 -0.408788 0 1 -0.408788 1
gene 1 2 5 -7.39445 0 2 -7.39445 1
gene 1 3 5 -1.88871 0 3 -1.88871 0
gene 1 4 5 -0.31806 0 4 -0.31806 0
gene 1 4 10 4.12722 0 29 4.12722 1
gene 1 10 5 -2.62402 0 30 -2.62402 1
gene 1 1 10 -3.70026 0 33 -3.70026 1
gene 1 2 10 -3.81052 0 44 -3.81052 1
gene 1 3 10 -2.18099 0 72 -2.18099 1
gene 1 5 5 -0.215443 1 83 -0.215443 1
gene 1 10 10 0.317137 1 164 0.317137 1
gene 1 3 30 0.35026 0 242 0.35026 1
gene 1 30 5 -0.110919 0 243 -0.110919 1
gene 1 3 32 2.7918 0 253 2.7918 1
gene 1 32 30 -0.0479952 0 254 -0.0479952 1
gene 1 10 32 -2.6896 0 258 -2.6896 1
gene 1 2 32 -0.290821 0 268 -0.290821 1
gene 1 1 32 2.04816 0 310 2.04816 1
gene 1 2 30 -2.28459 0 336 -2.28459 1
genomeend 48

/* Species #193 : (Size 1) (AF 0) (Age 1)  */


/* Organism #49 Fitness: 42 Error: 0 */
genomestart 49
trait 1 0.0257954 0 0 0.530536 0.342428 0 0 0.449451 
node 1 1 1 3
node 2 1 1 1
node 3 1 1 1
node 4 1 1 1
node 5 1 0 2
node 10 1 0 0
node 30 1 0 0
node 32 1 0 0
gene 1 1 5 0.587059 0 1 0.587059 1
gene 1 2 5 -6.84303 0 2 -6.84303 1
gene 1 3 5 0.169412 0 3 0.169412 0
gene 1 4 5 -1.38562 0 4 -1.38562 0
gene 1 4 10 1.26955 0 29 1.26955 1
gene 1 10 5 1.67246 0 30 1.67246 1
gene 1 1 10 -3.57893 0 33 -3.57893 1
gene 1 2 10 -0.83713 0 44 -0.83713 1
gene 1 3 10 -2.02999 0 72 -2.02999 1
gene 1 5 5 0.607953 1 83 0.607953 1
gene 1 10 10 -2.17419 1 164 -2.17419 1
gene 1 3 30 0.831115 0 242 0.831115 1
gene 1 30 5 0.323102 0 243 0.323102 1
gene 1 3 32 -1.50674 0 253 -1.50674 1
gene 1 32 30 0.167353 0 254 0.167353 1
gene 1 10 32 -2.01528 0 258 -2.01528 1
gene 1 2 32 -0.270097 0 268 -0.270097 1
gene 1 1 32 0.0568297 0 310 0.0568297 1
gene 1 10 30 -0.177583 0 332 -0.177583 1
gene 1 1 30 -1.79873 0 338 -1.79873 1
genomeend 49
