
/* Species #12 : (Size 1) (AF 0) (Age 16)  */


/* Organism #0 Fitness: 18 Error: 0 */
genomestart 0
trait 1 0.839538 0 0.81503 0 0 0.905546 0 0.619245 
node 1 1 1 3
node 2 1 1 1
node 3 1 1 1
node 4 1 1 1
node 5 1 0 2
gene 1 1 5 -0.544871 0 1 -0.544871 1
gene 1 2 5 3.44281 0 2 3.44281 1
gene 1 3 5 1.71832 0 3 1.71832 1
gene 1 4 5 1.07095 0 4 1.07095 1
gene 1 5 5 3.08772 1 11 3.08772 1
genomeend 0

/* Species #13 : (Size 3) (AF 0) (Age 15)  */


/* Organism #1 Fitness: 15 Error: 0 */
genomestart 1
trait 1 0.121035 0 0 0.846412 0.0532131 0 0 0.377987 
node 1 1 1 3
node 2 1 1 1
node 3 1 1 1
node 4 1 1 1
node 5 1 0 2
gene 1 1 5 0.0482033 0 1 0.0482033 1
gene 1 2 5 -2.73591 0 2 -2.73591 1
gene 1 3 5 -3.95783 0 3 -3.95783 1
gene 1 4 5 -0.393239 0 4 -0.393239 1
genomeend 1

/* Organism #2 Fitness: 15 Error: 0 */
genomestart 2
trait 1 0.121035 0 0 0.846412 0.0532131 0 0 0.377987 
node 1 1 1 3
node 2 1 1 1
node 3 1 1 1
node 4 1 1 1
node 5 1 0 2
gene 1 1 5 0.0482033 0 1 0.0482033 1
gene 1 2 5 -2.73591 0 2 -2.73591 1
gene 1 3 5 -3.95783 0 3 -3.95783 1
gene 1 4 5 -0.393239 0 4 -0.393239 1
genomeend 2

/* Organism #3 Fitness: 22 Error: 0 */
genomestart 3
trait 1 0.839538 0 0.407515 0 0.086351 0.905546 0 0.619245 
node 1 1 1 3
node 2 1 1 1
node 3 1 1 1
node 4 1 1 1
node 5 1 0 2
gene 1 1 5 0.126893 0 1 0.126893 1
gene 1 2 5 -2.43614 0 2 -2.43614 1
gene 1 3 5 -2.33653 0 3 -2.33653 1
gene 1 4 5 -0.123242 0 4 -0.123242 1
gene 1 5 5 3.87554 1 11 3.87554 1
genomeend 3

/* Species #14 : (Size 1) (AF 0) (Age 15)  */


/* Organism #4 Fitness: 21 Error: 0 */
genomestart 4
trait 1 0 0.0488888 0 0.114936 0 0 0 0 
node 1 1 1 3
node 2 1 1 1
node 3 1 1 1
node 4 1 1 1
node 5 1 0 2
node 6 1 0 0
gene 1 1 5 -1.92451 0 1 -1.92451 1
gene 1 2 5 2.27068 0 2 2.27068 0
gene 1 3 5 0.976952 0 3 0.976952 1
gene 1 4 5 -5.74701 0 4 -5.74701 1
gene 1 2 6 1.03838 0 7 1.03838 1
gene 1 6 5 -2.10323 0 8 -2.10323 1
gene 1 5 5 0.727043 1 43 0.727043 1
gene 1 1 6 0.3744 0 63 0.3744 1
gene 1 6 6 -0.89291 1 65 -0.89291 1
gene 1 3 6 -0.14079 0 84 -0.14079 1
genomeend 4

/* Species #16 : (Size 1) (AF 0) (Age 14)  */


/* Organism #5 Fitness: 17 Error: 0 */
genomestart 5
trait 1 0.751043 0.11884 0.61058 0.998379 0 0 0 0.167671 
node 1 1 1 3
node 2 1 1 1
node 3 1 1 1
node 4 1 1 1
node 5 1 0 2
gene 1 1 5 4.2182 0 1 4.2182 1
gene 1 2 5 6.21982 0 2 6.21982 1
gene 1 3 5 -0.563617 0 3 -0.563617 1
gene 1 4 5 0.819029 0 4 0.819029 1
gene 1 5 5 -5.52321 1 27 -5.52321 1
genomeend 5

/* Species #19 : (Size 2) (AF 0) (Age 14)  */


/* Organism #6 Fitness: 20 Error: 0 */
genomestart 6
trait 1 0 0 0 0 0 0 0 0 
node 1 1 1 3
node 2 1 1 1
node 3 1 1 1
node 4 1 1 1
node 5 1 0 2
node 9 1 0 0
gene 1 1 5 -2.28684 0 1 -2.28684 1
gene 1 2 5 2.04936 0 2 2.04936 1
gene 1 3 5 -1.19689 0 3 -1.19689 1
gene 1 4 5 -2.38788 0 4 -2.38788 1
gene 1 5 5 0.623667 1 22 0.623667 0
gene 1 5 9 -1.38109 1 24 -1.38109 1
gene 1 9 5 1.90074 0 25 1.90074 1
gene 1 9 9 -2.18356 1 28 -2.18356 0
genomeend 6

/* Organism #7 Fitness: 14 Error: 0 */
genomestart 7
trait 1 0 0 0 0 0 0 0 0 
node 1 1 1 3
node 2 1 1 1
node 3 1 1 1
node 4 1 1 1
node 5 1 0 2
node 9 1 0 0
gene 1 1 5 -2.66878 0 1 -2.66878 1
gene 1 2 5 2.58723 0 2 2.58723 1
gene 1 3 5 0.923422 0 3 0.923422 1
gene 1 4 5 -5.07869 0 4 -5.07869 1
gene 1 5 5 -1.34518 1 22 -1.34518 0
gene 1 5 9 -0.830162 1 24 -0.830162 1
gene 1 9 5 0.205922 0 25 0.205922 1
gene 1 9 9 -4.50148 1 28 -4.50148 0
genomeend 7

/* Species #21 : (Size 1) (AF 0) (Age 14)  */


/* Organism #8 Fitness: 19 Error: 0 */
genomestart 8
trait 1 0.0871564 0.81463 0 0 0 0 0 0 
node 1 1 1 3
node 2 1 1 1
node 3 1 1 1
node 4 1 1 1
node 5 1 0 2
gene 1 1 5 1.97737 0 1 1.97737 1
gene 1 2 5 5.54071 0 2 5.54071 1
gene 1 3 5 -0.784295 0 3 -0.784295 1
gene 1 4 5 -7.36687 0 4 -7.36687 1
gene 1 5 5 1.77241 1 11 1.77241 1
genomeend 8

/* Species #23 : (Size 1) (AF 0) (Age 13)  */


/* Organism #9 Fitness: 23 Error: 0 */
genomestart 9
trait 1 0.0744095 0 0.0866965 0.029913 0.114214 0 0.133071 0.0749209 
node 1 1 1 3
node 2 1 1 1
node 3 1 1 1
node 4 1 1 1
node 5 1 0 2
node 10 1 0 0
gene 1 1 5 0.497014 0 1 0.497014 1
gene 1 2 5 1.49972 0 2 1.49972 1
gene 1 3 5 -0.732241 0 3 -0.732241 1
gene 1 4 5 -3.93951 0 4 -3.93951 0
gene 1 4 10 0.0309847 0 29 0.0309847 1
gene 1 10 5 -2.15588 0 30 -2.15588 1
gene 1 1 10 1.76009 0 33 1.76009 1
gene 1 2 10 -2.49209 0 44 -2.49209 1
gene 1 10 10 -1.25158 1 56 -1.25158 1
gene 1 3 10 0.295745 0 72 0.295745 1
genomeend 9

/* Species #24 : (Size 2) (AF 0) (Age 13)  */


/* Organism #10 Fitness: 13 Error: 0 */
genomestart 10
trait 1 0.0615884 0 0 0.0386509 0.0532131 0 0 0.0209589 
node 1 1 1 3
node 2 1 1 1
node 3 1 1 1
node 4 1 1 1
node 5 1 0 2
gene 1 1 5 -0.198897 0 1 -0.198897 1
gene 1 2 5 4.24146 0 2 4.24146 1
gene 1 3 5 1.13962 0 3 1.13962 1
gene 1 4 5 3.06373 0 4 3.06373 1
genomeend 10

/* Organism #11 Fitness: 5 Error: 0 */
genomestart 11
trait 1 0 0 0 0.268167 0 0.380266 0 0.167671 
node 1 1 1 3
node 2 1 1 1
node 3 1 1 1
node 4 1 1 1
node 5 1 0 2
gene 1 1 5 1.33288 0 1 1.33288 1
gene 1 2 5 3.92416 0 2 3.92416 1
gene 1 3 5 0.421303 0 3 0.421303 1
gene 1 4 5 0.991878 0 4 0.991878 1
gene 1 5 5 1.49764 1 40 1.49764 1
genomeend 11

/* Species #28 : (Size 1) (AF 0) (Age 13)  */


/* Organism #12 Fitness: 14 Error: 0 */
genomestart 12
trait 1 0.839538 0 0.81503 0 0 0.905546 0 0.619245 
node 1 1 1 3
node 2 1 1 1
node 3 1 1 1
node 4 1 1 1
node 5 1 0 2
node 13 1 0 0
gene 1 1 5 -0.81584 0 1 -0.81584 1
gene 1 2 5 -7.01879 0 2 -7.01879 1
gene 1 3 5 5.49186 0 3 5.49186 1
gene 1 4 5 0.194137 0 4 0.194137 0
gene 1 5 5 4.21645 1 11 4.21645 1
gene 1 4 13 1.68833 0 57 1.68833 1
gene 1 13 5 -1.0545 0 58 -1.0545 1
gene 1 2 13 -2.15649 0 78 -2.15649 1
gene 1 1 13 -1.0427 0 85 -1.0427 1
genomeend 12

/* Species #32 : (Size 2) (AF 0) (Age 11)  */


/* Organism #13 Fitness: 18 Error: 0 */
genomestart 13
trait 1 0 0 0.157084 0.00149193 0 0.831499 0.623677 0 
node 1 1 1 3
node 2 1 1 1
node 3 1 1 1
node 4 1 1 1
node 5 1 0 2
node 6 1 0 0
gene 1 1 5 0.491585 0 1 0.491585 1
gene 1 2 5 1.39649 0 2 1.39649 1
gene 1 3 5 -1.10878 0 3 -1.10878 1
gene 1 4 5 -1.46049 0 4 -1.46049 1
gene 1 2 6 0.612324 0 7 0.612324 1
gene 1 6 5 1.74184 0 8 1.74184 1
gene 1 6 6 -0.475268 1 48 -0.475268 1
gene 1 4 6 -2.43379 0 54 -2.43379 1
gene 1 5 5 -0.818472 1 66 -0.818472 1
gene 1 1 6 -0.883918 0 79 -0.883918 1
genomeend 13

/* Organism #14 Fitness: 19 Error: 0 */
genomestart 14
trait 1 0 0 0.157084 0.00149193 0 0.831499 0.623677 0 
node 1 1 1 3
node 2 1 1 1
node 3 1 1 1
node 4 1 1 1
node 5 1 0 2
node 6 1 0 0
gene 1 1 5 1.14081 0 1 1.14081 1
gene 1 2 5 1.39842 0 2 1.39842 1
gene 1 3 5 1.2036 0 3 1.2036 1
gene 1 4 5 -0.850723 0 4 -0.850723 1
gene 1 2 6 -0.276719 0 7 -0.276719 1
gene 1 6 5 0.616084 0 8 0.616084 1
gene 1 6 6 -0.475268 1 48 -0.475268 1
gene 1 4 6 -0.837962 0 54 -0.837962 1
gene 1 5 5 2.77049 1 66 2.77049 1
gene 1 1 6 -1.38398 0 79 -1.38398 1
genomeend 14

/* Species #37 : (Size 1) (AF 0) (Age 10)  */


/* Organism #15 Fitness: 18 Error: 0 */
genomestart 15
trait 1 0 0 0 0 0 0 0 0 
node 1 1 1 3
node 2 1 1 1
node 3 1 1 1
node 4 1 1 1
node 5 1 0 2
node 6 1 0 0
node 14 1 0 0
gene 1 1 5 -1.72819 0 1 -1.72819 1
gene 1 2 5 3.63594 0 2 3.63594 1
gene 1 3 5 -5.33201 0 3 -5.33201 0
gene 1 4 5 -1.42485 0 4 -1.42485 1
gene 1 2 6 -1.08761 0 7 -1.08761 1
gene 1 6 5 -2.75193 0 8 -2.75193 1
gene 1 3 14 2.73626 0 74 2.73626 1
gene 1 14 5 -3.11468 0 75 -3.11468 1
genomeend 15

/* Species #38 : (Size 1) (AF 0) (Age 10)  */


/* Organism #16 Fitness: 14 Error: 0 */
genomestart 16
trait 1 0.317603 0 0.786311 0.059826 0 0.568921 0.266142 0.149842 
node 1 1 1 3
node 2 1 1 1
node 3 1 1 1
node 4 1 1 1
node 5 1 0 2
node 10 1 0 0
gene 1 1 5 1.37741 0 1 1.37741 1
gene 1 2 5 -6.34212 0 2 -6.34212 0
gene 1 3 5 1.51289 0 3 1.51289 1
gene 1 4 5 -4.43772 0 4 -4.43772 0
gene 1 4 10 -0.276707 0 29 -0.276707 1
gene 1 10 5 -1.52792 0 30 -1.52792 1
gene 1 1 10 -1.44615 0 33 -1.44615 1
gene 1 2 10 1.59088 0 49 1.59088 1
gene 1 3 10 -0.00582667 0 80 -0.00582667 1
gene 1 5 10 -0.426059 1 92 -0.426059 1
genomeend 16

/* Species #39 : (Size 2) (AF 0) (Age 10)  */


/* Organism #17 Fitness: 12 Error: 0 */
genomestart 17
trait 1 0 0.970878 0 0 0 0 0 0.990833 
node 1 1 1 3
node 2 1 1 1
node 3 1 1 1
node 4 1 1 1
node 5 1 0 2
node 6 1 0 0
gene 1 1 5 3.34126 0 1 3.34126 1
gene 1 2 5 -1.01633 0 2 -1.01633 0
gene 1 3 5 -0.773522 0 3 -0.773522 1
gene 1 4 5 3.0042 0 4 3.0042 1
gene 1 2 6 7.24474 0 7 7.24474 1
gene 1 6 5 -1.2942 0 8 -1.2942 1
gene 1 5 5 -0.102884 1 61 -0.102884 1
gene 1 6 6 0.407719 1 67 0.407719 1
gene 1 5 6 0.359431 1 81 0.359431 1
gene 1 1 6 0.362428 0 86 0.362428 1
genomeend 17

/* Organism #18 Fitness: 12 Error: 0 */
genomestart 18
trait 1 0 0 0 0 0 0 0 0 
node 1 1 1 3
node 2 1 1 1
node 3 1 1 1
node 4 1 1 1
node 5 1 0 2
node 6 1 0 0
gene 1 1 5 3.34126 0 1 3.34126 1
gene 1 2 5 -1.01633 0 2 -1.01633 0
gene 1 3 5 -0.773522 0 3 -0.773522 1
gene 1 4 5 3.0042 0 4 3.0042 1
gene 1 2 6 7.24474 0 7 7.24474 1
gene 1 6 5 -1.2942 0 8 -1.2942 1
gene 1 5 5 -0.102884 1 61 -0.102884 1
gene 1 6 6 0.407719 1 67 0.407719 1
gene 1 5 6 0.359431 1 81 0.359431 1
gene 1 1 6 0.362428 0 86 0.362428 1
genomeend 18

/* Species #41 : (Size 2) (AF 0) (Age 9)  */


/* Organism #19 Fitness: 18 Error: 0 */
genomestart 19
trait 1 0.297638 0 0 0.387228 0.228428 0.364253 0 0.246755 
node 1 1 1 3
node 2 1 1 1
node 3 1 1 1
node 4 1 1 1
node 5 1 0 2
gene 1 1 5 -2.61653 0 1 -2.61653 1
gene 1 2 5 -0.655456 0 2 -0.655456 1
gene 1 3 5 1.63451 0 3 1.63451 1
gene 1 4 5 -0.132663 0 4 -0.132663 1
gene 1 5 5 -1.34649 1 68 -1.34649 1
genomeend 19

/* Organism #20 Fitness: 16 Error: 0 */
genomestart 20
trait 1 0.297638 0 0 0.387228 0.228428 0.364253 0 0.246755 
node 1 1 1 3
node 2 1 1 1
node 3 1 1 1
node 4 1 1 1
node 5 1 0 2
gene 1 1 5 -2.61653 0 1 -2.61653 1
gene 1 2 5 -0.655456 0 2 -0.655456 1
gene 1 3 5 1.63451 0 3 1.63451 1
gene 1 4 5 -0.132663 0 4 -0.132663 1
gene 1 5 5 -1.34649 1 68 -1.34649 1
genomeend 20

/* Species #42 : (Size 1) (AF 0) (Age 9)  */


/* Organism #21 Fitness: 23 Error: 0 */
genomestart 21
trait 1 0.130355 0 0.0879098 0.109333 0.22064 0 0 0.116839 
node 1 1 1 3
node 2 1 1 1
node 3 1 1 1
node 4 1 1 1
node 5 1 0 2
node 12 1 0 0
gene 1 1 5 -1.08271 0 1 -1.08271 1
gene 1 2 5 -2.6534 0 2 -2.6534 1
gene 1 3 5 1.73275 0 3 1.73275 1
gene 1 4 5 -5.04458 0 4 -5.04458 1
gene 1 3 12 1.43716 0 50 1.43716 1
gene 1 12 5 -0.190794 0 51 -0.190794 1
gene 1 2 12 -1.3419 0 55 -1.3419 1
gene 1 5 5 0.322242 1 69 0.322242 1
gene 1 1 12 0.611535 0 82 0.611535 1
genomeend 21

/* Species #45 : (Size 1) (AF 0) (Age 8)  */


/* Organism #22 Fitness: 14 Error: 0 */
genomestart 22
trait 1 0.0615884 0 0 0.0386509 0.0532131 0 0 0.0209589 
node 1 1 1 3
node 2 1 1 1
node 3 1 1 1
node 4 1 1 1
node 5 1 0 2
gene 1 1 5 5.34147 0 1 5.34147 1
gene 1 2 5 -0.445113 0 2 -0.445113 1
gene 1 3 5 -1.59571 0 3 -1.59571 1
gene 1 4 5 -0.912847 0 4 -0.912847 1
genomeend 22

/* Species #47 : (Size 1) (AF 0) (Age 8)  */


/* Organism #23 Fitness: 19 Error: 0 */
genomestart 23
trait 1 0.595276 0 0 0 0 0 0 0 
node 1 1 1 3
node 2 1 1 1
node 3 1 1 1
node 4 1 1 1
node 5 1 0 2
gene 1 1 5 -1.80678 0 1 -1.80678 1
gene 1 2 5 4.81991 0 2 4.81991 1
gene 1 3 5 2.8447 0 3 2.8447 1
gene 1 4 5 -2.69047 0 4 -2.69047 1
gene 1 5 5 -3.47453 1 11 -3.47453 1
genomeend 23

/* Species #50 : (Size 2) (AF 0) (Age 7)  */


/* Organism #24 Fitness: 21 Error: 0 */
genomestart 24
trait 1 0 0 0 0 0 0 0 0 
node 1 1 1 3
node 2 1 1 1
node 3 1 1 1
node 4 1 1 1
node 5 1 0 2
gene 1 1 5 -0.638558 0 1 -0.638558 1
gene 1 2 5 -0.0415741 0 2 -0.0415741 1
gene 1 3 5 1.13948 0 3 1.13948 1
gene 1 4 5 -5.79345 0 4 -5.79345 1
genomeend 24

/* Organism #25 Fitness: 16 Error: 0 */
genomestart 25
trait 1 0 0 0 0 0 0 0 0 
node 1 1 1 3
node 2 1 1 1
node 3 1 1 1
node 4 1 1 1
node 5 1 0 2
gene 1 1 5 -0.638558 0 1 -0.638558 1
gene 1 2 5 -0.0415741 0 2 -0.0415741 1
gene 1 3 5 1.13948 0 3 1.13948 1
gene 1 4 5 -5.79345 0 4 -5.79345 1
genomeend 25

/* Species #51 : (Size 1) (AF 0) (Age 7)  */


/* Organism #26 Fitness: 16 Error: 0 */
genomestart 26
trait 1 0.130355 0 0.0879098 0.109333 0.22064 0 0 0.116839 
node 1 1 1 3
node 2 1 1 1
node 3 1 1 1
node 4 1 1 1
node 5 1 0 2
node 12 1 0 0
gene 1 1 5 0.724704 0 1 0.724704 1
gene 1 2 5 -2.38719 0 2 -2.38719 1
gene 1 3 5 -0.000975628 0 3 -0.000975628 0
gene 1 4 5 -2.81594 0 4 -2.81594 1
gene 1 3 12 3.16315 0 50 3.16315 1
gene 1 12 5 2.11462 0 51 2.11462 1
gene 1 2 12 -1.90521 0 64 -1.90521 1
gene 1 5 5 -0.188239 1 70 -0.188239 1
genomeend 26

/* Species #52 : (Size 4) (AF 0) (Age 7)  */


/* Organism #27 Fitness: 11 Error: 0 */
genomestart 27
trait 1 0.0615884 0 0 0.0386509 0.0532131 0 0 0.0209589 
node 1 1 1 3
node 2 1 1 1
node 3 1 1 1
node 4 1 1 1
node 5 1 0 2
gene 1 1 5 -0.756126 0 1 -0.756126 1
gene 1 2 5 0.776939 0 2 0.776939 1
gene 1 3 5 1.22767 0 3 1.22767 1
gene 1 4 5 0.242225 0 4 0.242225 1
genomeend 27

/* Organism #28 Fitness: 19 Error: 0 */
genomestart 28
trait 1 0.450563 0 0.407515 0.0193255 0.0266066 0.452773 0 0.320102 
node 1 1 1 3
node 2 1 1 1
node 3 1 1 1
node 4 1 1 1
node 5 1 0 2
gene 1 1 5 -0.435874 0 1 -0.435874 1
gene 1 2 5 0.904169 0 2 0.904169 1
gene 1 3 5 0.209913 0 3 0.209913 1
gene 1 4 5 -0.00204021 0 4 -0.00204021 1
gene 1 5 5 2.18212 1 11 2.18212 1
genomeend 28

/* Organism #29 Fitness: 24 Error: 0 */
genomestart 29
trait 1 0.839538 0 0.81503 0 0 0.905546 0 0.619245 
node 1 1 1 3
node 2 1 1 1
node 3 1 1 1
node 4 1 1 1
node 5 1 0 2
gene 1 1 5 2.58124 0 1 2.58124 1
gene 1 2 5 0.571737 0 2 0.571737 1
gene 1 3 5 -2.14851 0 3 -2.14851 1
gene 1 4 5 -1.25304 0 4 -1.25304 1
gene 1 5 5 2.96311 1 11 2.96311 1
genomeend 29

/* Organism #30 Fitness: 19 Error: 0 */
genomestart 30
trait 1 0 0 0 0 0.739013 0.727918 0 0 
node 1 1 1 3
node 2 1 1 1
node 3 1 1 1
node 4 1 1 1
node 5 1 0 2
gene 1 1 5 -0.813594 0 1 -0.813594 1
gene 1 2 5 -0.0350999 0 2 -0.0350999 1
gene 1 3 5 0.267524 0 3 0.267524 1
gene 1 4 5 -0.363569 0 4 -0.363569 1
genomeend 30

/* Species #53 : (Size 1) (AF 0) (Age 6)  */


/* Organism #31 Fitness: 15 Error: 0 */
genomestart 31
trait 1 0 0 0 0 0 0 0 0 
node 1 1 1 3
node 2 1 1 1
node 3 1 1 1
node 4 1 1 1
node 5 1 0 2
node 6 1 0 0
gene 1 1 5 -2.53175 0 1 -2.53175 1
gene 1 2 5 -2.72104 0 2 -2.72104 1
gene 1 3 5 2.48147 0 3 2.48147 1
gene 1 4 5 -2.55371 0 4 -2.55371 1
gene 1 2 6 2.21878 0 7 2.21878 1
gene 1 6 5 -1.78849 0 8 -1.78849 1
gene 1 5 5 2.13682 1 53 2.13682 1
gene 1 3 6 1.70108 0 71 1.70108 1
gene 1 4 6 -0.509091 0 88 -0.509091 1
genomeend 31

/* Species #54 : (Size 4) (AF 0) (Age 6)  */


/* Organism #32 Fitness: 21 Error: 0 */
genomestart 32
trait 1 0.148819 0 0.173393 0.059826 0.228428 0 0.266142 0.149842 
node 1 1 1 3
node 2 1 1 1
node 3 1 1 1
node 4 1 1 1
node 5 1 0 2
node 10 1 0 0
gene 1 1 5 -2.54516 0 1 -2.54516 1
gene 1 2 5 -1.22817 0 2 -1.22817 1
gene 1 3 5 3.38994 0 3 3.38994 1
gene 1 4 5 -0.478952 0 4 -0.478952 0
gene 1 4 10 -0.385983 0 29 -0.385983 1
gene 1 10 5 -2.52976 0 30 -2.52976 1
gene 1 1 10 -1.00404 0 33 -1.00404 1
gene 1 2 10 1.281 0 44 1.281 1
gene 1 3 10 0.295745 0 72 0 0
genomeend 32

/* Organism #33 Fitness: 26 Error: 0 */
genomestart 33
trait 1 0.148819 0 0.173393 0.059826 0.228428 0 0.266142 0.149842 
node 1 1 1 3
node 2 1 1 1
node 3 1 1 1
node 4 1 1 1
node 5 1 0 2
node 10 1 0 0
gene 1 1 5 -2.54516 0 1 -2.54516 1
gene 1 2 5 -1.22817 0 2 -1.22817 1
gene 1 3 5 3.38994 0 3 3.38994 1
gene 1 4 5 -0.478952 0 4 -0.478952 0
gene 1 4 10 -0.385983 0 29 -0.385983 1
gene 1 10 5 -2.52976 0 30 -2.52976 1
gene 1 1 10 -1.00404 0 33 -1.00404 1
gene 1 2 10 1.281 0 44 1.281 1
gene 1 3 10 0.295745 0 72 0 0
genomeend 33

/* Organism #34 Fitness: 35 Error: 0 */
genomestart 34
trait 1 0.148819 0 0.173393 0.059826 0.228428 0 0.266142 0.149842 
node 1 1 1 3
node 2 1 1 1
node 3 1 1 1
node 4 1 1 1
node 5 1 0 2
node 10 1 0 0
gene 1 1 5 -2.54516 0 1 -2.54516 1
gene 1 2 5 -1.22817 0 2 -1.22817 1
gene 1 3 5 3.38994 0 3 3.38994 1
gene 1 4 5 -0.478952 0 4 -0.478952 0
gene 1 4 10 -0.385983 0 29 -0.385983 1
gene 1 10 5 -2.52976 0 30 -2.52976 1
gene 1 1 10 -1.00404 0 33 -1.00404 1
gene 1 2 10 1.281 0 44 1.281 1
gene 1 3 10 0.295745 0 72 0 0
gene 1 10 10 -0.775014 1 93 -0.775014 1
genomeend 34

/* Organism #35 Fitness: 28 Error: 0 */
genomestart 35
trait 1 0.148819 0 0.173393 0.059826 0.228428 0 0.266142 0.149842 
node 1 1 1 3
node 2 1 1 1
node 3 1 1 1
node 4 1 1 1
node 5 1 0 2
node 10 1 0 0
gene 1 1 5 -2.42238 0 1 -2.42238 1
gene 1 2 5 -0.935434 0 2 -0.935434 1
gene 1 3 5 4.54197 0 3 4.54197 1
gene 1 4 5 1.12011 0 4 1.12011 0
gene 1 4 10 -1.37279 0 29 -1.37279 1
gene 1 10 5 -2.4731 0 30 -2.4731 1
gene 1 1 10 -1.00404 0 33 -1.00404 1
gene 1 2 10 -0.386444 0 44 -0.386444 1
gene 1 3 10 0.295745 0 72 0.295745 1
genomeend 35

/* Species #57 : (Size 2) (AF 0) (Age 5)  */


/* Organism #36 Fitness: 20 Error: 0 */
genomestart 36
trait 1 0.595276 0 0.338782 0 0 0 0 0 
node 1 1 1 3
node 2 1 1 1
node 3 1 1 1
node 4 1 1 1
node 5 1 0 2
node 11 1 0 0
gene 1 1 5 5.44004 0 1 5.44004 1
gene 1 2 5 -1.35075 0 2 -1.35075 1
gene 1 3 5 -0.124703 0 3 -0.124703 1
gene 1 4 5 -1.87083 0 4 -1.87083 1
gene 1 5 5 -0.526781 1 11 -0.526781 0
gene 1 5 11 2.25391 1 46 2.25391 1
gene 1 11 5 -2.63569 0 47 -2.63569 1
gene 1 1 11 0.60995 0 52 0.60995 1
gene 1 11 11 0.155557 1 89 0.155557 1
genomeend 36

/* Organism #37 Fitness: 19 Error: 0 */
genomestart 37
trait 1 0.595276 0 0.338782 0 0 0 0 0 
node 1 1 1 3
node 2 1 1 1
node 3 1 1 1
node 4 1 1 1
node 5 1 0 2
node 11 1 0 0
gene 1 1 5 5.44004 0 1 5.44004 1
gene 1 2 5 -1.35075 0 2 -1.35075 1
gene 1 3 5 -0.124703 0 3 -0.124703 1
gene 1 4 5 -1.87083 0 4 -1.87083 1
gene 1 5 5 -0.526781 1 11 -0.526781 0
gene 1 5 11 2.25391 1 46 2.25391 1
gene 1 11 5 -2.63569 0 47 -2.63569 1
gene 1 1 11 0.60995 0 52 0.60995 1
gene 1 11 11 0.155557 1 89 0.155557 1
gene 1 4 11 -0.446159 0 94 -0.446159 1
genomeend 37

/* Species #58 : (Size 1) (AF 0) (Age 5)  */


/* Organism #38 Fitness: 9 Error: 0 */
genomestart 38
trait 1 0.123177 0.746774 0 0.0773019 0.106426 0.299254 0 0.0419178 
node 1 1 1 3
node 2 1 1 1
node 3 1 1 1
node 4 1 1 1
node 5 1 0 2
gene 1 1 5 0.843736 0 1 0.843736 1
gene 1 2 5 -4.31616 0 2 -4.31616 1
gene 1 3 5 1.93099 0 3 1.93099 1
gene 1 4 5 1.78344 0 4 1.78344 1
genomeend 38

/* Species #59 : (Size 2) (AF 0) (Age 5)  */


/* Organism #39 Fitness: 23 Error: 0 */
genomestart 39
trait 1 0.0744095 0 0.173393 0.059826 0.114214 0 0.316853 0.449451 
node 1 1 1 3
node 2 1 1 1
node 3 1 1 1
node 4 1 1 1
node 5 1 0 2
node 10 1 0 0
gene 1 1 5 -5.92947 0 1 -5.92947 0
gene 1 2 5 -2.59882 0 2 -2.59882 1
gene 1 3 5 -2.8999 0 3 -2.8999 1
gene 1 4 5 -1.26962 0 4 -1.26962 0
gene 1 4 10 2.37195 0 29 2.37195 1
gene 1 10 5 0.798591 0 30 0.798591 1
gene 1 1 10 -1.07832 0 33 -1.07832 1
gene 1 2 10 1.04994 0 44 1.04994 1
gene 1 3 10 -0.663684 0 72 -0.663684 1
gene 1 5 5 -1.17097 1 83 -1.17097 1
genomeend 39

/* Organism #40 Fitness: 15 Error: 0 */
genomestart 40
trait 1 0.0744095 0 0.173393 0.059826 0.114214 0 0.316853 0.449451 
node 1 1 1 3
node 2 1 1 1
node 3 1 1 1
node 4 1 1 1
node 5 1 0 2
node 10 1 0 0
gene 1 1 5 -4.20267 0 1 -4.20267 0
gene 1 2 5 -2.38727 0 2 -2.38727 1
gene 1 3 5 -1.219 0 3 -1.219 1
gene 1 4 5 0.192657 0 4 0.192657 0
gene 1 4 10 1.00621 0 29 1.00621 1
gene 1 10 5 -0.461749 0 30 -0.461749 1
gene 1 1 10 -0.564432 0 33 -0.564432 1
gene 1 2 10 0.790891 0 44 0.790891 1
gene 1 3 10 0.295745 0 72 0 1
gene 1 5 5 -0.699823 1 83 -0.699823 1
genomeend 40

/* Species #62 : (Size 1) (AF 0) (Age 4)  */


/* Organism #41 Fitness: 22 Error: 0 */
genomestart 41
trait 1 0.595276 0 0 0 0 0 0 0 
node 1 1 1 3
node 2 1 1 1
node 3 1 1 1
node 4 1 1 1
node 5 1 0 2
node 11 1 0 0
gene 1 1 5 -1.43812 0 1 -1.43812 1
gene 1 2 5 1.48733 0 2 1.48733 1
gene 1 3 5 0.544967 0 3 0.544967 1
gene 1 4 5 -0.209363 0 4 -0.209363 1
gene 1 5 5 0.270743 1 11 0.270743 0
gene 1 5 11 -3.34786 1 46 -3.34786 1
gene 1 11 5 1.36437 0 47 1.36437 1
gene 1 1 11 1.06435 0 52 1.06435 1
genomeend 41

/* Species #63 : (Size 1) (AF 0) (Age 3)  */


/* Organism #42 Fitness: 14 Error: 0 */
genomestart 42
trait 1 0 0 0 0 0 0 0 0 
node 1 1 1 3
node 2 1 1 1
node 3 1 1 1
node 4 1 1 1
node 5 1 0 2
node 6 1 0 0
node 14 1 0 0
gene 1 1 5 -2.24715 0 1 -2.24715 1
gene 1 2 5 -2.55165 0 2 -2.55165 0
gene 1 3 5 -5.56479 0 3 -5.56479 0
gene 1 4 5 1.12924 0 4 1.12924 1
gene 1 2 6 -5.64375 0 7 -5.64375 1
gene 1 6 5 -0.336601 0 8 -0.336601 1
gene 1 3 14 2.9649 0 74 2.9649 1
gene 1 14 5 -3.99163 0 75 -3.99163 1
gene 1 6 14 -0.420406 0 95 -0.420406 1
genomeend 42

/* Species #66 : (Size 1) (AF 0) (Age 3)  */


/* Organism #43 Fitness: 14 Error: 0 */
genomestart 43
trait 1 0.738038 0.721305 0.283034 0.0991302 1 0 0.665074 0.010314 
node 1 1 1 3
node 2 1 1 1
node 3 1 1 1
node 4 1 1 1
node 5 1 0 2
node 15 1 0 0
gene 1 1 5 2.61431 0 1 2.61431 1
gene 1 2 5 0.357708 0 2 0.357708 1
gene 1 3 5 0.0886336 0 3 0.0886336 1
gene 1 4 5 -1.24398 0 4 -1.24398 0
gene 1 5 5 -0.572323 1 22 -0.572323 1
gene 1 4 15 2.57034 0 90 2.57034 1
gene 1 15 5 0.86651 0 91 0.86651 1
genomeend 43

/* Species #67 : (Size 2) (AF 0) (Age 2)  */


/* Organism #44 Fitness: 22 Error: 0 */
genomestart 44
trait 1 0 0 0 0 0 0 0 0 
node 1 1 1 3
node 2 1 1 1
node 3 1 1 1
node 4 1 1 1
node 5 1 0 2
node 6 1 0 0
gene 1 1 5 -0.565658 0 1 -0.565658 1
gene 1 2 5 0.0784701 0 2 0.0784701 1
gene 1 3 5 0.147581 0 3 0.147581 1
gene 1 4 5 -2.26464 0 4 -2.26464 1
gene 1 2 6 -0.733268 0 7 -0.733268 1
gene 1 6 5 -2.114 0 8 -2.114 1
gene 1 5 5 -3.22796 1 43 -3.22796 1
gene 1 1 6 -2.08883 0 63 -2.08883 1
gene 1 6 6 0.352337 1 65 0.352337 1
genomeend 44

/* Organism #45 Fitness: 23 Error: 0 */
genomestart 45
trait 1 0 0 0 0 0 0 0 0 
node 1 1 1 3
node 2 1 1 1
node 3 1 1 1
node 4 1 1 1
node 5 1 0 2
node 6 1 0 0
gene 1 1 5 -0.183929 0 1 -0.183929 1
gene 1 2 5 3.21856 0 2 3.21856 0
gene 1 3 5 -0.0728203 0 3 -0.0728203 1
gene 1 4 5 -1.51598 0 4 -1.51598 1
gene 1 2 6 0.860878 0 7 0.860878 1
gene 1 6 5 -3.75424 0 8 -3.75424 1
gene 1 5 5 -1.48376 1 43 -1.48376 1
gene 1 1 6 -1.38323 0 63 -1.38323 1
gene 1 6 6 -0.266965 1 65 -0.266965 1
genomeend 45

/* Species #68 : (Size 1) (AF 0) (Age 2)  */


/* Organism #46 Fitness: 22 Error: 0 */
genomestart 46
trait 1 0 0 0 0 0 0 0 0 
node 1 1 1 3
node 2 1 1 1
node 3 1 1 1
node 4 1 1 1
node 5 1 0 2
node 6 1 0 0
gene 1 1 5 -0.147957 0 1 -0.147957 1
gene 1 2 5 0.484189 0 2 0.484189 0
gene 1 3 5 0.654278 0 3 0.654278 1
gene 1 4 5 -1.16173 0 4 -1.16173 1
gene 1 2 6 -1.6108 0 7 -1.6108 1
gene 1 6 5 -0.744844 0 8 -0.744844 1
genomeend 46

/* Species #69 : (Size 1) (AF 0) (Age 1)  */


/* Organism #47 Fitness: 15 Error: 0 */
genomestart 47
trait 1 0.595276 0 0 0 0 0 0 0 
node 1 1 1 3
node 2 1 1 1
node 3 1 1 1
node 4 1 1 1
node 5 1 0 2
gene 1 1 5 3.08759 0 1 3.08759 1
gene 1 2 5 3.5831 0 2 3.5831 1
gene 1 3 5 1.13128 0 3 1.13128 1
gene 1 4 5 -6.40091 0 4 -6.40091 1
gene 1 5 5 1.98182 1 11 1.98182 1
genomeend 47

/* Species #70 : (Size 1) (AF 0) (Age 1)  */


/* Organism #48 Fitness: 17 Error: 0 */
genomestart 48
trait 1 0.595276 0 0 0 0 0 0 0 
node 1 1 1 3
node 2 1 1 1
node 3 1 1 1
node 4 1 1 1
node 5 1 0 2
gene 1 1 5 0.271459 0 1 0.271459 1
gene 1 2 5 -0.142929 0 2 -0.142929 1
gene 1 3 5 -0.0761873 0 3 -0.0761873 1
gene 1 4 5 3.25036 0 4 3.25036 1
gene 1 5 5 -0.783536 1 11 -0.783536 1
genomeend 48

/* Species #71 : (Size 1) (AF 0) (Age 1)  */


/* Organism #49 Fitness: 18 Error: 0 */
genomestart 49
trait 1 0 0 0 0 0.739013 0.727918 0 0 
node 1 1 1 3
node 2 1 1 1
node 3 1 1 1
node 4 1 1 1
node 5 1 0 2
gene 1 1 5 0.248012 0 1 0.248012 1
gene 1 2 5 -1.40986 0 2 -1.40986 1
gene 1 3 5 1.15378 0 3 1.15378 1
gene 1 4 5 0.253354 0 4 0.253354 1
genomeend 49
