
/* Species #96 : (Size 1) (AF 0) (Age 19)  */


/* Organism #0 Fitness: 18 Error: 0 */
genomestart 0
trait 1 1 0 1 0 0.741939 0 0 1 
node 1 1 1 3
node 2 1 1 1
node 3 1 1 1
node 4 1 1 1
node 5 1 0 2
node 13 1 0 0
gene 1 1 5 0.556858 0 1 0.556858 1
gene 1 2 5 2.15346 0 2 2.15346 1
gene 1 3 5 -1.15884 0 3 -1.15884 1
gene 1 4 5 2.22188 0 4 2.22188 0
gene 1 5 5 4.67007 1 11 4.67007 1
gene 1 4 13 -1.34424 0 57 -1.34424 1
gene 1 13 5 -5.32445 0 58 -5.32445 1
gene 1 2 13 -0.236575 0 78 -0.236575 1
gene 1 1 13 -0.885254 0 85 -0.885254 1
gene 1 3 13 -2.69334 0 97 -2.69334 1
gene 1 13 13 -2.88783 1 117 -2.88783 0
gene 1 5 13 -0.933227 1 235 -0.933227 1
genomeend 0

/* Species #100 : (Size 1) (AF 0) (Age 17)  */


/* Organism #1 Fitness: 17 Error: 0 */
genomestart 1
trait 1 0.315387 0.0693966 1 0.059826 0.0631875 1 0 0.149842 
node 1 1 1 3
node 2 1 1 1
node 3 1 1 1
node 4 1 1 1
node 5 1 0 2
node 10 1 0 0
gene 1 1 5 1.56825 0 1 1.56825 1
gene 1 2 5 -3.5297 0 2 -3.5297 1
gene 1 3 5 -2.99321 0 3 -2.99321 1
gene 1 4 5 -1.47603 0 4 -1.47603 1
gene 1 4 10 -0.0745877 0 29 -0.0745877 0
gene 1 10 5 -0.888537 0 30 -0.888537 1
gene 1 1 10 2.3413 0 33 2.3413 1
gene 1 2 10 -0.31009 0 49 -0.31009 1
gene 1 3 10 -0.651643 0 80 -0.651643 1
gene 1 5 10 0.11273 1 92 0.11273 1
gene 1 10 10 -0.750851 1 229 -0.750851 0
genomeend 1

/* Species #107 : (Size 1) (AF 0) (Age 15)  */


/* Organism #2 Fitness: 12 Error: 0 */
genomestart 2
trait 1 0 0.11884 0.681582 1 0 0 0 0 
node 1 1 1 3
node 2 1 1 1
node 3 1 1 1
node 4 1 1 1
node 5 1 0 2
gene 1 1 5 -2.81015 0 1 -2.81015 1
gene 1 2 5 -3.83544 0 2 -3.83544 1
gene 1 3 5 -1.10494 0 3 -1.10494 1
gene 1 4 5 1.06658 0 4 1.06658 1
gene 1 5 5 0.405305 1 27 0.405305 1
genomeend 2

/* Species #110 : (Size 1) (AF 0) (Age 14)  */


/* Organism #3 Fitness: 18 Error: 0 */
genomestart 3
trait 1 1 0.947581 0.173393 0 0.93931 0.967053 0.0267744 1 
node 1 1 1 3
node 2 1 1 1
node 3 1 1 1
node 4 1 1 1
node 5 1 0 2
node 10 1 0 0
node 23 1 0 0
gene 1 1 5 0.0588253 0 1 0.0588253 1
gene 1 2 5 -0.715119 0 2 -0.715119 1
gene 1 3 5 2.1386 0 3 2.1386 1
gene 1 4 5 2.97699 0 4 2.97699 0
gene 1 4 10 5.98553 0 29 5.98553 1
gene 1 10 5 2.00971 0 30 2.00971 0
gene 1 1 10 0.541682 0 33 0.541682 1
gene 1 2 10 0.397293 0 44 0.397293 1
gene 1 3 10 0.526255 0 72 0.526255 1
gene 1 5 5 -2.0995 1 83 -2.0995 1
gene 1 10 10 1.37893 1 156 1.37893 1
gene 1 5 10 0.129941 1 162 0.129941 1
gene 1 10 23 1.65971 0 182 1.65971 1
gene 1 23 5 4.19636 0 183 4.19636 1
gene 1 5 23 -7.0242 1 206 -7.0242 1
gene 1 1 23 -1.71324 0 217 -1.71324 1
gene 1 3 23 -1.70763 0 236 -1.70763 1
gene 1 4 23 1.34226 0 251 1.34226 1
genomeend 3

/* Species #111 : (Size 2) (AF 0) (Age 14)  */


/* Organism #4 Fitness: 24 Error: 0 */
genomestart 4
trait 1 0.729304 0 0.26544 0.528331 0 0.242698 0 0.619245 
node 1 1 1 3
node 2 1 1 1
node 3 1 1 1
node 4 1 1 1
node 5 1 0 2
node 13 1 0 0
gene 1 1 5 -3.42044 0 1 -3.42044 1
gene 1 2 5 0.392974 0 2 0.392974 1
gene 1 3 5 2.24812 0 3 2.24812 1
gene 1 4 5 -2.97963 0 4 -2.97963 1
gene 1 5 5 -2.98075 1 11 -2.98075 1
gene 1 4 13 -0.637217 0 57 -0.637217 1
gene 1 13 5 -0.402472 0 58 -0.402472 1
gene 1 2 13 4.13726 0 78 4.13726 1
gene 1 1 13 -1.23215 0 85 -1.23215 1
gene 1 3 13 -1.98324 0 97 -1.98324 1
gene 1 13 13 0.536401 1 117 0.536401 0
genomeend 4

/* Organism #5 Fitness: 21 Error: 0 */
genomestart 5
trait 1 0.729304 0 0.26544 0.528331 0 0.242698 0 0.619245 
node 1 1 1 3
node 2 1 1 1
node 3 1 1 1
node 4 1 1 1
node 5 1 0 2
node 13 1 0 0
gene 1 1 5 -3.42044 0 1 -3.42044 1
gene 1 2 5 0.392974 0 2 0.392974 1
gene 1 3 5 2.24812 0 3 2.24812 1
gene 1 4 5 -2.97963 0 4 -2.97963 1
gene 1 5 5 -2.98075 1 11 -2.98075 1
gene 1 4 13 -0.637217 0 57 -0.637217 1
gene 1 13 5 -0.402472 0 58 -0.402472 1
gene 1 2 13 4.13726 0 78 4.13726 1
gene 1 1 13 -1.23215 0 85 -1.23215 1
gene 1 3 13 -1.98324 0 97 -1.98324 1
gene 1 13 13 0.536401 1 117 0.536401 0
genomeend 5

/* Species #113 : (Size 1) (AF 0) (Age 13)  */


/* Organism #6 Fitness: 13 Error: 0 */
genomestart 6
trait 1 1 0 1 0.691872 0.404955 0.130173 0 0.262752 
node 1 1 1 3
node 2 1 1 1
node 3 1 1 1
node 4 1 1 1
node 5 1 0 2
gene 1 1 5 0.825038 0 1 0.825038 1
gene 1 2 5 1.72491 0 2 1.72491 1
gene 1 3 5 -6.67979 0 3 -6.67979 1
gene 1 4 5 1.4167 0 4 1.4167 1
gene 1 5 5 -1.9451 1 27 -1.9451 1
genomeend 6

/* Species #115 : (Size 2) (AF 0) (Age 13)  */


/* Organism #7 Fitness: 40 Error: 0 */
genomestart 7
trait 1 0 0 0.173393 0.059826 0.114214 1 0.0304699 0.495285 
node 1 1 1 3
node 2 1 1 1
node 3 1 1 1
node 4 1 1 1
node 5 1 0 2
node 10 1 0 0
node 23 1 0 0
gene 1 1 5 0.8759 0 1 0.8759 1
gene 1 2 5 -1.00548 0 2 -1.00548 1
gene 1 3 5 2.59298 0 3 2.59298 0
gene 1 4 5 -1.15439 0 4 -1.15439 0
gene 1 4 10 -0.941198 0 29 -0.941198 1
gene 1 10 5 3.29267 0 30 3.29267 0
gene 1 1 10 -0.574567 0 33 -0.574567 1
gene 1 2 10 -7.96231 0 44 -7.96231 1
gene 1 3 10 -3.92432 0 72 -3.92432 1
gene 1 5 5 -1.0966 1 83 -1.0966 1
gene 1 10 10 -1.10259 1 156 -1.10259 0
gene 1 5 10 -2.03256 1 162 -2.03256 1
gene 1 10 23 -1.40654 0 182 -1.40654 1
gene 1 23 5 0.952881 0 183 0.952881 1
gene 1 23 23 -0.663444 1 221 -0.663444 1
genomeend 7

/* Organism #8 Fitness: 23 Error: 0 */
genomestart 8
trait 1 0 0 0.173393 0.059826 0.114214 1 0.0304699 0.495285 
node 1 1 1 3
node 2 1 1 1
node 3 1 1 1
node 4 1 1 1
node 5 1 0 2
node 10 1 0 0
node 23 1 0 0
gene 1 1 5 0.184564 0 1 0.184564 0
gene 1 2 5 -0.883102 0 2 -0.883102 1
gene 1 3 5 2.91559 0 3 2.91559 0
gene 1 4 5 -2.31674 0 4 -2.31674 0
gene 1 4 10 2.28087 0 29 2.28087 1
gene 1 10 5 2.50555 0 30 2.50555 0
gene 1 1 10 0.60184 0 33 0.60184 1
gene 1 2 10 -3.95429 0 44 -3.95429 1
gene 1 3 10 -3.14867 0 72 -3.14867 1
gene 1 5 5 0.3842 1 83 0.3842 1
gene 1 10 10 -1.24493 1 156 -1.24493 0
gene 1 5 10 -1.27001 1 162 -1.27001 1
gene 1 10 23 -1.64648 0 182 -1.64648 1
gene 1 23 5 0.586378 0 183 0.586378 1
gene 1 23 23 -3.02471 1 221 -3.02471 1
genomeend 8

/* Species #118 : (Size 2) (AF 0) (Age 12)  */


/* Organism #9 Fitness: 13 Error: 0 */
genomestart 9
trait 1 0.564695 0 1 1 0.820418 0.191692 0 0.262752 
node 1 1 1 3
node 2 1 1 1
node 3 1 1 1
node 4 1 1 1
node 5 1 0 2
gene 1 1 5 4.18784 0 1 4.18784 1
gene 1 2 5 -1.33315 0 2 -1.33315 1
gene 1 3 5 -6.61887 0 3 -6.61887 1
gene 1 4 5 2.91667 0 4 2.91667 1
gene 1 5 5 -0.518193 1 27 -0.518193 1
genomeend 9

/* Organism #10 Fitness: 10 Error: 0 */
genomestart 10
trait 1 0.564695 0 1 1 0.820418 0.191692 0 0.262752 
node 1 1 1 3
node 2 1 1 1
node 3 1 1 1
node 4 1 1 1
node 5 1 0 2
gene 1 1 5 2.70187 0 1 2.70187 1
gene 1 2 5 -0.342351 0 2 -0.342351 1
gene 1 3 5 -5.58111 0 3 -5.58111 1
gene 1 4 5 1.14434 0 4 1.14434 1
gene 1 5 5 -1.71861 1 27 -1.71861 1
genomeend 10

/* Species #119 : (Size 1) (AF 0) (Age 12)  */


/* Organism #11 Fitness: 20 Error: 0 */
genomestart 11
trait 1 0 0.774135 0.0197224 0.703512 0.439476 0.967053 0 0.449451 
node 1 1 1 3
node 2 1 1 1
node 3 1 1 1
node 4 1 1 1
node 5 1 0 2
node 10 1 0 0
node 33 1 0 0
gene 1 1 5 -4.43809 0 1 -4.43809 1
gene 1 2 5 2.75005 0 2 2.75005 0
gene 1 3 5 3.75672 0 3 3.75672 1
gene 1 4 5 -0.786422 0 4 -0.786422 0
gene 1 4 10 -4.18264 0 29 -4.18264 1
gene 1 10 5 -2.63516 0 30 -2.63516 1
gene 1 1 10 -1.98601 0 33 -1.98601 0
gene 1 2 10 -0.144998 0 44 -0.144998 1
gene 1 3 10 -1.52718 0 72 -1.52718 1
gene 1 5 5 0.217633 1 83 0.217633 1
gene 1 10 10 0.820837 1 225 0.820837 1
gene 1 2 33 -0.577575 0 261 -0.577575 1
gene 1 33 5 0.149281 0 262 0.149281 1
gene 1 10 33 1.10646 0 270 1.10646 1
genomeend 11

/* Species #122 : (Size 2) (AF 0) (Age 12)  */


/* Organism #12 Fitness: 20 Error: 0 */
genomestart 12
trait 1 0.395241 0 0.173393 0.059826 0.114214 0.967053 0 0.449451 
node 1 1 1 3
node 2 1 1 1
node 3 1 1 1
node 4 1 1 1
node 5 1 0 2
node 10 1 0 0
node 23 1 0 0
gene 1 1 5 0.133428 0 1 0.133428 1
gene 1 2 5 -3.67115 0 2 -3.67115 1
gene 1 3 5 1.72425 0 3 1.72425 0
gene 1 4 5 -0.359592 0 4 -0.359592 1
gene 1 4 10 -0.735736 0 29 -0.735736 1
gene 1 10 5 4.47489 0 30 4.47489 0
gene 1 1 10 1.67023 0 33 1.67023 1
gene 1 2 10 1.71269 0 44 1.71269 1
gene 1 3 10 -3.85878 0 72 -3.85878 1
gene 1 5 5 1.77567 1 83 1.77567 1
gene 1 10 10 -0.0125566 1 156 -0.0125566 1
gene 1 5 10 -0.264668 1 162 -0.264668 1
gene 1 10 23 -3.13654 0 182 -3.13654 1
gene 1 23 5 -2.53741 0 183 -2.53741 1
gene 1 23 23 1.17346 1 205 1.17346 1
gene 1 4 23 1.67978 0 223 1.67978 1
gene 1 1 23 -2.10798 0 233 -2.10798 1
gene 1 2 23 -0.3861 0 255 -0.3861 1
gene 1 3 23 0.428014 0 275 0.428014 1
genomeend 12

/* Organism #13 Fitness: 24 Error: 0 */
genomestart 13
trait 1 0.395241 0 0.173393 0.059826 0.114214 0.967053 0 0.449451 
node 1 1 1 3
node 2 1 1 1
node 3 1 1 1
node 4 1 1 1
node 5 1 0 2
node 10 1 0 0
node 23 1 0 0
gene 1 1 5 0.689529 0 1 0.689529 1
gene 1 2 5 -3.52348 0 2 -3.52348 1
gene 1 3 5 3.41532 0 3 3.41532 0
gene 1 4 5 -1.07416 0 4 -1.07416 1
gene 1 4 10 -1.99721 0 29 -1.99721 1
gene 1 10 5 5.93691 0 30 5.93691 0
gene 1 1 10 1.89576 0 33 1.89576 1
gene 1 2 10 2.70401 0 44 2.70401 1
gene 1 3 10 -5.11051 0 72 -5.11051 1
gene 1 5 5 3.04544 1 83 3.04544 1
gene 1 10 10 0.453353 1 156 0.453353 1
gene 1 5 10 0.868091 1 162 0.868091 1
gene 1 10 23 -3.77027 0 182 -3.77027 1
gene 1 23 5 -3.05053 0 183 -3.05053 1
gene 1 23 23 0.777208 1 205 0.777208 1
gene 1 4 23 1.38757 0 223 1.38757 1
gene 1 1 23 -2.10798 0 233 -2.10798 1
gene 1 2 23 -2.00725 0 255 -2.00725 1
genomeend 13

/* Species #125 : (Size 2) (AF 0) (Age 11)  */


/* Organism #14 Fitness: 22 Error: 0 */
genomestart 14
trait 1 0 0.434011 0 0.530693 0.362339 0 0 1 
node 1 1 1 3
node 2 1 1 1
node 3 1 1 1
node 4 1 1 1
node 5 1 0 2
node 10 1 0 0
node 30 1 0 0
gene 1 1 5 2.23924 0 1 2.23924 1
gene 1 2 5 -3.93455 0 2 -3.93455 1
gene 1 3 5 -2.45488 0 3 -2.45488 0
gene 1 4 5 6.47467 0 4 6.47467 0
gene 1 4 10 2.82235 0 29 2.82235 1
gene 1 10 5 -2.8915 0 30 -2.8915 1
gene 1 1 10 -2.37055 0 33 -2.37055 1
gene 1 2 10 5.44917 0 44 5.44917 1
gene 1 3 10 -0.641205 0 72 -0.641205 1
gene 1 5 5 -3.40279 1 83 -3.40279 1
gene 1 10 10 -1.85667 1 164 -1.85667 1
gene 1 3 30 -1.21281 0 242 -1.21281 1
gene 1 30 5 -3.1228 0 243 -3.1228 1
gene 1 10 30 0.284209 0 263 0.284209 1
gene 1 30 30 -0.0257711 1 271 -0.0257711 1
gene 1 2 30 -0.00239473 0 276 -0.00239473 1
genomeend 14

/* Organism #15 Fitness: 51 Error: 0 */
genomestart 15
trait 1 0 0.392672 0.205737 0.653202 0.362339 0 0 1 
node 1 1 1 3
node 2 1 1 1
node 3 1 1 1
node 4 1 1 1
node 5 1 0 2
node 10 1 0 0
node 30 1 0 0
gene 1 1 5 1.36895 0 1 1.36895 1
gene 1 2 5 -2.6738 0 2 -2.6738 1
gene 1 3 5 -2.45488 0 3 -2.45488 0
gene 1 4 5 7.98548 0 4 7.98548 0
gene 1 4 10 2.82235 0 29 2.82235 1
gene 1 10 5 -2.8915 0 30 -2.8915 1
gene 1 1 10 -3.36578 0 33 -3.36578 1
gene 1 2 10 3.90321 0 44 3.90321 1
gene 1 3 10 -0.641205 0 72 -0.641205 1
gene 1 5 5 -3.40279 1 83 -3.40279 1
gene 1 10 10 -1.24456 1 164 -1.24456 1
gene 1 3 30 -1.35468 0 242 -1.35468 1
gene 1 30 5 -3.1228 0 243 -3.1228 1
gene 1 10 30 1.38027 0 263 1.38027 1
gene 1 30 30 -0.0257711 1 271 -0.0257711 1
genomeend 15

/* Species #130 : (Size 1) (AF 0) (Age 9)  */


/* Organism #16 Fitness: 4 Error: 0 */
genomestart 16
trait 1 1 0.633598 0.0709163 1 1 0.119371 0 0.010314 
node 1 1 1 3
node 2 1 1 1
node 3 1 1 1
node 4 1 1 1
node 5 1 0 2
node 15 1 0 0
gene 1 1 5 -2.31743 0 1 -2.31743 1
gene 1 2 5 2.87371 0 2 2.87371 1
gene 1 3 5 0.233935 0 3 0.233935 1
gene 1 4 5 1.68408 0 4 1.68408 0
gene 1 5 5 2.32048 1 22 2.32048 1
gene 1 4 15 -0.30483 0 90 -0.30483 1
gene 1 15 5 0.348836 0 91 0.348836 1
gene 1 15 15 -0.765708 1 158 -0.765708 1
gene 1 1 15 2.34129 0 180 2.34129 1
gene 1 2 15 2.58855 0 185 2.58855 1
gene 1 3 15 -1.4197 0 208 -1.4197 1
gene 1 5 15 -1.02828 1 226 -1.02828 1
genomeend 16

/* Species #131 : (Size 1) (AF 0) (Age 9)  */


/* Organism #17 Fitness: 19 Error: 0 */
genomestart 17
trait 1 0.792232 0 0.713696 0 0.200236 0.550987 0.124788 0.619245 
node 1 1 1 3
node 2 1 1 1
node 3 1 1 1
node 4 1 1 1
node 5 1 0 2
node 13 1 0 0
gene 1 1 5 -0.75306 0 1 -0.75306 1
gene 1 2 5 -0.422592 0 2 -0.422592 1
gene 1 3 5 -2.3273 0 3 -2.3273 1
gene 1 4 5 5.74595 0 4 5.74595 0
gene 1 5 5 3.6203 1 11 3.6203 1
gene 1 4 13 0.774605 0 57 0.774605 1
gene 1 13 5 2.7232 0 58 2.7232 1
gene 1 2 13 -3.93134 0 78 -3.93134 1
gene 1 1 13 0.893212 0 85 0.893212 1
gene 1 3 13 -2.05633 0 97 -2.05633 1
gene 1 13 13 0.787265 1 117 0.787265 1
gene 1 5 13 -5.22618 1 218 -5.22618 1
genomeend 17

/* Species #133 : (Size 1) (AF 0) (Age 8)  */


/* Organism #18 Fitness: 14 Error: 0 */
genomestart 18
trait 1 0 0 0.345094 0 0 0.835932 0 0 
node 1 1 1 3
node 2 1 1 1
node 3 1 1 1
node 4 1 1 1
node 5 1 0 2
node 6 1 0 0
gene 1 1 5 -1.24057 0 1 -1.24057 1
gene 1 2 5 4.33066 0 2 4.33066 1
gene 1 3 5 -3.09066 0 3 -3.09066 1
gene 1 4 5 -4.33099 0 4 -4.33099 1
gene 1 2 6 2.37569 0 7 2.37569 1
gene 1 6 5 0.856151 0 8 0.856151 1
gene 1 1 6 1.04772 0 107 1.04772 1
gene 1 6 6 1.97786 1 118 1.97786 1
gene 1 4 6 1.83042 0 169 1.83042 1
gene 1 3 6 -2.48258 0 177 -2.48258 1
genomeend 18

/* Species #134 : (Size 2) (AF 0) (Age 8)  */


/* Organism #19 Fitness: 31 Error: 0 */
genomestart 19
trait 1 0.919769 0 0.515036 0 0.100118 0.550987 0 0.619245 
node 1 1 1 3
node 2 1 1 1
node 3 1 1 1
node 4 1 1 1
node 5 1 0 2
node 13 1 0 0
gene 1 1 5 2.24785 0 1 2.24785 1
gene 1 2 5 -1.41671 0 2 -1.41671 1
gene 1 3 5 0.736126 0 3 0.736126 1
gene 1 4 5 0.238653 0 4 0.238653 0
gene 1 5 5 5.46037 1 11 5.46037 1
gene 1 4 13 5.62929 0 57 5.62929 1
gene 1 13 5 -2.75289 0 58 -2.75289 1
gene 1 2 13 0.193143 0 78 0.193143 1
gene 1 1 13 0.362073 0 85 0.362073 1
gene 1 3 13 1.29215 0 97 1.29215 1
gene 1 13 13 -0.387813 1 117 -0.387813 1
genomeend 19

/* Organism #20 Fitness: 18 Error: 0 */
genomestart 20
trait 1 0.919769 0 0.515036 0 0.100118 0.550987 0 0.619245 
node 1 1 1 3
node 2 1 1 1
node 3 1 1 1
node 4 1 1 1
node 5 1 0 2
node 13 1 0 0
gene 1 1 5 0.841383 0 1 0.841383 1
gene 1 2 5 -2.91447 0 2 -2.91447 1
gene 1 3 5 1.38124 0 3 1.38124 1
gene 1 4 5 0.336078 0 4 0.336078 0
gene 1 5 5 4.09295 1 11 4.09295 1
gene 1 4 13 5.96601 0 57 5.96601 1
gene 1 13 5 -3.54351 0 58 -3.54351 1
gene 1 2 13 0.455324 0 78 0.455324 1
gene 1 1 13 1.95647 0 85 1.95647 1
gene 1 3 13 -0.30848 0 97 -0.30848 1
gene 1 13 13 -1.32876 1 117 -1.32876 1
gene 1 5 13 -0.946404 1 277 -0.946404 1
genomeend 20

/* Species #135 : (Size 1) (AF 0) (Age 8)  */


/* Organism #21 Fitness: 19 Error: 0 */
genomestart 21
trait 1 0.473791 0.186165 1 0 0.743499 0.905546 0 0.914283 
node 1 1 1 3
node 2 1 1 1
node 3 1 1 1
node 4 1 1 1
node 5 1 0 2
node 13 1 0 0
gene 1 1 5 1.82667 0 1 1.82667 1
gene 1 2 5 -2.83506 0 2 -2.83506 1
gene 1 3 5 2.86352 0 3 2.86352 1
gene 1 4 5 -1.17376 0 4 -1.17376 0
gene 1 5 5 -0.198652 1 11 -0.198652 1
gene 1 4 13 6.58908 0 57 6.58908 1
gene 1 13 5 1.45507 0 58 1.45507 0
gene 1 2 13 -0.571183 0 78 -0.571183 0
gene 1 1 13 -2.69483 0 85 -2.69483 1
gene 1 3 13 2.03684 0 97 2.03684 1
gene 1 13 13 -3.64595 1 117 -3.64595 1
gene 1 5 13 1.90153 0 266 1.90153 1
genomeend 21

/* Species #136 : (Size 2) (AF 0) (Age 8)  */


/* Organism #22 Fitness: 20 Error: 0 */
genomestart 22
trait 1 0 0.186165 1 0 0.743499 0.905546 0 0.914283 
node 1 1 1 3
node 2 1 1 1
node 3 1 1 1
node 4 1 1 1
node 5 1 0 2
node 13 1 0 0
gene 1 1 5 0.801544 0 1 0.801544 1
gene 1 2 5 -8 0 2 -8 1
gene 1 3 5 -0.0664041 0 3 -0.0664041 1
gene 1 4 5 -0.2802 0 4 -0.2802 1
gene 1 5 5 5.64209 1 11 5.64209 1
gene 1 4 13 3.58791 0 57 3.58791 1
gene 1 13 5 -5.29941 0 58 -5.29941 1
gene 1 2 13 -1.52986 0 78 -1.52986 1
gene 1 1 13 -3.22129 0 85 -3.22129 1
gene 1 3 13 1.94947 0 97 1.94947 1
gene 1 13 13 0.401985 1 117 0.401985 1
genomeend 22

/* Organism #23 Fitness: 16 Error: 0 */
genomestart 23
trait 1 0 0.186165 1 0 0.743499 0.905546 0 0.914283 
node 1 1 1 3
node 2 1 1 1
node 3 1 1 1
node 4 1 1 1
node 5 1 0 2
node 13 1 0 0
gene 1 1 5 0.801544 0 1 0.801544 1
gene 1 2 5 -8 0 2 -8 1
gene 1 3 5 -0.0664041 0 3 -0.0664041 1
gene 1 4 5 -0.2802 0 4 -0.2802 1
gene 1 5 5 5.64209 1 11 5.64209 1
gene 1 4 13 3.58791 0 57 3.58791 1
gene 1 13 5 -5.29941 0 58 -5.29941 1
gene 1 2 13 -1.52986 0 78 -1.52986 1
gene 1 1 13 -3.22129 0 85 -3.22129 1
gene 1 3 13 1.94947 0 97 1.94947 1
gene 1 13 13 0.401985 1 117 0.401985 1
genomeend 23

/* Species #137 : (Size 1) (AF 0) (Age 8)  */


/* Organism #24 Fitness: 21 Error: 0 */
genomestart 24
trait 1 0.395241 0.959646 0.427403 0.271026 0.0571069 0.642675 0 0.724725 
node 1 1 1 3
node 2 1 1 1
node 3 1 1 1
node 4 1 1 1
node 5 1 0 2
node 10 1 0 0
gene 1 1 5 -2.90031 0 1 -2.90031 1
gene 1 2 5 0.250067 0 2 0.250067 1
gene 1 3 5 -0.287916 0 3 -0.287916 1
gene 1 4 5 -0.983086 0 4 -0.983086 0
gene 1 4 10 -2.01021 0 29 -2.01021 1
gene 1 10 5 0.722306 0 30 0.722306 0
gene 1 1 10 -4.36886 0 33 -4.36886 1
gene 1 2 10 -0.987197 0 44 -0.987197 1
gene 1 3 10 -4.86343 0 72 -4.86343 1
gene 1 5 5 -0.0348519 1 83 -0.0348519 1
gene 1 10 10 -0.846289 1 156 -0.846289 1
gene 1 5 10 -0.844656 0 267 -0.844656 1
genomeend 24

/* Species #138 : (Size 1) (AF 0) (Age 8)  */


/* Organism #25 Fitness: 12 Error: 0 */
genomestart 25
trait 1 0 0 1 0.00149193 0.233653 0.831499 0.797452 0.439901 
node 1 1 1 3
node 2 1 1 1
node 3 1 1 1
node 4 1 1 1
node 5 1 0 2
node 6 1 0 0
gene 1 1 5 1.59705 0 1 1.59705 1
gene 1 2 5 -6.06828 0 2 -6.06828 1
gene 1 3 5 1.15887 0 3 1.15887 1
gene 1 4 5 0.296279 0 4 0.296279 1
gene 1 2 6 -0.483169 0 7 -0.483169 1
gene 1 6 5 -7.67526 0 8 -7.67526 1
gene 1 6 6 0.301076 1 48 0.301076 0
gene 1 4 6 2.45245 0 54 2.45245 0
gene 1 5 5 8 1 66 8 1
gene 1 1 6 -2.86855 0 79 -2.86855 1
gene 1 5 6 -0.32011 1 104 -0.32011 1
gene 1 3 6 -0.948748 0 170 -0.948748 1
genomeend 25

/* Species #139 : (Size 1) (AF 0) (Age 7)  */


/* Organism #26 Fitness: 15 Error: 0 */
genomestart 26
trait 1 1 0 1 0 0 0.550987 0 0.619245 
node 1 1 1 3
node 2 1 1 1
node 3 1 1 1
node 4 1 1 1
node 5 1 0 2
node 13 1 0 0
gene 1 1 5 2.91086 0 1 2.91086 1
gene 1 2 5 -2.02651 0 2 -2.02651 1
gene 1 3 5 7.14061 0 3 7.14061 1
gene 1 4 5 -1.49331 0 4 -1.49331 0
gene 1 5 5 -0.643054 1 11 -0.643054 1
gene 1 4 13 1.06467 0 57 1.06467 1
gene 1 13 5 1.1728 0 58 1.1728 1
gene 1 2 13 -1.28156 0 78 -1.28156 1
gene 1 1 13 1.07641 0 85 1.07641 1
gene 1 3 13 -4.05524 0 97 -4.05524 1
gene 1 13 13 0.916799 1 117 0.916799 0
gene 1 5 13 1.38468 1 250 1.38468 1
genomeend 26

/* Species #141 : (Size 1) (AF 0) (Age 6)  */


/* Organism #27 Fitness: 27 Error: 0 */
genomestart 27
trait 1 0.0257954 0 0.841077 0 0 0 0 0.449451 
node 1 1 1 3
node 2 1 1 1
node 3 1 1 1
node 4 1 1 1
node 5 1 0 2
node 10 1 0 0
node 30 1 0 0
gene 1 1 5 -0.0962738 0 1 -0.0962738 1
gene 1 2 5 -3.29711 0 2 -3.29711 1
gene 1 3 5 1.00403 0 3 1.00403 1
gene 1 4 5 3.618 0 4 3.618 0
gene 1 4 10 1.82088 0 29 1.82088 1
gene 1 10 5 -2.54181 0 30 -2.54181 1
gene 1 1 10 -4.86904 0 33 -4.86904 1
gene 1 2 10 4.90596 0 44 4.90596 1
gene 1 3 10 -1.1069 0 72 -1.1069 1
gene 1 5 5 -0.244424 1 83 -0.244424 1
gene 1 10 10 1.31794 1 164 1.31794 1
gene 1 3 30 1.78633 0 242 1.78633 1
gene 1 30 5 -0.00573223 0 243 -0.00573223 1
gene 1 2 30 1.122 0 252 1.122 1
genomeend 27

/* Species #142 : (Size 5) (AF 0) (Age 6)  */


/* Organism #28 Fitness: 18 Error: 0 */
genomestart 28
trait 1 0.0257954 0 0 0.059826 0 0 0 0.449451 
node 1 1 1 3
node 2 1 1 1
node 3 1 1 1
node 4 1 1 1
node 5 1 0 2
node 10 1 0 0
node 30 1 0 0
node 32 1 0 0
gene 1 1 5 0.729469 0 1 0.729469 1
gene 1 2 5 -6.01263 0 2 -6.01263 1
gene 1 3 5 -2.08496 0 3 -2.08496 0
gene 1 4 5 -0.986685 0 4 -0.986685 0
gene 1 4 10 0.73797 0 29 0.73797 1
gene 1 10 5 -1.44761 0 30 -1.44761 1
gene 1 1 10 -5.15266 0 33 -5.15266 1
gene 1 2 10 5.26979 0 44 5.26979 1
gene 1 3 10 -0.0134097 0 72 -0.0134097 1
gene 1 5 5 -0.427684 1 83 -0.427684 1
gene 1 10 10 0.219688 1 164 0.219688 1
gene 1 3 30 1 0 242 1 1
gene 1 30 5 -1.86947 0 243 -1.86947 1
gene 1 3 32 1 0 253 0 1
gene 1 32 30 1 0 254 0 1
gene 1 10 32 0.962394 0 258 0.962394 1
gene 1 2 32 -0.288357 0 268 -0.288357 1
genomeend 28

/* Organism #29 Fitness: 31 Error: 0 */
genomestart 29
trait 1 0.0257954 0 0 0.059826 0 0 0 0.449451 
node 1 1 1 3
node 2 1 1 1
node 3 1 1 1
node 4 1 1 1
node 5 1 0 2
node 10 1 0 0
node 30 1 0 0
node 32 1 0 0
gene 1 1 5 0.729469 0 1 0.729469 1
gene 1 2 5 -6.01263 0 2 -6.01263 1
gene 1 3 5 -2.08496 0 3 -2.08496 0
gene 1 4 5 -0.986685 0 4 -0.986685 0
gene 1 4 10 0.73797 0 29 0.73797 1
gene 1 10 5 -1.44761 0 30 -1.44761 1
gene 1 1 10 -5.15266 0 33 -5.15266 1
gene 1 2 10 5.26979 0 44 5.26979 1
gene 1 3 10 -0.0134097 0 72 -0.0134097 1
gene 1 5 5 -0.427684 1 83 -0.427684 1
gene 1 10 10 0.219688 1 164 0.219688 1
gene 1 3 30 1 0 242 1 1
gene 1 30 5 -1.86947 0 243 -1.86947 1
gene 1 3 32 1 0 253 0 1
gene 1 32 30 1 0 254 0 1
gene 1 10 32 0.962394 0 258 0.962394 1
gene 1 2 32 -0.288357 0 268 -0.288357 1
genomeend 29

/* Organism #30 Fitness: 16 Error: 0 */
genomestart 30
trait 1 0.0257954 0 0 0.059826 0 0 0 0.449451 
node 1 1 1 3
node 2 1 1 1
node 3 1 1 1
node 4 1 1 1
node 5 1 0 2
node 10 1 0 0
node 30 1 0 0
node 32 1 0 0
gene 1 1 5 2.30447 0 1 2.30447 1
gene 1 2 5 -7.00456 0 2 -7.00456 1
gene 1 3 5 -1.97478 0 3 -1.97478 0
gene 1 4 5 -2.29219 0 4 -2.29219 0
gene 1 4 10 -1.04946 0 29 -1.04946 1
gene 1 10 5 0.279097 0 30 0.279097 1
gene 1 1 10 -6.43338 0 33 -6.43338 1
gene 1 2 10 3.97869 0 44 3.97869 1
gene 1 3 10 0.33996 0 72 0.33996 1
gene 1 5 5 -0.0348409 1 83 -0.0348409 1
gene 1 10 10 -1.42574 1 164 -1.42574 1
gene 1 3 30 0.695702 0 242 0.695702 1
gene 1 30 5 -1.909 0 243 -1.909 1
gene 1 3 32 0.351003 0 253 0.351003 1
gene 1 32 30 1 0 254 1 1
gene 1 10 32 0.130783 0 258 0.130783 1
gene 1 2 32 -0.72209 0 268 -0.72209 1
genomeend 30

/* Organism #31 Fitness: 18 Error: 0 */
genomestart 31
trait 1 0.0257954 0 0 0.059826 0 0 0 0.449451 
node 1 1 1 3
node 2 1 1 1
node 3 1 1 1
node 4 1 1 1
node 5 1 0 2
node 10 1 0 0
node 30 1 0 0
node 32 1 0 0
gene 1 1 5 2.27089 0 1 2.27089 1
gene 1 2 5 -6.75515 0 2 -6.75515 1
gene 1 3 5 -3.22834 0 3 -3.22834 1
gene 1 4 5 0.602515 0 4 0.602515 0
gene 1 4 10 -0.53698 0 29 -0.53698 1
gene 1 10 5 -3.15402 0 30 -3.15402 1
gene 1 1 10 -4.41595 0 33 -4.41595 1
gene 1 2 10 5.07111 0 44 5.07111 1
gene 1 3 10 -1.62914 0 72 -1.62914 1
gene 1 5 5 1.31725 1 83 1.31725 1
gene 1 10 10 1.68646 1 164 1.68646 1
gene 1 3 30 0.576106 0 242 0.576106 1
gene 1 30 5 -1.71578 0 243 -1.71578 1
gene 1 3 32 0.892845 0 253 0.892845 1
gene 1 32 30 1.84386 0 254 1.84386 1
gene 1 10 32 0.962394 0 258 0.962394 1
gene 1 2 32 -0.288357 0 268 -0.288357 1
genomeend 31

/* Organism #32 Fitness: 38 Error: 0 */
genomestart 32
trait 1 0.0257954 0 0 0.059826 0 0 0 0.449451 
node 1 1 1 3
node 2 1 1 1
node 3 1 1 1
node 4 1 1 1
node 5 1 0 2
node 10 1 0 0
node 30 1 0 0
node 32 1 0 0
gene 1 1 5 0.71445 0 1 0.71445 1
gene 1 2 5 -7.03915 0 2 -7.03915 1
gene 1 3 5 -0.49254 0 3 -0.49254 0
gene 1 4 5 -1.54652 0 4 -1.54652 0
gene 1 4 10 -0.860407 0 29 -0.860407 1
gene 1 10 5 -2.80004 0 30 -2.80004 1
gene 1 1 10 -6.76945 0 33 -6.76945 1
gene 1 2 10 6.30729 0 44 6.30729 1
gene 1 3 10 -0.911343 0 72 -0.911343 1
gene 1 5 5 -1.69124 1 83 -1.69124 1
gene 1 10 10 -1.13718 1 164 -1.13718 1
gene 1 3 30 2.59845 0 242 2.59845 1
gene 1 30 5 -1.55604 0 243 -1.55604 1
gene 1 3 32 -0.416856 0 253 -0.416856 1
gene 1 32 30 1 0 254 1 1
gene 1 10 32 1.14351 0 258 1.14351 1
gene 1 2 32 0.483146 0 268 0.483146 1
genomeend 32

/* Species #144 : (Size 1) (AF 0) (Age 5)  */


/* Organism #33 Fitness: 17 Error: 0 */
genomestart 33
trait 1 0.645051 0 0.602407 0.00966274 0 0.740596 0.406271 0.506351 
node 1 1 1 3
node 2 1 1 1
node 3 1 1 1
node 4 1 1 1
node 5 1 0 2
gene 1 1 5 1.09095 0 1 1.09095 1
gene 1 2 5 -0.276983 0 2 -0.276983 1
gene 1 3 5 -0.553822 0 3 -0.553822 1
gene 1 4 5 -0.650342 0 4 -0.650342 1
gene 1 5 5 -3.37697 1 11 -3.37697 1
genomeend 33

/* Species #145 : (Size 1) (AF 0) (Age 5)  */


/* Organism #34 Fitness: 13 Error: 0 */
genomestart 34
trait 1 0 0 1 1 0.820418 0.135332 0 0.262752 
node 1 1 1 3
node 2 1 1 1
node 3 1 1 1
node 4 1 1 1
node 5 1 0 2
node 27 1 0 0
gene 1 1 5 3.66235 0 1 3.66235 1
gene 1 2 5 1.67769 0 2 1.67769 1
gene 1 3 5 -5.46527 0 3 -5.46527 1
gene 1 4 5 -0.944355 0 4 -0.944355 0
gene 1 5 5 -1.51018 1 27 -1.51018 1
gene 1 4 27 -0.911756 0 209 -0.911756 1
gene 1 27 5 4.33475 0 210 4.33475 1
gene 1 2 27 0.320851 0 237 0.320851 1
gene 1 3 27 -0.318385 0 241 -0.318385 1
gene 1 1 27 -0.304857 0 274 -0.304857 1
genomeend 34

/* Species #146 : (Size 1) (AF 0) (Age 5)  */


/* Organism #35 Fitness: 7 Error: 0 */
genomestart 35
trait 1 0.941805 0.371229 1 0.553319 1 0.690252 0 0.010314 
node 1 1 1 3
node 2 1 1 1
node 3 1 1 1
node 4 1 1 1
node 5 1 0 2
node 15 1 0 0
gene 1 1 5 -0.196408 0 1 -0.196408 1
gene 1 2 5 3.30584 0 2 3.30584 1
gene 1 3 5 2.2396 0 3 2.2396 1
gene 1 4 5 0.937282 0 4 0.937282 0
gene 1 5 5 0.146111 1 22 0.146111 1
gene 1 4 15 -0.141209 0 90 -0.141209 1
gene 1 15 5 1.63617 0 91 1.63617 1
gene 1 15 15 -0.769662 1 158 -0.769662 1
gene 1 1 15 0.957757 0 180 0.957757 0
gene 1 2 15 -1.53977 0 185 -1.53977 0
gene 1 3 15 1.34164 0 208 1.34164 1
genomeend 35

/* Species #148 : (Size 1) (AF 0) (Age 4)  */


/* Organism #36 Fitness: 14 Error: 0 */
genomestart 36
trait 1 0.792232 0 0.713696 0 0.200236 0.550987 0.124788 0.619245 
node 1 1 1 3
node 2 1 1 1
node 3 1 1 1
node 4 1 1 1
node 5 1 0 2
node 13 1 0 0
gene 1 1 5 -0.0423843 0 1 -0.0423843 1
gene 1 2 5 -1.47275 0 2 -1.47275 1
gene 1 3 5 -0.472065 0 3 -0.472065 1
gene 1 4 5 -3.01073 0 4 -3.01073 0
gene 1 5 5 3.13476 1 11 3.13476 1
gene 1 4 13 6.1051 0 57 6.1051 1
gene 1 13 5 -1.38827 0 58 -1.38827 1
gene 1 2 13 -1.81018 0 78 -1.81018 1
gene 1 1 13 0.98705 0 85 0.98705 1
gene 1 3 13 -0.764527 0 97 -0.764527 1
gene 1 13 13 2.0169 1 117 2.0169 0
gene 1 5 13 -1.17355 1 218 -1.17355 1
genomeend 36

/* Species #149 : (Size 2) (AF 0) (Age 3)  */


/* Organism #37 Fitness: 22 Error: 0 */
genomestart 37
trait 1 0.792232 0 0.713696 0 0.200236 0.550987 0.124788 0.619245 
node 1 1 1 3
node 2 1 1 1
node 3 1 1 1
node 4 1 1 1
node 5 1 0 2
node 13 1 0 0
gene 1 1 5 -0.97946 0 1 -0.97946 1
gene 1 2 5 -2.27287 0 2 -2.27287 1
gene 1 3 5 -2.5512 0 3 -2.5512 1
gene 1 4 5 -2.1271 0 4 -2.1271 0
gene 1 5 5 0.895251 1 11 0.895251 1
gene 1 4 13 -1.08013 0 57 -1.08013 1
gene 1 13 5 -0.506285 0 58 -0.506285 1
gene 1 2 13 -1.62157 0 78 -1.62157 1
gene 1 1 13 2.3365 0 85 2.3365 1
gene 1 3 13 1.59889 0 97 1.59889 1
gene 1 13 13 -0.310341 1 117 -0.310341 1
gene 1 5 13 1.52042 1 218 1.52042 0
genomeend 37

/* Organism #38 Fitness: 16 Error: 0 */
genomestart 38
trait 1 0.792232 0 0.713696 0 0.200236 0.550987 0.124788 0.619245 
node 1 1 1 3
node 2 1 1 1
node 3 1 1 1
node 4 1 1 1
node 5 1 0 2
node 13 1 0 0
gene 1 1 5 -0.862678 0 1 -0.862678 1
gene 1 2 5 0.266834 0 2 0.266834 1
gene 1 3 5 -1.08971 0 3 -1.08971 1
gene 1 4 5 -1.26988 0 4 -1.26988 0
gene 1 5 5 3.21287 1 11 3.21287 1
gene 1 4 13 -1.8098 0 57 -1.8098 1
gene 1 13 5 0.775913 0 58 0.775913 1
gene 1 2 13 -3.09205 0 78 -3.09205 1
gene 1 1 13 2.73144 0 85 2.73144 1
gene 1 3 13 1.38196 0 97 1.38196 1
gene 1 13 13 1.63543 1 117 1.63543 1
gene 1 5 13 1.20044 1 218 1.20044 0
genomeend 38

/* Species #150 : (Size 1) (AF 0) (Age 2)  */


/* Organism #39 Fitness: 15 Error: 0 */
genomestart 39
trait 1 0.0287772 0 0.759157 1 0 0 0.431419 0.262752 
node 1 1 1 3
node 2 1 1 1
node 3 1 1 1
node 4 1 1 1
node 5 1 0 2
gene 1 1 5 0.233664 0 1 0.233664 1
gene 1 2 5 0.765631 0 2 0.765631 1
gene 1 3 5 1.04422 0 3 1.04422 1
gene 1 4 5 -2.59658 0 4 -2.59658 1
gene 1 5 5 -6.40109 1 27 -6.40109 1
genomeend 39

/* Species #151 : (Size 2) (AF 0) (Age 2)  */


/* Organism #40 Fitness: 11 Error: 0 */
genomestart 40
trait 1 0 0 0.173393 0.059826 0.114214 1 0.0304699 0.495285 
node 1 1 1 3
node 2 1 1 1
node 3 1 1 1
node 4 1 1 1
node 5 1 0 2
node 10 1 0 0
node 23 1 0 0
gene 1 1 5 -0.710174 0 1 -0.710174 0
gene 1 2 5 0.401642 0 2 0.401642 1
gene 1 3 5 1.30028 0 3 1.30028 0
gene 1 4 5 -0.0482793 0 4 -0.0482793 0
gene 1 4 10 -0.299387 0 29 -0.299387 1
gene 1 10 5 3.31118 0 30 3.31118 0
gene 1 1 10 -0.579297 0 33 -0.579297 1
gene 1 2 10 -0.168035 0 44 -0.168035 1
gene 1 3 10 0.111361 0 72 0.111361 1
gene 1 5 5 -1.30118 1 83 -1.30118 1
gene 1 10 10 -0.361453 1 156 -0.361453 0
gene 1 5 10 -2.36894 1 162 -2.36894 1
gene 1 10 23 0.921572 0 182 0.921572 1
gene 1 23 5 -0.28488 0 183 -0.28488 1
gene 1 23 23 -3.23887 1 221 -3.23887 1
gene 1 4 23 -0.985264 0 278 -0.985264 1
genomeend 40

/* Organism #41 Fitness: 6 Error: 0 */
genomestart 41
trait 1 0 0 0.173393 0.059826 0.114214 1 0.0304699 0.495285 
node 1 1 1 3
node 2 1 1 1
node 3 1 1 1
node 4 1 1 1
node 5 1 0 2
node 10 1 0 0
node 23 1 0 0
gene 1 1 5 -0.710174 0 1 -0.710174 1
gene 1 2 5 0.401642 0 2 0.401642 1
gene 1 3 5 1.30028 0 3 1.30028 0
gene 1 4 5 -0.0482793 0 4 -0.0482793 0
gene 1 4 10 -0.299387 0 29 -0.299387 1
gene 1 10 5 3.31118 0 30 3.31118 0
gene 1 1 10 -0.579297 0 33 -0.579297 1
gene 1 2 10 -0.168035 0 44 -0.168035 1
gene 1 3 10 0.111361 0 72 0.111361 1
gene 1 5 5 -1.30118 1 83 -1.30118 1
gene 1 10 10 -0.361453 1 156 -0.361453 0
gene 1 5 10 -2.36894 1 162 -2.36894 1
gene 1 10 23 0.921572 0 182 0.921572 1
gene 1 23 5 -0.28488 0 183 -0.28488 1
gene 1 23 23 -3.23887 1 221 -3.23887 1
genomeend 41

/* Species #152 : (Size 1) (AF 0) (Age 2)  */


/* Organism #42 Fitness: 18 Error: 0 */
genomestart 42
trait 1 0.792232 0 0.713696 0 0.200236 0.141446 0.124788 0.619245 
node 1 1 1 3
node 2 1 1 1
node 3 1 1 1
node 4 1 1 1
node 5 1 0 2
node 13 1 0 0
gene 1 1 5 -1.21806 0 1 -1.21806 1
gene 1 2 5 0.803009 0 2 0.803009 1
gene 1 3 5 4.52303 0 3 4.52303 1
gene 1 4 5 4.4846 0 4 4.4846 1
gene 1 5 5 2.56694 1 11 2.56694 1
gene 1 4 13 -1.65812 0 57 -1.65812 1
gene 1 13 5 2.79578 0 58 2.79578 1
gene 1 2 13 -0.873216 0 78 -0.873216 1
gene 1 1 13 1.07963 0 85 1.07963 1
gene 1 3 13 -2.68281 0 97 -2.68281 1
gene 1 13 13 -4.12824 1 117 -4.12824 1
gene 1 5 13 2.09783 1 218 2.09783 1
genomeend 42

/* Species #153 : (Size 1) (AF 0) (Age 2)  */


/* Organism #43 Fitness: 17 Error: 0 */
genomestart 43
trait 1 0 0 1 1 0.820418 0.135332 0 0.262752 
node 1 1 1 3
node 2 1 1 1
node 3 1 1 1
node 4 1 1 1
node 5 1 0 2
gene 1 1 5 2.81009 0 1 2.81009 1
gene 1 2 5 1.07394 0 2 1.07394 1
gene 1 3 5 1.01225 0 3 1.01225 1
gene 1 4 5 -0.0858667 0 4 -0.0858667 1
gene 1 5 5 -3.20199 1 27 -3.20199 1
genomeend 43

/* Species #154 : (Size 2) (AF 0) (Age 2)  */


/* Organism #44 Fitness: 17 Error: 0 */
genomestart 44
trait 1 0.0257954 0 0.841077 0 0 0 0 0.449451 
node 1 1 1 3
node 2 1 1 1
node 3 1 1 1
node 4 1 1 1
node 5 1 0 2
node 10 1 0 0
node 30 1 0 0
gene 1 1 5 -1.85257 0 1 -1.85257 1
gene 1 2 5 -0.3145 0 2 -0.3145 1
gene 1 3 5 1.00403 0 3 1.00403 1
gene 1 4 5 4.63203 0 4 4.63203 0
gene 1 4 10 0.16197 0 29 0.16197 1
gene 1 10 5 -2.55924 0 30 -2.55924 1
gene 1 1 10 1.62048 0 33 1.62048 1
gene 1 2 10 5.1247 0 44 5.1247 1
gene 1 3 10 -0.30585 0 72 -0.30585 1
gene 1 5 5 -0.564244 1 83 -0.564244 1
gene 1 10 10 0.460868 1 164 0.460868 1
gene 1 3 30 0.785866 0 242 0.785866 1
gene 1 30 5 0.98477 0 243 0.98477 1
gene 1 2 30 0.497773 0 252 0.497773 1
gene 1 10 30 0.19828 0 279 0.19828 1
genomeend 44

/* Organism #45 Fitness: 20 Error: 0 */
genomestart 45
trait 1 0.0257954 0 0.841077 0 0 0 0 0.449451 
node 1 1 1 3
node 2 1 1 1
node 3 1 1 1
node 4 1 1 1
node 5 1 0 2
node 10 1 0 0
node 30 1 0 0
gene 1 1 5 -1.85257 0 1 -1.85257 1
gene 1 2 5 -0.3145 0 2 -0.3145 1
gene 1 3 5 1.00403 0 3 1.00403 1
gene 1 4 5 4.63203 0 4 4.63203 0
gene 1 4 10 0.16197 0 29 0.16197 1
gene 1 10 5 -2.55924 0 30 -2.55924 1
gene 1 1 10 1.62048 0 33 1.62048 1
gene 1 2 10 5.1247 0 44 5.1247 1
gene 1 3 10 -0.30585 0 72 -0.30585 1
gene 1 5 5 -0.564244 1 83 -0.564244 1
gene 1 10 10 0.460868 1 164 0.460868 1
gene 1 3 30 0.785866 0 242 0.785866 1
gene 1 30 5 0.98477 0 243 0.98477 1
gene 1 2 30 0.497773 0 252 0.497773 1
gene 1 5 30 -0.376845 1 280 -0.376845 1
genomeend 45

/* Species #155 : (Size 1) (AF 0) (Age 1)  */


/* Organism #46 Fitness: 17 Error: 0 */
genomestart 46
trait 1 0.792232 0 0.713696 0 0.200236 0.550987 0.124788 0.619245 
node 1 1 1 3
node 2 1 1 1
node 3 1 1 1
node 4 1 1 1
node 5 1 0 2
node 13 1 0 0
gene 1 1 5 0.432842 0 1 0.432842 1
gene 1 2 5 -2.14802 0 2 -2.14802 1
gene 1 3 5 1.3138 0 3 1.3138 1
gene 1 4 5 0.371256 0 4 0.371256 0
gene 1 5 5 2.13632 1 11 2.13632 1
gene 1 4 13 1.94906 0 57 1.94906 1
gene 1 13 5 1.14813 0 58 1.14813 1
gene 1 2 13 -1.2162 0 78 -1.2162 1
gene 1 1 13 0.25107 0 85 0.25107 1
gene 1 3 13 1.13995 0 97 1.13995 1
gene 1 13 13 -1.28894 1 117 -1.28894 1
gene 1 5 13 -5.12121 1 218 -5.12121 1
genomeend 46

/* Species #156 : (Size 1) (AF 0) (Age 1)  */


/* Organism #47 Fitness: 17 Error: 0 */
genomestart 47
trait 1 0.0257954 0 0 0.059826 0 0 0 0.449451 
node 1 1 1 3
node 2 1 1 1
node 3 1 1 1
node 4 1 1 1
node 5 1 0 2
node 10 1 0 0
node 30 1 0 0
node 32 1 0 0
gene 1 1 5 1.20666 0 1 1.20666 1
gene 1 2 5 -0.803493 0 2 -0.803493 1
gene 1 3 5 -0.285371 0 3 -0.285371 0
gene 1 4 5 0.497219 0 4 0.497219 0
gene 1 4 10 0.856981 0 29 0.856981 1
gene 1 10 5 1.59162 0 30 1.59162 1
gene 1 1 10 -4.63591 0 33 -4.63591 1
gene 1 2 10 5.93289 0 44 5.93289 1
gene 1 3 10 0.446068 0 72 0.446068 1
gene 1 5 5 1.18503 1 83 1.18503 1
gene 1 10 10 0.219688 1 164 0.219688 1
gene 1 3 30 -0.765001 0 242 -0.765001 1
gene 1 30 5 -0.362421 0 243 -0.362421 1
gene 1 3 32 0.13405 0 253 0.13405 1
gene 1 32 30 2.4585 0 254 2.4585 1
gene 1 10 32 1.39456 0 258 1.39456 1
gene 1 2 32 -1.97733 0 268 -1.97733 1
genomeend 47

/* Species #157 : (Size 1) (AF 0) (Age 1)  */


/* Organism #48 Fitness: 19 Error: 0 */
genomestart 48
trait 1 0 0 1 1 0.0228496 0.472705 0 0.262752 
node 1 1 1 3
node 2 1 1 1
node 3 1 1 1
node 4 1 1 1
node 5 1 0 2
gene 1 1 5 -0.280846 0 1 -0.280846 1
gene 1 2 5 -1.34628 0 2 -1.34628 1
gene 1 3 5 -2.3451 0 3 -2.3451 1
gene 1 4 5 -7.08888 0 4 -7.08888 1
gene 1 5 5 -4.81214 1 27 -4.81214 1
genomeend 48

/* Species #158 : (Size 1) (AF 0) (Age 1)  */


/* Organism #49 Fitness: 17 Error: 0 */
genomestart 49
trait 1 0 0.0635306 0.277492 1 0.820418 0 0 0.262752 
node 1 1 1 3
node 2 1 1 1
node 3 1 1 1
node 4 1 1 1
node 5 1 0 2
node 27 1 0 0
gene 1 1 5 2.43165 0 1 2.43165 1
gene 1 2 5 1.73483 0 2 1.73483 1
gene 1 3 5 -5.30543 0 3 -5.30543 0
gene 1 4 5 1.12327 0 4 1.12327 0
gene 1 5 5 -0.367514 1 27 -0.367514 1
gene 1 4 27 0.40818 0 209 0.40818 1
gene 1 27 5 -0.811826 0 210 -0.811826 1
gene 1 2 27 0.91471 0 237 0.91471 1
gene 1 3 27 0.743937 0 241 0.743937 1
gene 1 1 27 0.681197 0 274 0.681197 1
genomeend 49
