
/* Species #58 : (Size 1) (AF 0) (Age 25)  */


/* Organism #0 Fitness: 19 Error: 0 */
genomestart 0
trait 1 0.450563 0 0.389784 0.0193255 0 0.575647 0.704511 0 
node 1 1 1 3
node 2 1 1 1
node 3 1 1 1
node 4 1 1 1
node 5 1 0 2
gene 1 1 5 4.05826 0 1 4.05826 1
gene 1 2 5 -0.35395 0 2 -0.35395 1
gene 1 3 5 5.23975 0 3 5.23975 1
gene 1 4 5 -0.572542 0 4 -0.572542 1
gene 1 5 5 1.77801 1 11 1.77801 1
genomeend 0

/* Species #59 : (Size 3) (AF 0) (Age 25)  */


/* Organism #1 Fitness: 19 Error: 0 */
genomestart 1
trait 1 0.395241 0 0.173393 0.059826 0.114214 0.967053 0 0.449451 
node 1 1 1 3
node 2 1 1 1
node 3 1 1 1
node 4 1 1 1
node 5 1 0 2
node 10 1 0 0
gene 1 1 5 -8 0 1 -8 1
gene 1 2 5 -1.89647 0 2 -1.89647 1
gene 1 3 5 2.36618 0 3 2.36618 1
gene 1 4 5 2.64399 0 4 2.64399 0
gene 1 4 10 5.70883 0 29 5.70883 1
gene 1 10 5 0.863375 0 30 0.863375 1
gene 1 1 10 -2.18136 0 33 -2.18136 1
gene 1 2 10 1.37305 0 44 1.37305 1
gene 1 3 10 2.94134 0 72 2.94134 1
gene 1 5 5 -2.25141 1 83 -2.25141 1
gene 1 10 10 -1.42292 1 156 -1.42292 1
gene 1 5 10 0.140598 1 215 0.140598 1
genomeend 1

/* Organism #2 Fitness: 24 Error: 0 */
genomestart 2
trait 1 0.395241 0 0.173393 0.059826 0.114214 0.967053 0 0.449451 
node 1 1 1 3
node 2 1 1 1
node 3 1 1 1
node 4 1 1 1
node 5 1 0 2
node 10 1 0 0
gene 1 1 5 -8 0 1 -8 1
gene 1 2 5 -1.89647 0 2 -1.89647 1
gene 1 3 5 2.36618 0 3 2.36618 1
gene 1 4 5 2.64399 0 4 2.64399 0
gene 1 4 10 5.70883 0 29 5.70883 1
gene 1 10 5 0.863375 0 30 0.863375 1
gene 1 1 10 -2.18136 0 33 -2.18136 1
gene 1 2 10 1.37305 0 44 1.37305 1
gene 1 3 10 2.94134 0 72 2.94134 1
gene 1 5 5 -2.25141 1 83 -2.25141 1
gene 1 10 10 -1.42292 1 156 -1.42292 1
genomeend 2

/* Organism #3 Fitness: 15 Error: 0 */
genomestart 3
trait 1 0.395241 0 0.173393 0.059826 0.114214 0.967053 0 0.449451 
node 1 1 1 3
node 2 1 1 1
node 3 1 1 1
node 4 1 1 1
node 5 1 0 2
node 10 1 0 0
gene 1 1 5 -7.96142 0 1 -7.96142 1
gene 1 2 5 -2.30927 0 2 -2.30927 1
gene 1 3 5 1.08816 0 3 1.08816 1
gene 1 4 5 3.20998 0 4 3.20998 0
gene 1 4 10 6.6486 0 29 6.6486 1
gene 1 10 5 0.867202 0 30 0.867202 1
gene 1 1 10 -2.85228 0 33 -2.85228 1
gene 1 2 10 -0.0895312 0 44 -0.0895312 1
gene 1 3 10 2.37902 0 72 2.37902 1
gene 1 5 5 -2.25141 1 83 -2.25141 1
gene 1 10 10 -0.0345816 1 156 -0.0345816 1
genomeend 3

/* Species #66 : (Size 2) (AF 0) (Age 23)  */


/* Organism #4 Fitness: 53 Error: 0 */
genomestart 4
trait 1 1 0.633598 0.0709163 1 1 0.119371 0 0.010314 
node 1 1 1 3
node 2 1 1 1
node 3 1 1 1
node 4 1 1 1
node 5 1 0 2
node 15 1 0 0
gene 1 1 5 -4.38332 0 1 -4.38332 1
gene 1 2 5 -2.13402 0 2 -2.13402 1
gene 1 3 5 1.55397 0 3 1.55397 1
gene 1 4 5 2.62587 0 4 2.62587 0
gene 1 5 5 0.312166 1 22 0.312166 1
gene 1 4 15 -1.37179 0 90 -1.37179 1
gene 1 15 5 0.728993 0 91 0.728993 1
gene 1 15 15 -0.857792 1 158 -0.857792 1
gene 1 1 15 -0.64293 0 180 -0.64293 1
gene 1 2 15 -1.10706 0 185 -1.10706 1
gene 1 3 15 0.108163 0 208 0.108163 1
genomeend 4

/* Organism #5 Fitness: 32 Error: 0 */
genomestart 5
trait 1 1 0.633598 0.0709163 1 1 0.119371 0 0.010314 
node 1 1 1 3
node 2 1 1 1
node 3 1 1 1
node 4 1 1 1
node 5 1 0 2
node 15 1 0 0
gene 1 1 5 -4.38332 0 1 -4.38332 1
gene 1 2 5 -2.13402 0 2 -2.13402 1
gene 1 3 5 1.55397 0 3 1.55397 1
gene 1 4 5 2.62587 0 4 2.62587 0
gene 1 5 5 0.312166 1 22 0.312166 1
gene 1 4 15 -1.37179 0 90 -1.37179 1
gene 1 15 5 0.728993 0 91 0.728993 1
gene 1 15 15 -0.857792 1 158 -0.857792 1
gene 1 1 15 -0.64293 0 180 -0.64293 1
gene 1 2 15 -1.10706 0 185 -1.10706 1
gene 1 3 15 0.108163 0 208 0.108163 1
genomeend 5

/* Species #85 : (Size 2) (AF 0) (Age 15)  */


/* Organism #6 Fitness: 21 Error: 0 */
genomestart 6
trait 1 0 0 0.345094 0 0.15741 0.835932 0 0.827847 
node 1 1 1 3
node 2 1 1 1
node 3 1 1 1
node 4 1 1 1
node 5 1 0 2
node 6 1 0 0
gene 1 1 5 1.50173 0 1 1.50173 1
gene 1 2 5 -0.550064 0 2 -0.550064 1
gene 1 3 5 -1.53204 0 3 -1.53204 1
gene 1 4 5 -0.62842 0 4 -0.62842 1
gene 1 2 6 -0.798907 0 7 -0.798907 1
gene 1 6 5 2.76881 0 8 2.76881 1
gene 1 1 6 -1.22062 0 107 -1.22062 1
gene 1 6 6 -1.25529 1 118 -1.25529 1
gene 1 5 5 1.11832 1 204 1.11832 1
genomeend 6

/* Organism #7 Fitness: 18 Error: 0 */
genomestart 7
trait 1 0 0 0.345094 0 0.15741 0.835932 0 0.827847 
node 1 1 1 3
node 2 1 1 1
node 3 1 1 1
node 4 1 1 1
node 5 1 0 2
node 6 1 0 0
gene 1 1 5 3.49535 0 1 3.49535 1
gene 1 2 5 -0.550064 0 2 -0.550064 0
gene 1 3 5 -0.890838 0 3 -0.890838 1
gene 1 4 5 -1.15482 0 4 -1.15482 1
gene 1 2 6 -2.50441 0 7 -2.50441 1
gene 1 6 5 3.8684 0 8 3.8684 1
gene 1 1 6 1.26582 0 107 1.26582 1
gene 1 6 6 -1.11052 1 118 -1.11052 0
gene 1 5 5 -0.654723 1 204 -0.654723 1
genomeend 7

/* Species #87 : (Size 1) (AF 0) (Age 14)  */


/* Organism #8 Fitness: 22 Error: 0 */
genomestart 8
trait 1 0.839538 0 0.81503 0 0 0.905546 0 0.619245 
node 1 1 1 3
node 2 1 1 1
node 3 1 1 1
node 4 1 1 1
node 5 1 0 2
node 13 1 0 0
gene 1 1 5 1.78932 0 1 1.78932 1
gene 1 2 5 2.82439 0 2 2.82439 1
gene 1 3 5 -1.49736 0 3 -1.49736 1
gene 1 4 5 -1.90635 0 4 -1.90635 0
gene 1 5 5 5.99771 1 11 5.99771 1
gene 1 4 13 4.37107 0 57 4.37107 1
gene 1 13 5 1.02832 0 58 1.02832 1
gene 1 2 13 -1.08694 0 78 -1.08694 1
gene 1 1 13 -2.39157 0 85 -2.39157 1
gene 1 3 13 2.25689 0 97 2.25689 1
gene 1 13 13 -1.84098 1 117 -1.84098 1
gene 1 5 13 -0.536911 1 193 -0.536911 1
genomeend 8

/* Species #89 : (Size 2) (AF 0) (Age 11)  */


/* Organism #9 Fitness: 24 Error: 0 */
genomestart 9
trait 1 0 0 1 0.00149193 0.233653 0.831499 0.797452 0.439901 
node 1 1 1 3
node 2 1 1 1
node 3 1 1 1
node 4 1 1 1
node 5 1 0 2
node 6 1 0 0
node 28 1 0 0
gene 1 1 5 1.73042 0 1 1.73042 1
gene 1 2 5 -3.84652 0 2 -3.84652 1
gene 1 3 5 6.11382 0 3 6.11382 1
gene 1 4 5 -0.0969138 0 4 -0.0969138 1
gene 1 2 6 -0.623491 0 7 -0.623491 0
gene 1 6 5 1.69691 0 8 1.69691 1
gene 1 6 6 -2.19721 1 48 -2.19721 0
gene 1 4 6 1.90538 0 54 1.90538 1
gene 1 5 5 5.95399 1 66 5.95399 1
gene 1 1 6 -5.2256 0 79 -5.2256 0
gene 1 5 6 -0.32684 1 104 -0.32684 1
gene 1 3 6 -0.481039 0 170 -0.481039 1
gene 1 2 28 1 0 211 0 1
gene 1 28 6 -0.623491 0 212 0 1
gene 1 1 28 -0.307536 0 216 -0.307536 1
genomeend 9

/* Organism #10 Fitness: 21 Error: 0 */
genomestart 10
trait 1 0 0 1 0.00149193 0.233653 0.831499 0.797452 0.439901 
node 1 1 1 3
node 2 1 1 1
node 3 1 1 1
node 4 1 1 1
node 5 1 0 2
node 6 1 0 0
node 28 1 0 0
gene 1 1 5 2.6099 0 1 2.6099 1
gene 1 2 5 -2.3258 0 2 -2.3258 1
gene 1 3 5 4.96855 0 3 4.96855 1
gene 1 4 5 -1.18225 0 4 -1.18225 1
gene 1 2 6 -0.611279 0 7 -0.611279 1
gene 1 6 5 -0.358179 0 8 -0.358179 1
gene 1 6 6 -2.66389 1 48 -2.66389 0
gene 1 4 6 0.807015 0 54 0.807015 1
gene 1 5 5 6.18552 1 66 6.18552 1
gene 1 1 6 -5.06767 0 79 -5.06767 0
gene 1 5 6 -0.150428 1 104 -0.150428 1
gene 1 3 6 0.387141 0 170 0.387141 1
gene 1 2 28 2.58624 0 211 2.58624 1
gene 1 28 6 -1.95203 0 212 -1.95203 1
genomeend 10

/* Species #91 : (Size 2) (AF 0) (Age 11)  */


/* Organism #11 Fitness: 16 Error: 0 */
genomestart 11
trait 1 0 0 0.345094 0 0 0.835932 0 0 
node 1 1 1 3
node 2 1 1 1
node 3 1 1 1
node 4 1 1 1
node 5 1 0 2
node 6 1 0 0
gene 1 1 5 1.19886 0 1 1.19886 1
gene 1 2 5 2.9769 0 2 2.9769 1
gene 1 3 5 -1.47365 0 3 -1.47365 1
gene 1 4 5 -1.49187 0 4 -1.49187 1
gene 1 2 6 3.96162 0 7 3.96162 1
gene 1 6 5 -0.444 0 8 -0.444 1
gene 1 1 6 3.74364 0 107 3.74364 1
gene 1 6 6 1.34197 1 118 1.34197 1
gene 1 4 6 2.29317 0 169 2.29317 1
gene 1 3 6 -0.997624 0 177 -0.997624 1
genomeend 11

/* Organism #12 Fitness: 15 Error: 0 */
genomestart 12
trait 1 0 0 0.345094 0 0 0.835932 0 0 
node 1 1 1 3
node 2 1 1 1
node 3 1 1 1
node 4 1 1 1
node 5 1 0 2
node 6 1 0 0
gene 1 1 5 1.19886 0 1 1.19886 1
gene 1 2 5 2.9769 0 2 2.9769 1
gene 1 3 5 -1.47365 0 3 -1.47365 1
gene 1 4 5 -1.49187 0 4 -1.49187 1
gene 1 2 6 3.96162 0 7 3.96162 1
gene 1 6 5 -0.444 0 8 -0.444 1
gene 1 1 6 3.74364 0 107 3.74364 1
gene 1 6 6 1.34197 1 118 1.34197 1
gene 1 4 6 2.29317 0 169 2.29317 1
gene 1 3 6 -0.997624 0 177 -0.997624 1
genomeend 12

/* Species #92 : (Size 1) (AF 0) (Age 11)  */


/* Organism #13 Fitness: 20 Error: 0 */
genomestart 13
trait 1 0.839538 0 1 0 0.200236 0.550987 0 0.619245 
node 1 1 1 3
node 2 1 1 1
node 3 1 1 1
node 4 1 1 1
node 5 1 0 2
node 13 1 0 0
gene 1 1 5 6.49797 0 1 6.49797 1
gene 1 2 5 0.307165 0 2 0.307165 1
gene 1 3 5 2.47572 0 3 2.47572 1
gene 1 4 5 -2.4743 0 4 -2.4743 0
gene 1 5 5 5.09995 1 11 5.09995 1
gene 1 4 13 8 0 57 8 1
gene 1 13 5 -2.71326 0 58 -2.71326 1
gene 1 2 13 -1.28011 0 78 -1.28011 1
gene 1 1 13 -1.6891 0 85 -1.6891 1
gene 1 3 13 0.217841 0 97 0.217841 1
gene 1 13 13 -1.12642 1 117 -1.12642 1
genomeend 13

/* Species #93 : (Size 1) (AF 0) (Age 10)  */


/* Organism #14 Fitness: 19 Error: 0 */
genomestart 14
trait 1 0.839538 0 1 0 0.200236 0.550987 0 0.619245 
node 1 1 1 3
node 2 1 1 1
node 3 1 1 1
node 4 1 1 1
node 5 1 0 2
node 13 1 0 0
gene 1 1 5 -1.16088 0 1 -1.16088 1
gene 1 2 5 -1.55445 0 2 -1.55445 1
gene 1 3 5 7.88311 0 3 7.88311 1
gene 1 4 5 -0.944543 0 4 -0.944543 0
gene 1 5 5 4.71263 1 11 4.71263 1
gene 1 4 13 -0.0610471 0 57 -0.0610471 1
gene 1 13 5 -0.0324989 0 58 -0.0324989 1
gene 1 2 13 -4.49297 0 78 -4.49297 1
gene 1 1 13 -5.32523 0 85 -5.32523 1
gene 1 3 13 1.03015 0 97 1.03015 1
gene 1 13 13 -1.77636 1 117 -1.77636 1
genomeend 14

/* Species #94 : (Size 1) (AF 0) (Age 9)  */


/* Organism #15 Fitness: 27 Error: 0 */
genomestart 15
trait 1 0.473791 0.186165 1 0 0.743499 0.905546 0 0.914283 
node 1 1 1 3
node 2 1 1 1
node 3 1 1 1
node 4 1 1 1
node 5 1 0 2
node 13 1 0 0
gene 1 1 5 0.0742351 0 1 0.0742351 1
gene 1 2 5 -5.33995 0 2 -5.33995 1
gene 1 3 5 6.95083 0 3 6.95083 1
gene 1 4 5 -1.05216 0 4 -1.05216 0
gene 1 5 5 2.19945 1 11 2.19945 1
gene 1 4 13 5.26564 0 57 5.26564 1
gene 1 13 5 -2.7883 0 58 -2.7883 1
gene 1 2 13 -0.456927 0 78 -0.456927 1
gene 1 1 13 -1.45914 0 85 -1.45914 1
gene 1 3 13 -0.911649 0 97 -0.911649 1
gene 1 13 13 -1.5795 1 117 -1.5795 1
genomeend 15

/* Species #95 : (Size 1) (AF 0) (Age 9)  */


/* Organism #16 Fitness: 19 Error: 0 */
genomestart 16
trait 1 0 0 0.345094 0 0 0.835932 0 0 
node 1 1 1 3
node 2 1 1 1
node 3 1 1 1
node 4 1 1 1
node 5 1 0 2
node 6 1 0 0
gene 1 1 5 0.89634 0 1 0.89634 1
gene 1 2 5 0.254766 0 2 0.254766 0
gene 1 3 5 6.82729 0 3 6.82729 1
gene 1 4 5 -2.8116 0 4 -2.8116 1
gene 1 2 6 1.67022 0 7 1.67022 1
gene 1 6 5 0.661308 0 8 0.661308 1
gene 1 1 6 1.70597 0 107 1.70597 1
gene 1 6 6 0.489867 1 118 0.489867 1
gene 1 3 6 -2.71111 0 165 -2.71111 1
gene 1 4 6 -1.29264 0 173 -1.29264 1
gene 1 5 5 0.637495 1 181 0.637495 1
genomeend 16

/* Species #96 : (Size 2) (AF 0) (Age 9)  */


/* Organism #17 Fitness: 10 Error: 0 */
genomestart 17
trait 1 1 0 1 0 0.741939 0 0 1 
node 1 1 1 3
node 2 1 1 1
node 3 1 1 1
node 4 1 1 1
node 5 1 0 2
node 13 1 0 0
gene 1 1 5 0.00200523 0 1 0.00200523 1
gene 1 2 5 1.02906 0 2 1.02906 1
gene 1 3 5 1.00332 0 3 1.00332 1
gene 1 4 5 0.166676 0 4 0.166676 0
gene 1 5 5 8 1 11 8 1
gene 1 4 13 -1.50851 0 57 -1.50851 1
gene 1 13 5 -2.1023 0 58 -2.1023 1
gene 1 2 13 -3.47745 0 78 -3.47745 1
gene 1 1 13 1.29743 0 85 1.29743 1
gene 1 3 13 0.0923699 0 97 0.0923699 1
gene 1 13 13 -2.37837 1 117 -2.37837 1
genomeend 17

/* Organism #18 Fitness: 13 Error: 0 */
genomestart 18
trait 1 1 0 1 0 0.741939 0 0 1 
node 1 1 1 3
node 2 1 1 1
node 3 1 1 1
node 4 1 1 1
node 5 1 0 2
node 13 1 0 0
gene 1 1 5 0.00200523 0 1 0.00200523 1
gene 1 2 5 1.02906 0 2 1.02906 1
gene 1 3 5 1.00332 0 3 1.00332 1
gene 1 4 5 0.166676 0 4 0.166676 0
gene 1 5 5 8 1 11 8 1
gene 1 4 13 -1.50851 0 57 -1.50851 1
gene 1 13 5 -2.1023 0 58 -2.1023 1
gene 1 2 13 -3.47745 0 78 -3.47745 1
gene 1 1 13 1.29743 0 85 1.29743 1
gene 1 3 13 0.0923699 0 97 0.0923699 1
gene 1 13 13 -2.37837 1 117 -2.37837 1
genomeend 18

/* Species #97 : (Size 2) (AF 0) (Age 8)  */


/* Organism #19 Fitness: 23 Error: 0 */
genomestart 19
trait 1 0.395241 0 0.173393 0.059826 0.114214 0.967053 0 0.449451 
node 1 1 1 3
node 2 1 1 1
node 3 1 1 1
node 4 1 1 1
node 5 1 0 2
node 10 1 0 0
node 23 1 0 0
gene 1 1 5 -0.28722 0 1 -0.28722 0
gene 1 2 5 -3.18215 0 2 -3.18215 1
gene 1 3 5 0.888721 0 3 0.888721 0
gene 1 4 5 2.99281 0 4 2.99281 0
gene 1 4 10 5.00347 0 29 5.00347 1
gene 1 10 5 1.97476 0 30 1.97476 0
gene 1 1 10 -3.55539 0 33 -3.55539 1
gene 1 2 10 -2.795 0 44 -2.795 1
gene 1 3 10 3.34215 0 72 3.34215 1
gene 1 5 5 0.00513164 1 83 0.00513164 1
gene 1 10 10 0.219396 1 156 0.219396 1
gene 1 5 10 -0.172119 1 162 -0.172119 1
gene 1 10 23 1 0 182 1 1
gene 1 23 5 0.116543 0 183 0.116543 1
gene 1 23 23 -0.211548 1 205 -0.211548 1
gene 1 4 23 -0.105865 0 213 -0.105865 1
gene 1 1 23 -0.474403 0 217 -0.474403 1
genomeend 19

/* Organism #20 Fitness: 20 Error: 0 */
genomestart 20
trait 1 0.395241 0 0.173393 0.059826 0.114214 0.967053 0 0.449451 
node 1 1 1 3
node 2 1 1 1
node 3 1 1 1
node 4 1 1 1
node 5 1 0 2
node 10 1 0 0
node 23 1 0 0
gene 1 1 5 -0.28722 0 1 -0.28722 0
gene 1 2 5 -3.18215 0 2 -3.18215 1
gene 1 3 5 0.888721 0 3 0.888721 0
gene 1 4 5 2.99281 0 4 2.99281 0
gene 1 4 10 5.00347 0 29 5.00347 1
gene 1 10 5 1.97476 0 30 1.97476 0
gene 1 1 10 -3.55539 0 33 -3.55539 1
gene 1 2 10 -2.795 0 44 -2.795 1
gene 1 3 10 3.34215 0 72 3.34215 1
gene 1 5 5 0.00513164 1 83 0.00513164 1
gene 1 10 10 0.219396 1 156 0.219396 1
gene 1 5 10 -0.172119 1 162 -0.172119 1
gene 1 10 23 1 0 182 1 1
gene 1 23 5 0.116543 0 183 0.116543 1
gene 1 23 23 -0.211548 1 205 -0.211548 1
gene 1 4 23 -0.105865 0 213 -0.105865 1
genomeend 20

/* Species #99 : (Size 2) (AF 0) (Age 8)  */


/* Organism #21 Fitness: 34 Error: 0 */
genomestart 21
trait 1 0.792232 0 0.713696 0 0.200236 0.550987 0.124788 0.619245 
node 1 1 1 3
node 2 1 1 1
node 3 1 1 1
node 4 1 1 1
node 5 1 0 2
node 13 1 0 0
gene 1 1 5 -2.16484 0 1 -2.16484 1
gene 1 2 5 -3.72891 0 2 -3.72891 1
gene 1 3 5 3.11238 0 3 3.11238 1
gene 1 4 5 3.07416 0 4 3.07416 0
gene 1 5 5 2.05467 1 11 2.05467 1
gene 1 4 13 1.66305 0 57 1.66305 1
gene 1 13 5 -0.891362 0 58 -0.891362 1
gene 1 2 13 -5.1179 0 78 -5.1179 1
gene 1 1 13 5.22856 0 85 5.22856 1
gene 1 3 13 -1.09243 0 97 -1.09243 1
gene 1 13 13 -2.12807 1 117 -2.12807 1
gene 1 5 13 -0.451847 1 218 -0.451847 1
genomeend 21

/* Organism #22 Fitness: 28 Error: 0 */
genomestart 22
trait 1 0.792232 0 0.713696 0 0.200236 0.550987 0.124788 0.619245 
node 1 1 1 3
node 2 1 1 1
node 3 1 1 1
node 4 1 1 1
node 5 1 0 2
node 13 1 0 0
gene 1 1 5 -2.16484 0 1 -2.16484 1
gene 1 2 5 -3.72891 0 2 -3.72891 1
gene 1 3 5 3.11238 0 3 3.11238 1
gene 1 4 5 3.07416 0 4 3.07416 0
gene 1 5 5 2.05467 1 11 2.05467 1
gene 1 4 13 1.66305 0 57 1.66305 1
gene 1 13 5 -0.891362 0 58 -0.891362 1
gene 1 2 13 -5.1179 0 78 -5.1179 1
gene 1 1 13 5.22856 0 85 5.22856 1
gene 1 3 13 -1.09243 0 97 -1.09243 1
gene 1 13 13 -2.12807 1 117 -2.12807 1
genomeend 22

/* Species #100 : (Size 1) (AF 0) (Age 7)  */


/* Organism #23 Fitness: 22 Error: 0 */
genomestart 23
trait 1 0.315387 0 0.786311 0.059826 0.612301 1 0.150415 0.149842 
node 1 1 1 3
node 2 1 1 1
node 3 1 1 1
node 4 1 1 1
node 5 1 0 2
node 10 1 0 0
gene 1 1 5 1.42424 0 1 1.42424 1
gene 1 2 5 -2.16726 0 2 -2.16726 1
gene 1 3 5 -1.90958 0 3 -1.90958 1
gene 1 4 5 -1.99657 0 4 -1.99657 1
gene 1 4 10 0.729294 0 29 0.729294 1
gene 1 10 5 1.77242 0 30 1.77242 1
gene 1 1 10 -0.730506 0 33 -0.730506 1
gene 1 2 10 -0.928827 0 49 -0.928827 1
gene 1 3 10 1.44541 0 80 1.44541 1
gene 1 5 10 -0.745228 1 92 -0.745228 1
genomeend 23

/* Species #105 : (Size 1) (AF 0) (Age 6)  */


/* Organism #24 Fitness: 9 Error: 0 */
genomestart 24
trait 1 1 0 1 0 0.773758 0.550987 0 1 
node 1 1 1 3
node 2 1 1 1
node 3 1 1 1
node 4 1 1 1
node 5 1 0 2
node 13 1 0 0
node 26 1 0 0
gene 1 1 5 0.311248 0 1 0.311248 1
gene 1 2 5 -1.11863 0 2 -1.11863 0
gene 1 3 5 4.5506 0 3 4.5506 1
gene 1 4 5 1.50558 0 4 1.50558 0
gene 1 5 5 3.73202 1 11 3.73202 1
gene 1 4 13 0.337746 0 57 0.337746 1
gene 1 13 5 0.565446 0 58 0.565446 1
gene 1 2 13 -3.63764 0 78 -3.63764 1
gene 1 1 13 0.820896 0 85 0.820896 1
gene 1 3 13 -1.33118 0 97 -1.33118 1
gene 1 13 13 -0.44928 1 117 -0.44928 1
gene 1 5 13 0.246759 1 189 0.246759 1
gene 1 2 26 1 0 200 0 1
gene 1 26 5 -1.11863 0 201 0 1
gene 1 26 26 0.159624 1 214 0.159624 1
gene 1 1 26 0.847827 0 219 0.847827 1
genomeend 24

/* Species #107 : (Size 1) (AF 0) (Age 5)  */


/* Organism #25 Fitness: 10 Error: 0 */
genomestart 25
trait 1 0 0.11884 0.681582 1 0 0 0 0 
node 1 1 1 3
node 2 1 1 1
node 3 1 1 1
node 4 1 1 1
node 5 1 0 2
gene 1 1 5 1.45943 0 1 1.45943 1
gene 1 2 5 -1.60119 0 2 -1.60119 1
gene 1 3 5 1.64301 0 3 1.64301 1
gene 1 4 5 3.09148 0 4 3.09148 1
gene 1 5 5 -0.0506507 1 27 -0.0506507 1
genomeend 25

/* Species #108 : (Size 2) (AF 0) (Age 5)  */


/* Organism #26 Fitness: 11 Error: 0 */
genomestart 26
trait 1 0 0 0.870487 0 0.400832 0.967053 0.911247 0 
node 1 1 1 3
node 2 1 1 1
node 3 1 1 1
node 4 1 1 1
node 5 1 0 2
node 10 1 0 0
gene 1 1 5 0.922676 0 1 0.922676 1
gene 1 2 5 4.93756 0 2 4.93756 1
gene 1 3 5 -1.61917 0 3 -1.61917 1
gene 1 4 5 4.14837 0 4 4.14837 1
gene 1 4 10 -1.28682 0 29 -1.28682 1
gene 1 10 5 -0.620439 0 30 -0.620439 1
gene 1 1 10 -1.38064 0 33 -1.38064 1
gene 1 2 10 -0.88603 0 44 -0.88603 1
gene 1 3 10 -0.855689 0 72 -0.855689 1
gene 1 5 5 -2.84818 1 83 -2.84818 1
genomeend 26

/* Organism #27 Fitness: 9 Error: 0 */
genomestart 27
trait 1 0 0 0.870487 0 0.400832 0.967053 0.911247 0 
node 1 1 1 3
node 2 1 1 1
node 3 1 1 1
node 4 1 1 1
node 5 1 0 2
node 10 1 0 0
gene 1 1 5 0.922676 0 1 0.922676 1
gene 1 2 5 4.93756 0 2 4.93756 1
gene 1 3 5 -1.61917 0 3 -1.61917 1
gene 1 4 5 4.14837 0 4 4.14837 1
gene 1 4 10 -1.28682 0 29 -1.28682 1
gene 1 10 5 -0.620439 0 30 -0.620439 1
gene 1 1 10 -1.38064 0 33 -1.38064 1
gene 1 2 10 -0.88603 0 44 -0.88603 1
gene 1 3 10 -0.855689 0 72 -0.855689 1
gene 1 5 5 -2.84818 1 83 -2.84818 1
gene 1 5 10 0.134053 1 220 0.134053 1
genomeend 27

/* Species #109 : (Size 1) (AF 0) (Age 4)  */


/* Organism #28 Fitness: 16 Error: 0 */
genomestart 28
trait 1 0.152852 0 0.345094 0.931537 0 0.835932 0 0.363922 
node 1 1 1 3
node 2 1 1 1
node 3 1 1 1
node 4 1 1 1
node 5 1 0 2
node 6 1 0 0
gene 1 1 5 3.81651 0 1 3.81651 1
gene 1 2 5 1.38811 0 2 1.38811 1
gene 1 3 5 -0.912384 0 3 -0.912384 1
gene 1 4 5 1.77916 0 4 1.77916 1
gene 1 2 6 -0.0214362 0 7 -0.0214362 1
gene 1 6 5 -2.01313 0 8 -2.01313 1
gene 1 1 6 3.37194 0 107 3.37194 1
gene 1 6 6 -3.11368 1 118 -3.11368 1
gene 1 4 6 0.233737 0 169 0.233737 1
gene 1 3 6 -0.529932 0 177 -0.529932 1
genomeend 28

/* Species #110 : (Size 2) (AF 0) (Age 4)  */


/* Organism #29 Fitness: 16 Error: 0 */
genomestart 29
trait 1 1 0 0.173393 0.059826 0.114214 0.967053 0 0.449451 
node 1 1 1 3
node 2 1 1 1
node 3 1 1 1
node 4 1 1 1
node 5 1 0 2
node 10 1 0 0
node 23 1 0 0
gene 1 1 5 -2.47492 0 1 -2.47492 0
gene 1 2 5 -0.797718 0 2 -0.797718 1
gene 1 3 5 3.10209 0 3 3.10209 0
gene 1 4 5 -0.427504 0 4 -0.427504 0
gene 1 4 10 3.48799 0 29 3.48799 1
gene 1 10 5 1.88961 0 30 1.88961 0
gene 1 1 10 1.60661 0 33 1.60661 1
gene 1 2 10 -4.50553 0 44 -4.50553 1
gene 1 3 10 1.50212 0 72 1.50212 1
gene 1 5 5 3.06348 1 83 3.06348 1
gene 1 10 10 0.785862 1 156 0.785862 1
gene 1 5 10 -2.18044 1 162 -2.18044 1
gene 1 10 23 1.20859 0 182 1.20859 1
gene 1 23 5 1.90088 0 183 1.90088 1
gene 1 5 23 -0.47604 1 206 -0.47604 1
genomeend 29

/* Organism #30 Fitness: 20 Error: 0 */
genomestart 30
trait 1 1 0 0.173393 0.059826 0.114214 0.967053 0 0.449451 
node 1 1 1 3
node 2 1 1 1
node 3 1 1 1
node 4 1 1 1
node 5 1 0 2
node 10 1 0 0
node 23 1 0 0
gene 1 1 5 -0.960553 0 1 -0.960553 0
gene 1 2 5 -1.51018 0 2 -1.51018 1
gene 1 3 5 2.16222 0 3 2.16222 0
gene 1 4 5 0.8921 0 4 0.8921 0
gene 1 4 10 4.10651 0 29 4.10651 1
gene 1 10 5 0.59334 0 30 0.59334 0
gene 1 1 10 1.3444 0 33 1.3444 1
gene 1 2 10 -4.51416 0 44 -4.51416 1
gene 1 3 10 1.12569 0 72 1.12569 1
gene 1 5 5 1.42985 1 83 1.42985 1
gene 1 10 10 -0.19065 1 156 -0.19065 1
gene 1 5 10 -1.24345 1 162 -1.24345 1
gene 1 10 23 2.54583 0 182 2.54583 1
gene 1 23 5 1.90088 0 183 1.90088 1
gene 1 5 23 -0.47604 1 206 -0.47604 1
gene 1 1 23 -0.474403 0 217 0 1
genomeend 30

/* Species #111 : (Size 2) (AF 0) (Age 4)  */


/* Organism #31 Fitness: 14 Error: 0 */
genomestart 31
trait 1 0.729304 0 1 0.528331 0.0103718 0.242698 0 0.619245 
node 1 1 1 3
node 2 1 1 1
node 3 1 1 1
node 4 1 1 1
node 5 1 0 2
node 13 1 0 0
gene 1 1 5 -0.68107 0 1 -0.68107 1
gene 1 2 5 1.42244 0 2 1.42244 1
gene 1 3 5 0.185785 0 3 0.185785 1
gene 1 4 5 1.54355 0 4 1.54355 0
gene 1 5 5 -1.48474 1 11 -1.48474 1
gene 1 4 13 -0.3153 0 57 -0.3153 1
gene 1 13 5 -1.49099 0 58 -1.49099 1
gene 1 2 13 0.895191 0 78 0.895191 1
gene 1 1 13 0.00907914 0 85 0.00907914 1
gene 1 3 13 2.52802 0 97 2.52802 1
gene 1 13 13 -1.15514 1 117 -1.15514 1
genomeend 31

/* Organism #32 Fitness: 17 Error: 0 */
genomestart 32
trait 1 0.729304 0 1 0.528331 0.0103718 0.242698 0 0.619245 
node 1 1 1 3
node 2 1 1 1
node 3 1 1 1
node 4 1 1 1
node 5 1 0 2
node 13 1 0 0
gene 1 1 5 -0.68107 0 1 -0.68107 1
gene 1 2 5 1.42244 0 2 1.42244 1
gene 1 3 5 0.185785 0 3 0.185785 1
gene 1 4 5 1.54355 0 4 1.54355 1
gene 1 5 5 -1.48474 1 11 -1.48474 1
gene 1 4 13 -0.3153 0 57 -0.3153 1
gene 1 13 5 -1.49099 0 58 -1.49099 1
gene 1 2 13 0.895191 0 78 0.895191 1
gene 1 1 13 0.00907914 0 85 0.00907914 1
gene 1 3 13 2.52802 0 97 2.52802 1
gene 1 13 13 -1.15514 1 117 -1.15514 1
genomeend 32

/* Species #112 : (Size 1) (AF 0) (Age 3)  */


/* Organism #33 Fitness: 19 Error: 0 */
genomestart 33
trait 1 0.395241 0 0.173393 0.059826 0.114214 0.967053 0 0.449451 
node 1 1 1 3
node 2 1 1 1
node 3 1 1 1
node 4 1 1 1
node 5 1 0 2
node 10 1 0 0
gene 1 1 5 1.73778 0 1 1.73778 1
gene 1 2 5 -2.645 0 2 -2.645 1
gene 1 3 5 1.16922 0 3 1.16922 1
gene 1 4 5 8 0 4 8 0
gene 1 4 10 0.79794 0 29 0.79794 1
gene 1 10 5 -0.734304 0 30 -0.734304 0
gene 1 1 10 -1.2922 0 33 -1.2922 1
gene 1 2 10 -2.40754 0 44 -2.40754 1
gene 1 3 10 -1.80356 0 72 -1.80356 1
gene 1 5 5 -2.76326 1 83 -2.76326 1
gene 1 10 10 -0.413707 1 156 -0.413707 1
genomeend 33

/* Species #113 : (Size 1) (AF 0) (Age 3)  */


/* Organism #34 Fitness: 17 Error: 0 */
genomestart 34
trait 1 0.0287772 0 0.759157 1 0 0 0.431419 0.262752 
node 1 1 1 3
node 2 1 1 1
node 3 1 1 1
node 4 1 1 1
node 5 1 0 2
gene 1 1 5 1.23982 0 1 1.23982 1
gene 1 2 5 0.761133 0 2 0.761133 1
gene 1 3 5 -7.86551 0 3 -7.86551 1
gene 1 4 5 -2.33013 0 4 -2.33013 1
gene 1 5 5 -4.28944 1 27 -4.28944 1
genomeend 34

/* Species #114 : (Size 1) (AF 0) (Age 3)  */


/* Organism #35 Fitness: 25 Error: 0 */
genomestart 35
trait 1 0 0 1 0.00149193 0.233653 0.831499 0.797452 0.439901 
node 1 1 1 3
node 2 1 1 1
node 3 1 1 1
node 4 1 1 1
node 5 1 0 2
node 6 1 0 0
gene 1 1 5 0.542008 0 1 0.542008 1
gene 1 2 5 -3.80979 0 2 -3.80979 1
gene 1 3 5 -1.34401 0 3 -1.34401 1
gene 1 4 5 0.179312 0 4 0.179312 1
gene 1 2 6 0.216664 0 7 0.216664 1
gene 1 6 5 -1.75524 0 8 -1.75524 1
gene 1 6 6 -4.47889 1 48 -4.47889 0
gene 1 4 6 -0.730719 0 54 -0.730719 1
gene 1 5 5 6.76404 1 66 6.76404 1
gene 1 1 6 -5.63999 0 79 -5.63999 0
gene 1 5 6 3.51549 1 104 3.51549 1
gene 1 3 6 0.314365 0 170 0.314365 1
genomeend 35

/* Species #115 : (Size 1) (AF 0) (Age 3)  */


/* Organism #36 Fitness: 8 Error: 0 */
genomestart 36
trait 1 0.395241 0 0.173393 0.059826 0.114214 0.209639 0.0304699 0.290669 
node 1 1 1 3
node 2 1 1 1
node 3 1 1 1
node 4 1 1 1
node 5 1 0 2
node 10 1 0 0
node 23 1 0 0
gene 1 1 5 0.593767 0 1 0.593767 0
gene 1 2 5 0.711478 0 2 0.711478 1
gene 1 3 5 1.50639 0 3 1.50639 0
gene 1 4 5 0.912962 0 4 0.912962 0
gene 1 4 10 3.11055 0 29 3.11055 1
gene 1 10 5 -1.77071 0 30 -1.77071 0
gene 1 1 10 -4.13157 0 33 -4.13157 1
gene 1 2 10 -2.99624 0 44 -2.99624 1
gene 1 3 10 -2.69811 0 72 -2.69811 1
gene 1 5 5 -0.887433 1 83 -0.887433 1
gene 1 10 10 2.33565 1 156 2.33565 1
gene 1 5 10 -1.0014 1 162 -1.0014 1
gene 1 10 23 -2.00456 0 182 -2.00456 1
gene 1 23 5 -1.39908 0 183 -1.39908 1
gene 1 23 23 -0.709191 1 221 -0.709191 1
genomeend 36

/* Species #117 : (Size 2) (AF 0) (Age 2)  */


/* Organism #37 Fitness: 23 Error: 0 */
genomestart 37
trait 1 0.395241 0 0.173393 0.059826 0.114214 0.967053 0 0.449451 
node 1 1 1 3
node 2 1 1 1
node 3 1 1 1
node 4 1 1 1
node 5 1 0 2
node 10 1 0 0
gene 1 1 5 -8 0 1 -8 1
gene 1 2 5 -3.19978 0 2 -3.19978 1
gene 1 3 5 2.90686 0 3 2.90686 1
gene 1 4 5 -1.11335 0 4 -1.11335 0
gene 1 4 10 2.64054 0 29 2.64054 1
gene 1 10 5 1.28664 0 30 1.28664 1
gene 1 1 10 0.642068 0 33 0.642068 1
gene 1 2 10 -1.47042 0 44 -1.47042 1
gene 1 3 10 -1.64202 0 72 -1.64202 1
gene 1 5 5 -3.80078 1 83 -3.80078 1
gene 1 10 10 0.298064 1 156 0.298064 1
genomeend 37

/* Organism #38 Fitness: 21 Error: 0 */
genomestart 38
trait 1 0.395241 0 0.173393 0.059826 0.114214 0.967053 0 0.449451 
node 1 1 1 3
node 2 1 1 1
node 3 1 1 1
node 4 1 1 1
node 5 1 0 2
node 10 1 0 0
gene 1 1 5 -8 0 1 -8 1
gene 1 2 5 0.0130704 0 2 0.0130704 1
gene 1 3 5 3.47371 0 3 3.47371 1
gene 1 4 5 -0.551325 0 4 -0.551325 0
gene 1 4 10 3.21033 0 29 3.21033 1
gene 1 10 5 2.20443 0 30 2.20443 1
gene 1 1 10 -0.829701 0 33 -0.829701 1
gene 1 2 10 -2.6607 0 44 -2.6607 1
gene 1 3 10 -0.130056 0 72 -0.130056 1
gene 1 5 5 -5.1684 1 83 -5.1684 1
gene 1 10 10 0.127982 1 156 0.127982 1
genomeend 38

/* Species #118 : (Size 1) (AF 0) (Age 2)  */


/* Organism #39 Fitness: 21 Error: 0 */
genomestart 39
trait 1 0 0 1 1 0.820418 0.135332 0 0.262752 
node 1 1 1 3
node 2 1 1 1
node 3 1 1 1
node 4 1 1 1
node 5 1 0 2
gene 1 1 5 4.71657 0 1 4.71657 1
gene 1 2 5 -0.119973 0 2 -0.119973 1
gene 1 3 5 -6.90743 0 3 -6.90743 1
gene 1 4 5 -3.0085 0 4 -3.0085 1
gene 1 5 5 -4.9695 1 27 -4.9695 1
genomeend 39

/* Species #119 : (Size 1) (AF 0) (Age 2)  */


/* Organism #40 Fitness: 19 Error: 0 */
genomestart 40
trait 1 0.395241 0 0.173393 0.059826 0.114214 0.967053 0 0.449451 
node 1 1 1 3
node 2 1 1 1
node 3 1 1 1
node 4 1 1 1
node 5 1 0 2
node 10 1 0 0
gene 1 1 5 -2.62854 0 1 -2.62854 1
gene 1 2 5 3.00799 0 2 3.00799 1
gene 1 3 5 0.00344952 0 3 0.00344952 1
gene 1 4 5 0.649416 0 4 0.649416 0
gene 1 4 10 -1.36531 0 29 -1.36531 1
gene 1 10 5 -1.47691 0 30 -1.47691 1
gene 1 1 10 -0.207488 0 33 -0.207488 0
gene 1 2 10 -2.16314 0 44 -2.16314 1
gene 1 3 10 0.683754 0 72 0.683754 1
gene 1 5 5 -0.559056 1 83 -0.559056 1
genomeend 40

/* Species #120 : (Size 1) (AF 0) (Age 2)  */


/* Organism #41 Fitness: 9 Error: 0 */
genomestart 41
trait 1 0.645051 0 0.602407 0.00966274 0 0.740596 0.406271 0.506351 
node 1 1 1 3
node 2 1 1 1
node 3 1 1 1
node 4 1 1 1
node 5 1 0 2
gene 1 1 5 0.359477 0 1 0.359477 1
gene 1 2 5 -1.43906 0 2 -1.43906 1
gene 1 3 5 0.155647 0 3 0.155647 1
gene 1 4 5 1.78733 0 4 1.78733 1
gene 1 5 5 -2.26266 1 11 -2.26266 1
genomeend 41

/* Species #122 : (Size 2) (AF 0) (Age 2)  */


/* Organism #42 Fitness: 18 Error: 0 */
genomestart 42
trait 1 0.395241 0 0.173393 0.059826 0.114214 0.967053 0 0.449451 
node 1 1 1 3
node 2 1 1 1
node 3 1 1 1
node 4 1 1 1
node 5 1 0 2
node 10 1 0 0
node 23 1 0 0
gene 1 1 5 -2.03028 0 1 -2.03028 0
gene 1 2 5 -2.03496 0 2 -2.03496 1
gene 1 3 5 2.57585 0 3 2.57585 0
gene 1 4 5 0.305227 0 4 0.305227 0
gene 1 4 10 -0.520045 0 29 -0.520045 1
gene 1 10 5 1.13823 0 30 1.13823 0
gene 1 1 10 -1.81896 0 33 -1.81896 1
gene 1 2 10 -3.04882 0 44 -3.04882 1
gene 1 3 10 0.159879 0 72 0.159879 1
gene 1 5 5 0.58967 1 83 0.58967 1
gene 1 10 10 -0.492741 1 156 -0.492741 1
gene 1 5 10 -0.993521 1 162 -0.993521 1
gene 1 10 23 2.3684 0 182 2.3684 1
gene 1 23 5 0.711466 0 183 0.711466 1
gene 1 23 23 -1.71508 1 205 -1.71508 1
gene 1 23 10 0.359392 1 222 0.359392 1
genomeend 42

/* Organism #43 Fitness: 24 Error: 0 */
genomestart 43
trait 1 0.395241 0 0.173393 0.059826 0.114214 0.967053 0 0.449451 
node 1 1 1 3
node 2 1 1 1
node 3 1 1 1
node 4 1 1 1
node 5 1 0 2
node 10 1 0 0
node 23 1 0 0
gene 1 1 5 -2.03028 0 1 -2.03028 0
gene 1 2 5 -2.03496 0 2 -2.03496 1
gene 1 3 5 2.57585 0 3 2.57585 0
gene 1 4 5 0.305227 0 4 0.305227 0
gene 1 4 10 -0.520045 0 29 -0.520045 1
gene 1 10 5 1.13823 0 30 1.13823 0
gene 1 1 10 -1.81896 0 33 -1.81896 1
gene 1 2 10 -3.04882 0 44 -3.04882 1
gene 1 3 10 0.159879 0 72 0.159879 1
gene 1 5 5 0.58967 1 83 0.58967 1
gene 1 10 10 -0.492741 1 156 -0.492741 1
gene 1 5 10 -0.993521 1 162 -0.993521 1
gene 1 10 23 2.3684 0 182 2.3684 1
gene 1 23 5 0.711466 0 183 0.711466 1
gene 1 23 23 -1.71508 1 205 -1.71508 1
gene 1 4 23 -0.608141 0 223 -0.608141 1
genomeend 43

/* Species #123 : (Size 2) (AF 0) (Age 2)  */


/* Organism #44 Fitness: 17 Error: 0 */
genomestart 44
trait 1 0.395241 0 0.173393 0.059826 0.383063 0.967053 0 0.449451 
node 1 1 1 3
node 2 1 1 1
node 3 1 1 1
node 4 1 1 1
node 5 1 0 2
node 10 1 0 0
gene 1 1 5 4.14743 0 1 4.14743 0
gene 1 2 5 0.178898 0 2 0.178898 1
gene 1 3 5 1.66392 0 3 1.66392 1
gene 1 4 5 2.81693 0 4 2.81693 0
gene 1 4 10 2.26698 0 29 2.26698 1
gene 1 10 5 2.48312 0 30 2.48312 1
gene 1 1 10 0.418066 0 33 0.418066 1
gene 1 2 10 -2.67687 0 44 -2.67687 1
gene 1 3 10 -0.861279 0 72 -0.861279 1
gene 1 5 5 -0.600328 1 83 -0.600328 1
gene 1 10 10 0.133224 1 156 0.133224 1
gene 1 5 10 2.64658 1 202 2.64658 1
genomeend 44

/* Organism #45 Fitness: 5 Error: 0 */
genomestart 45
trait 1 0.395241 0 0.173393 0.059826 0.383063 0.967053 0 0.449451 
node 1 1 1 3
node 2 1 1 1
node 3 1 1 1
node 4 1 1 1
node 5 1 0 2
node 10 1 0 0
gene 1 1 5 2.44811 0 1 2.44811 0
gene 1 2 5 0.655886 0 2 0.655886 1
gene 1 3 5 3.32602 0 3 3.32602 1
gene 1 4 5 4.24628 0 4 4.24628 0
gene 1 4 10 3.84507 0 29 3.84507 1
gene 1 10 5 3.2357 0 30 3.2357 1
gene 1 1 10 0.503597 0 33 0.503597 1
gene 1 2 10 -2.09204 0 44 -2.09204 1
gene 1 3 10 0.289552 0 72 0.289552 1
gene 1 5 5 1.08331 1 83 1.08331 1
gene 1 10 10 -1.41251 1 156 -1.41251 1
gene 1 5 10 0.860161 1 202 0.860161 1
genomeend 45

/* Species #124 : (Size 1) (AF 0) (Age 1)  */


/* Organism #46 Fitness: 17 Error: 0 */
genomestart 46
trait 1 0 0 1 1 0.820418 0.135332 0 0.262752 
node 1 1 1 3
node 2 1 1 1
node 3 1 1 1
node 4 1 1 1
node 5 1 0 2
node 27 1 0 0
gene 1 1 5 4.78859 0 1 4.78859 1
gene 1 2 5 0.0836621 0 2 0.0836621 1
gene 1 3 5 -6.94798 0 3 -6.94798 1
gene 1 4 5 2.42174 0 4 2.42174 0
gene 1 5 5 -3.06428 1 27 -3.06428 1
gene 1 4 27 0.805724 0 209 0.805724 1
gene 1 27 5 5.81226 0 210 5.81226 1
genomeend 46

/* Species #125 : (Size 1) (AF 0) (Age 1)  */


/* Organism #47 Fitness: 16 Error: 0 */
genomestart 47
trait 1 0.0257954 0 0 0.059826 0 0 0 0.449451 
node 1 1 1 3
node 2 1 1 1
node 3 1 1 1
node 4 1 1 1
node 5 1 0 2
node 10 1 0 0
gene 1 1 5 1.10266 0 1 1.10266 1
gene 1 2 5 -4.88047 0 2 -4.88047 1
gene 1 3 5 -1.75477 0 3 -1.75477 1
gene 1 4 5 4.85333 0 4 4.85333 0
gene 1 4 10 0.125809 0 29 0.125809 1
gene 1 10 5 -1.70561 0 30 -1.70561 1
gene 1 1 10 -3.39271 0 33 -3.39271 1
gene 1 2 10 4.78163 0 44 4.78163 1
gene 1 3 10 1.6237 0 72 1.6237 1
gene 1 5 5 1.44513 1 83 1.44513 1
gene 1 10 10 0.186419 1 164 0.186419 1
genomeend 47

/* Species #126 : (Size 1) (AF 0) (Age 1)  */


/* Organism #48 Fitness: 18 Error: 0 */
genomestart 48
trait 1 0.473791 0.186165 1 0 0.743499 0.905546 0 0.914283 
node 1 1 1 3
node 2 1 1 1
node 3 1 1 1
node 4 1 1 1
node 5 1 0 2
node 13 1 0 0
gene 1 1 5 0.0742351 0 1 0.0742351 1
gene 1 2 5 1.18704 0 2 1.18704 1
gene 1 3 5 -1.17399 0 3 -1.17399 1
gene 1 4 5 -0.504629 0 4 -0.504629 0
gene 1 5 5 3.40163 1 11 3.40163 1
gene 1 4 13 6.443 0 57 6.443 1
gene 1 13 5 -2.7883 0 58 -2.7883 1
gene 1 2 13 0.630376 0 78 0.630376 1
gene 1 1 13 -1.45914 0 85 -1.45914 1
gene 1 3 13 0.233327 0 97 0.233327 1
gene 1 13 13 -2.5584 1 117 -2.5584 1
genomeend 48

/* Species #127 : (Size 1) (AF 0) (Age 1)  */


/* Organism #49 Fitness: 14 Error: 0 */
genomestart 49
trait 1 0.0287772 0 0.759157 0.185877 0.0177836 0 0.374906 0.262752 
node 1 1 1 3
node 2 1 1 1
node 3 1 1 1
node 4 1 1 1
node 5 1 0 2
gene 1 1 5 1.23982 0 1 1.23982 1
gene 1 2 5 0.627254 0 2 0.627254 1
gene 1 3 5 1.58158 0 3 1.58158 1
gene 1 4 5 1.35476 0 4 1.35476 1
gene 1 5 5 -4.49476 1 27 -4.49476 1
genomeend 49
