genomestart 1
trait 1 0.0257954 0 0.992938 0.582837 0.970954 0 0.74398 1 
node 1 1 1 3
node 2 1 1 1
node 3 1 1 1
node 4 1 1 1
node 5 1 0 2
node 10 1 0 0
node 30 1 0 0
node 32 1 0 0
node 35 1 0 0
gene 1 1 5 2.95424 0 1 2.95424 1
gene 1 2 5 -3.5313 0 2 -3.5313 1
gene 1 3 5 -0.519161 0 3 -0.519161 0
gene 1 4 5 1.57067 0 4 1.57067 0
gene 1 4 10 0.664631 0 29 0.664631 0
gene 1 10 5 1.6755 0 30 1.6755 1
gene 1 1 10 -1.58635 0 33 -1.58635 1
gene 1 2 10 -1.33554 0 44 -1.33554 1
gene 1 3 10 0.188379 0 72 0.188379 1
gene 1 5 5 1.98179 1 83 1.98179 1
gene 1 10 10 -0.775959 1 164 -0.775959 1
gene 1 3 30 -0.645917 0 242 -0.645917 1
gene 1 30 5 0.763468 0 243 0.763468 1
gene 1 3 32 1.93947 0 253 1.93947 1
gene 1 32 30 -2.23968 0 254 -2.23968 1
gene 1 10 32 2.60194 0 258 2.60194 1
gene 1 2 32 2.44841 0 268 2.44841 1
gene 1 1 32 3.21162 0 310 3.21162 1
gene 1 30 30 0.116497 1 337 0.116497 1
gene 1 2 30 -0.699153 0 360 -0.699153 1
gene 1 32 5 -2.58637 0 367 -2.58637 1
gene 1 4 30 4.80811 0 372 4.80811 1
gene 1 1 30 -1.1586 0 393 -1.1586 1
gene 1 10 30 -2.30353 0 401 -2.30353 1
gene 1 4 35 2.66879 0 418 2.66879 1
gene 1 35 10 -1.55672 0 419 -1.55672 1
gene 1 35 32 -1.99567 0 428 -1.99567 1
genomeend 1 
