genomestart 1
trait 1 0.0257954 0 0.992938 0.582837 0.380475 0 0 0.449451 
node 1 1 1 3
node 2 1 1 1
node 3 1 1 1
node 4 1 1 1
node 5 1 0 2
node 10 1 0 0
node 30 1 0 0
node 32 1 0 0
gene 1 1 5 0.115474 0 1 0.115474 1
gene 1 2 5 -1.65717 0 2 -1.65717 1
gene 1 3 5 0.772419 0 3 0.772419 0
gene 1 4 5 2.58284 0 4 2.58284 0
gene 1 4 10 2.11166 0 29 2.11166 1
gene 1 10 5 1.06675 0 30 1.06675 1
gene 1 1 10 1.22176 0 33 1.22176 1
gene 1 2 10 -0.747668 0 44 -0.747668 1
gene 1 3 10 0.280209 0 72 0.280209 1
gene 1 5 5 -0.534239 1 83 -0.534239 1
gene 1 10 10 0.114045 1 164 0.114045 1
gene 1 3 30 -1.86652 0 242 -1.86652 1
gene 1 30 5 -0.541696 0 243 -0.541696 1
gene 1 3 32 1.4587 0 253 1.4587 1
gene 1 32 30 0.514449 0 254 0.514449 1
gene 1 10 32 1.93687 0 258 1.93687 1
gene 1 2 32 -3.10842 0 268 -3.10842 1
gene 1 1 32 1.90019 0 310 1.90019 1
gene 1 30 30 0.710404 1 337 0.710404 1
gene 1 2 30 -0.492121 0 360 -0.492121 1
gene 1 32 5 -0.682972 0 367 -0.682972 1
gene 1 4 30 1.71123 0 372 1.71123 1
gene 1 1 30 -0.203712 0 393 -0.203712 1
gene 1 4 32 -0.957933 0 421 -0.957933 1
genomeend 1
